digraph Tree {
node [shape=box, fontname="helvetica"] ;
edge [fontname="helvetica"] ;
0 [label="productive cough <= 0.5\ngini = 0.993\nsamples = 675\nvalue = [6, 4, 4, 4, 4, 4, 4, 4, 4, 4, 4, 4, 4, 4\n4, 4, 4, 4, 4, 4, 4, 4, 4, 4, 4, 4, 4, 4\n4, 4, 4, 4, 5, 4, 4, 4, 4, 4, 4, 4, 5, 4\n4, 4, 4, 4, 4, 4, 4, 4, 4, 4, 7, 1, 4, 4\n4, 4, 4, 4, 4, 4, 4, 4, 5, 5, 4, 4, 5, 4\n1, 1, 4, 5, 5, 5, 5, 4, 4, 5, 5, 5, 5, 5\n4, 4, 4, 4, 4, 4, 4, 4, 4, 4, 5, 4, 3, 5\n4, 5, 4, 4, 10, 6, 5, 5, 5, 5, 4, 5, 4, 5\n5, 5, 4, 5, 5, 5, 5, 7, 6, 5, 5, 6, 9, 5\n6, 5, 5, 4, 5, 10, 5, 6, 4, 5, 10, 5, 5, 5\n4, 4, 6, 5, 5, 5, 5, 5, 5]"] ;
1 [label="fever <= 0.5\ngini = 0.993\nsamples = 665\nvalue = [6, 4, 4, 4, 4, 4, 4, 4, 4, 4, 4, 4, 4, 4\n4, 4, 4, 4, 4, 4, 4, 4, 4, 4, 4, 4, 4, 4\n4, 4, 4, 4, 5, 4, 4, 4, 4, 4, 4, 4, 5, 4\n4, 4, 4, 4, 4, 4, 4, 4, 4, 4, 7, 1, 4, 4\n4, 4, 4, 4, 4, 4, 4, 4, 5, 5, 4, 4, 5, 4\n1, 1, 4, 5, 5, 5, 5, 4, 4, 5, 5, 5, 5, 5\n4, 4, 4, 4, 4, 4, 4, 4, 4, 4, 5, 4, 3, 5\n4, 5, 4, 4, 10, 6, 5, 5, 5, 5, 4, 5, 4, 5\n5, 5, 4, 5, 5, 5, 5, 7, 6, 5, 5, 6, 9, 5\n6, 5, 5, 4, 5, 0, 5, 6, 4, 5, 10, 5, 5, 5\n4, 4, 6, 5, 5, 5, 5, 5, 5]"] ;
0 -> 1 [labeldistance=2.5, labelangle=45, headlabel="True"] ;
2 [label="egophony <= 0.5\ngini = 0.993\nsamples = 655\nvalue = [6, 4, 4, 4, 4, 4, 4, 4, 4, 4, 4, 4, 4, 4\n4, 4, 4, 4, 4, 4, 4, 4, 4, 4, 4, 4, 4, 4\n4, 4, 4, 4, 5, 4, 4, 4, 4, 4, 4, 4, 5, 4\n4, 4, 4, 4, 4, 4, 4, 4, 4, 4, 7, 1, 4, 4\n4, 4, 4, 4, 4, 4, 4, 4, 5, 5, 4, 4, 5, 4\n1, 1, 4, 5, 5, 5, 5, 4, 4, 5, 5, 5, 5, 5\n4, 4, 4, 4, 4, 4, 4, 4, 4, 4, 5, 4, 3, 5\n4, 5, 4, 4, 0, 6, 5, 5, 5, 5, 4, 5, 4, 5\n5, 5, 4, 5, 5, 5, 5, 7, 6, 5, 5, 6, 9, 5\n6, 5, 5, 4, 5, 0, 5, 6, 4, 5, 10, 5, 5, 5\n4, 4, 6, 5, 5, 5, 5, 5, 5]"] ;
1 -> 2 ;
3 [label="abdomen acute <= 0.5\ngini = 0.993\nsamples = 645\nvalue = [6, 4, 4, 4, 4, 4, 4, 4, 4, 4, 4, 4, 4, 4\n4, 4, 4, 4, 4, 4, 4, 4, 4, 4, 4, 4, 4, 4\n4, 4, 4, 4, 5, 4, 4, 4, 4, 4, 4, 4, 5, 4\n4, 4, 4, 4, 4, 4, 4, 4, 4, 4, 7, 1, 4, 4\n4, 4, 4, 4, 4, 4, 4, 4, 5, 5, 4, 4, 5, 4\n1, 1, 4, 5, 5, 5, 5, 4, 4, 5, 5, 5, 5, 5\n4, 4, 4, 4, 4, 4, 4, 4, 4, 4, 5, 4, 3, 5\n4, 5, 4, 4, 0, 6, 5, 5, 5, 5, 4, 5, 4, 5\n5, 5, 4, 5, 5, 5, 5, 7, 6, 5, 5, 6, 9, 5\n6, 5, 5, 4, 5, 0, 5, 6, 4, 5, 0, 5, 5, 5\n4, 4, 6, 5, 5, 5, 5, 5, 5]"] ;
2 -> 3 ;
4 [label="ache <= 0.5\ngini = 0.993\nsamples = 638\nvalue = [6, 4, 4, 4, 4, 4, 4, 4, 4, 4, 4, 4, 4, 4\n4, 4, 4, 4, 4, 4, 4, 4, 4, 4, 4, 4, 4, 4\n4, 4, 4, 4, 5, 4, 4, 4, 4, 4, 4, 4, 5, 4\n4, 4, 4, 4, 4, 4, 4, 4, 4, 4, 7, 1, 4, 4\n4, 4, 4, 4, 4, 4, 4, 4, 5, 5, 4, 4, 5, 4\n1, 1, 4, 5, 5, 5, 5, 4, 4, 5, 5, 5, 5, 5\n4, 4, 4, 4, 4, 4, 4, 4, 4, 4, 5, 4, 3, 5\n4, 5, 4, 4, 0, 6, 5, 5, 5, 5, 4, 5, 4, 5\n5, 5, 4, 5, 5, 5, 5, 0, 6, 5, 5, 6, 9, 5\n6, 5, 5, 4, 5, 0, 5, 6, 4, 5, 0, 5, 5, 5\n4, 4, 6, 5, 5, 5, 5, 5, 5]"] ;
3 -> 4 ;
5 [label="hypothermia, natural <= 0.5\ngini = 0.993\nsamples = 631\nvalue = [6, 4, 4, 4, 4, 4, 4, 4, 4, 4, 4, 4, 4, 4\n4, 4, 4, 4, 4, 4, 4, 4, 4, 4, 4, 4, 4, 4\n4, 4, 4, 4, 5, 4, 4, 4, 4, 4, 4, 4, 5, 4\n4, 4, 4, 4, 4, 4, 4, 4, 4, 4, 0, 1, 4, 4\n4, 4, 4, 4, 4, 4, 4, 4, 5, 5, 4, 4, 5, 4\n1, 1, 4, 5, 5, 5, 5, 4, 4, 5, 5, 5, 5, 5\n4, 4, 4, 4, 4, 4, 4, 4, 4, 4, 5, 4, 3, 5\n4, 5, 4, 4, 0, 6, 5, 5, 5, 5, 4, 5, 4, 5\n5, 5, 4, 5, 5, 5, 5, 0, 6, 5, 5, 6, 9, 5\n6, 5, 5, 4, 5, 0, 5, 6, 4, 5, 0, 5, 5, 5\n4, 4, 6, 5, 5, 5, 5, 5, 5]"] ;
4 -> 5 ;
6 [label="sedentary <= 0.5\ngini = 0.993\nsamples = 614\nvalue = [6, 4, 4, 4, 4, 4, 4, 4, 4, 4, 4, 4, 4, 4\n4, 4, 4, 4, 4, 4, 4, 4, 4, 4, 4, 4, 4, 4\n4, 0, 4, 4, 5, 4, 4, 4, 4, 4, 4, 4, 5, 4\n4, 4, 4, 4, 4, 4, 4, 4, 4, 4, 0, 1, 4, 4\n4, 4, 4, 4, 4, 4, 4, 4, 5, 5, 4, 4, 5, 4\n1, 1, 4, 5, 5, 5, 5, 4, 4, 5, 5, 5, 5, 5\n4, 4, 4, 0, 4, 4, 4, 4, 4, 4, 5, 4, 3, 5\n4, 5, 4, 4, 0, 6, 5, 5, 5, 5, 4, 5, 4, 5\n5, 5, 4, 5, 5, 5, 5, 0, 6, 5, 5, 6, 0, 5\n6, 5, 5, 4, 5, 0, 5, 6, 4, 5, 0, 5, 5, 5\n4, 4, 6, 5, 5, 5, 5, 5, 5]"] ;
5 -> 6 ;
7 [label="heavy feeling <= 0.5\ngini = 0.993\nsamples = 608\nvalue = [0, 4, 4, 4, 4, 4, 4, 4, 4, 4, 4, 4, 4, 4\n4, 4, 4, 4, 4, 4, 4, 4, 4, 4, 4, 4, 4, 4\n4, 0, 4, 4, 5, 4, 4, 4, 4, 4, 4, 4, 5, 4\n4, 4, 4, 4, 4, 4, 4, 4, 4, 4, 0, 1, 4, 4\n4, 4, 4, 4, 4, 4, 4, 4, 5, 5, 4, 4, 5, 4\n1, 1, 4, 5, 5, 5, 5, 4, 4, 5, 5, 5, 5, 5\n4, 4, 4, 0, 4, 4, 4, 4, 4, 4, 5, 4, 3, 5\n4, 5, 4, 4, 0, 6, 5, 5, 5, 5, 4, 5, 4, 5\n5, 5, 4, 5, 5, 5, 5, 0, 6, 5, 5, 6, 0, 5\n6, 5, 5, 4, 5, 0, 5, 6, 4, 5, 0, 5, 5, 5\n4, 4, 6, 5, 5, 5, 5, 5, 5]"] ;
6 -> 7 ;
8 [label="catatonia <= 0.5\ngini = 0.993\nsamples = 602\nvalue = [0, 4, 4, 4, 4, 4, 4, 4, 4, 4, 4, 4, 4, 4\n4, 4, 4, 4, 4, 4, 4, 4, 4, 4, 4, 4, 4, 4\n4, 0, 4, 4, 5, 4, 4, 4, 4, 4, 4, 4, 5, 4\n4, 4, 4, 4, 4, 4, 4, 4, 4, 4, 0, 1, 4, 4\n4, 4, 4, 4, 4, 4, 4, 4, 5, 5, 4, 4, 5, 4\n1, 1, 4, 5, 5, 5, 5, 4, 4, 5, 5, 5, 5, 5\n4, 4, 4, 0, 4, 4, 4, 4, 4, 4, 5, 4, 3, 5\n4, 5, 4, 4, 0, 0, 5, 5, 5, 5, 4, 5, 4, 5\n5, 5, 4, 5, 5, 5, 5, 0, 6, 5, 5, 6, 0, 5\n6, 5, 5, 4, 5, 0, 5, 6, 4, 5, 0, 5, 5, 5\n4, 4, 6, 5, 5, 5, 5, 5, 5]"] ;
7 -> 8 ;
9 [label="groggy <= 0.5\ngini = 0.993\nsamples = 596\nvalue = [0, 4, 4, 4, 4, 4, 4, 4, 4, 4, 4, 4, 4, 4\n4, 4, 4, 4, 4, 4, 4, 4, 4, 4, 4, 4, 4, 4\n4, 0, 4, 4, 5, 4, 4, 4, 4, 4, 4, 4, 5, 4\n4, 4, 4, 4, 4, 4, 4, 4, 4, 4, 0, 1, 4, 4\n4, 4, 4, 4, 4, 4, 4, 4, 5, 5, 4, 4, 5, 4\n1, 1, 4, 5, 5, 5, 5, 4, 4, 5, 5, 5, 5, 5\n4, 4, 4, 0, 4, 4, 4, 4, 4, 4, 5, 4, 3, 5\n4, 5, 4, 4, 0, 0, 5, 5, 5, 5, 4, 5, 4, 5\n5, 5, 4, 5, 5, 5, 5, 0, 0, 5, 5, 6, 0, 5\n6, 5, 5, 4, 5, 0, 5, 6, 4, 5, 0, 5, 5, 5\n4, 4, 6, 5, 5, 5, 5, 5, 5]"] ;
8 -> 9 ;
10 [label="proteinemia <= 0.5\ngini = 0.992\nsamples = 590\nvalue = [0, 4, 4, 4, 4, 4, 4, 4, 4, 4, 4, 4, 4, 4\n4, 4, 4, 4, 4, 4, 4, 4, 4, 4, 4, 4, 4, 4\n4, 0, 4, 4, 5, 4, 4, 4, 4, 4, 4, 4, 5, 4\n4, 4, 4, 4, 4, 4, 4, 4, 4, 4, 0, 1, 4, 4\n4, 4, 4, 4, 4, 4, 4, 4, 5, 5, 4, 4, 5, 4\n1, 1, 4, 5, 5, 5, 5, 4, 4, 5, 5, 5, 5, 5\n4, 4, 4, 0, 4, 4, 4, 4, 4, 4, 5, 4, 3, 5\n4, 5, 4, 4, 0, 0, 5, 5, 5, 5, 4, 5, 4, 5\n5, 5, 4, 5, 5, 5, 5, 0, 0, 5, 5, 6, 0, 5\n0, 5, 5, 4, 5, 0, 5, 6, 4, 5, 0, 5, 5, 5\n4, 4, 6, 5, 5, 5, 5, 5, 5]"] ;
9 -> 10 ;
11 [label="vision blurred <= 0.5\ngini = 0.992\nsamples = 574\nvalue = [0, 4, 4, 4, 4, 4, 4, 4, 4, 4, 4, 4, 4, 4\n4, 4, 4, 4, 4, 4, 4, 4, 4, 4, 4, 4, 4, 4\n4, 0, 4, 4, 5, 4, 4, 4, 4, 4, 4, 4, 5, 4\n4, 4, 4, 4, 4, 4, 4, 4, 4, 4, 0, 1, 4, 4\n4, 4, 4, 4, 4, 4, 4, 4, 5, 5, 4, 4, 5, 4\n1, 1, 4, 5, 5, 5, 5, 4, 4, 5, 5, 5, 5, 5\n4, 4, 4, 0, 4, 4, 4, 4, 4, 4, 5, 4, 3, 5\n4, 5, 4, 4, 0, 0, 5, 5, 5, 5, 4, 5, 4, 5\n5, 5, 4, 5, 0, 0, 5, 0, 0, 5, 5, 6, 0, 5\n0, 5, 5, 4, 5, 0, 5, 6, 4, 5, 0, 5, 5, 5\n4, 4, 0, 5, 5, 5, 5, 5, 5]"] ;
10 -> 11 ;
12 [label="t wave inverted <= 0.5\ngini = 0.992\nsamples = 553\nvalue = [0, 4, 4, 4, 4, 4, 4, 4, 4, 4, 4, 4, 4, 4\n4, 4, 4, 4, 4, 4, 4, 4, 4, 4, 4, 4, 4, 4\n4, 0, 4, 4, 0, 4, 4, 4, 4, 4, 4, 4, 5, 4\n4, 4, 4, 4, 4, 4, 4, 4, 4, 4, 0, 1, 4, 4\n4, 4, 4, 4, 4, 4, 4, 4, 5, 5, 4, 4, 0, 4\n1, 1, 4, 5, 5, 5, 5, 4, 4, 5, 5, 5, 5, 5\n4, 4, 4, 0, 4, 4, 4, 4, 4, 4, 5, 4, 3, 5\n4, 5, 4, 4, 0, 0, 5, 5, 5, 5, 4, 5, 4, 5\n0, 5, 4, 5, 0, 0, 5, 0, 0, 5, 5, 0, 0, 5\n0, 5, 5, 4, 5, 0, 5, 6, 4, 5, 0, 5, 5, 5\n4, 4, 0, 5, 5, 5, 5, 5, 5]"] ;
11 -> 12 ;
13 [label="mental status changes <= 0.5\ngini = 0.992\nsamples = 528\nvalue = [0, 4, 4, 4, 4, 4, 4, 4, 4, 4, 4, 4, 4, 4\n4, 4, 4, 4, 4, 4, 4, 4, 4, 4, 4, 4, 4, 4\n4, 0, 4, 4, 0, 4, 4, 4, 4, 4, 4, 4, 5, 4\n4, 4, 4, 4, 4, 4, 4, 4, 4, 4, 0, 1, 4, 4\n4, 4, 4, 4, 4, 4, 4, 4, 5, 5, 4, 4, 0, 4\n1, 1, 4, 5, 5, 5, 5, 4, 4, 0, 5, 5, 5, 5\n4, 4, 4, 0, 4, 4, 4, 4, 4, 4, 5, 4, 3, 5\n4, 5, 4, 4, 0, 0, 5, 5, 5, 5, 4, 0, 4, 5\n0, 5, 4, 5, 0, 0, 5, 0, 0, 5, 5, 0, 0, 5\n0, 5, 5, 4, 5, 0, 5, 0, 0, 5, 0, 5, 5, 0\n4, 4, 0, 5, 5, 5, 5, 5, 5]"] ;
12 -> 13 ;
14 [label="panic <= 0.5\ngini = 0.992\nsamples = 523\nvalue = [0, 4, 4, 4, 4, 4, 4, 4, 4, 4, 4, 4, 4, 4\n4, 4, 4, 4, 4, 4, 4, 4, 4, 4, 4, 4, 4, 4\n4, 0, 4, 4, 0, 4, 4, 4, 4, 4, 4, 4, 5, 4\n4, 4, 4, 4, 4, 4, 4, 4, 4, 4, 0, 1, 4, 4\n4, 4, 4, 4, 4, 4, 4, 4, 5, 5, 4, 4, 0, 4\n1, 1, 4, 5, 5, 5, 5, 4, 4, 0, 5, 5, 5, 5\n4, 4, 4, 0, 4, 4, 4, 4, 4, 4, 5, 4, 3, 5\n4, 5, 4, 4, 0, 0, 5, 5, 5, 5, 4, 0, 4, 5\n0, 5, 4, 5, 0, 0, 5, 0, 0, 5, 5, 0, 0, 5\n0, 5, 5, 4, 5, 0, 5, 0, 0, 5, 0, 5, 0, 0\n4, 4, 0, 5, 5, 5, 5, 5, 5]"] ;
13 -> 14 ;
15 [label="lethargy <= 0.5\ngini = 0.992\nsamples = 518\nvalue = [0, 4, 4, 4, 4, 4, 4, 4, 4, 4, 4, 4, 4, 4\n4, 4, 4, 4, 4, 4, 4, 4, 4, 4, 4, 4, 4, 4\n4, 0, 4, 4, 0, 4, 4, 4, 4, 4, 4, 4, 5, 4\n4, 4, 4, 4, 4, 4, 4, 4, 4, 4, 0, 1, 4, 4\n4, 4, 4, 4, 4, 4, 4, 4, 5, 5, 4, 4, 0, 4\n1, 1, 4, 5, 5, 5, 5, 4, 4, 0, 5, 5, 5, 5\n4, 4, 4, 0, 4, 4, 4, 4, 4, 4, 5, 4, 3, 5\n4, 5, 4, 4, 0, 0, 5, 5, 5, 5, 4, 0, 4, 5\n0, 5, 4, 5, 0, 0, 5, 0, 0, 5, 5, 0, 0, 5\n0, 5, 5, 4, 5, 0, 0, 0, 0, 5, 0, 5, 0, 0\n4, 4, 0, 5, 5, 5, 5, 5, 5]"] ;
14 -> 15 ;
16 [label="incoherent <= 0.5\ngini = 0.992\nsamples = 513\nvalue = [0, 4, 4, 4, 4, 4, 4, 4, 4, 4, 4, 4, 4, 4\n4, 4, 4, 4, 4, 4, 4, 4, 4, 4, 4, 4, 4, 4\n4, 0, 4, 4, 0, 4, 4, 4, 4, 4, 4, 4, 5, 4\n4, 4, 4, 4, 4, 4, 4, 4, 4, 4, 0, 1, 4, 4\n4, 4, 4, 4, 4, 4, 4, 4, 5, 5, 4, 4, 0, 4\n1, 1, 4, 5, 5, 5, 5, 4, 4, 0, 5, 5, 5, 5\n4, 4, 4, 0, 4, 4, 4, 4, 4, 4, 5, 4, 3, 5\n4, 5, 4, 4, 0, 0, 5, 5, 5, 5, 4, 0, 4, 5\n0, 5, 4, 5, 0, 0, 5, 0, 0, 5, 5, 0, 0, 5\n0, 5, 5, 4, 5, 0, 0, 0, 0, 5, 0, 5, 0, 0\n4, 4, 0, 5, 5, 5, 0, 5, 5]"] ;
15 -> 16 ;
17 [label="suicidal <= 0.5\ngini = 0.992\nsamples = 508\nvalue = [0, 4, 4, 4, 4, 4, 4, 4, 4, 4, 4, 4, 4, 4\n4, 4, 4, 4, 4, 4, 4, 4, 4, 4, 4, 4, 4, 4\n4, 0, 4, 4, 0, 4, 4, 4, 4, 4, 4, 4, 5, 4\n4, 4, 4, 4, 4, 4, 4, 4, 4, 4, 0, 1, 4, 4\n4, 4, 4, 4, 4, 4, 4, 4, 5, 5, 4, 4, 0, 4\n1, 1, 4, 5, 5, 5, 5, 4, 4, 0, 5, 5, 5, 5\n4, 4, 4, 0, 4, 4, 4, 4, 4, 4, 5, 4, 3, 5\n4, 5, 4, 4, 0, 0, 5, 5, 5, 5, 4, 0, 4, 5\n0, 5, 4, 5, 0, 0, 5, 0, 0, 5, 5, 0, 0, 5\n0, 5, 5, 4, 5, 0, 0, 0, 0, 5, 0, 5, 0, 0\n4, 4, 0, 5, 5, 5, 0, 5, 0]"] ;
16 -> 17 ;
18 [label="polymyalgia <= 0.5\ngini = 0.991\nsamples = 503\nvalue = [0, 4, 4, 4, 4, 4, 4, 4, 4, 4, 4, 4, 4, 4\n4, 4, 4, 4, 4, 4, 4, 4, 4, 4, 4, 4, 4, 4\n4, 0, 4, 4, 0, 4, 4, 4, 4, 4, 4, 4, 5, 4\n4, 4, 4, 4, 4, 4, 4, 4, 4, 4, 0, 1, 4, 4\n4, 4, 4, 4, 4, 4, 4, 4, 5, 5, 4, 4, 0, 4\n1, 1, 4, 5, 5, 5, 5, 4, 4, 0, 5, 5, 5, 5\n4, 4, 4, 0, 4, 4, 4, 4, 4, 4, 5, 4, 3, 5\n4, 5, 4, 4, 0, 0, 5, 5, 0, 5, 4, 0, 4, 5\n0, 5, 4, 5, 0, 0, 5, 0, 0, 5, 5, 0, 0, 5\n0, 5, 5, 4, 5, 0, 0, 0, 0, 5, 0, 5, 0, 0\n4, 4, 0, 5, 5, 5, 0, 5, 0]"] ;
17 -> 18 ;
19 [label="nasal discharge present <= 0.5\ngini = 0.991\nsamples = 498\nvalue = [0, 4, 4, 4, 4, 4, 4, 4, 4, 4, 4, 4, 4, 4\n4, 4, 4, 4, 4, 4, 4, 4, 4, 4, 4, 4, 4, 4\n4, 0, 4, 4, 0, 4, 4, 4, 4, 4, 4, 4, 5, 4\n4, 4, 4, 4, 4, 4, 4, 4, 4, 4, 0, 1, 4, 4\n4, 4, 4, 4, 4, 4, 4, 4, 5, 5, 4, 4, 0, 4\n1, 1, 4, 5, 5, 5, 5, 4, 4, 0, 5, 5, 5, 5\n4, 4, 4, 0, 4, 4, 4, 4, 4, 4, 5, 4, 3, 5\n4, 5, 4, 4, 0, 0, 5, 5, 0, 5, 4, 0, 4, 5\n0, 0, 4, 5, 0, 0, 5, 0, 0, 5, 5, 0, 0, 5\n0, 5, 5, 4, 5, 0, 0, 0, 0, 5, 0, 5, 0, 0\n4, 4, 0, 5, 5, 5, 0, 5, 0]"] ;
18 -> 19 ;
20 [label="energy increased <= 0.5\ngini = 0.991\nsamples = 493\nvalue = [0, 4, 4, 4, 4, 4, 4, 4, 4, 4, 4, 4, 4, 4\n4, 4, 4, 4, 4, 4, 4, 4, 4, 4, 4, 4, 4, 4\n4, 0, 4, 4, 0, 4, 4, 4, 4, 4, 4, 4, 5, 4\n4, 4, 4, 4, 4, 4, 4, 4, 4, 4, 0, 1, 4, 4\n4, 4, 4, 4, 4, 4, 4, 4, 5, 5, 4, 4, 0, 4\n1, 1, 4, 5, 5, 5, 5, 4, 4, 0, 5, 5, 5, 5\n4, 4, 4, 0, 4, 4, 4, 4, 4, 4, 5, 4, 3, 5\n4, 5, 4, 4, 0, 0, 5, 5, 0, 5, 4, 0, 4, 5\n0, 0, 4, 5, 0, 0, 5, 0, 0, 5, 5, 0, 0, 5\n0, 5, 5, 4, 5, 0, 0, 0, 0, 5, 0, 5, 0, 0\n4, 4, 0, 5, 5, 5, 0, 0, 0]"] ;
19 -> 20 ;
21 [label="throat sore <= 0.5\ngini = 0.991\nsamples = 488\nvalue = [0, 4, 4, 4, 4, 4, 4, 4, 4, 4, 4, 4, 4, 4\n4, 4, 4, 4, 4, 4, 4, 4, 4, 4, 4, 4, 4, 4\n4, 0, 4, 4, 0, 4, 4, 4, 4, 4, 4, 4, 5, 4\n4, 4, 4, 4, 4, 4, 4, 4, 4, 4, 0, 1, 4, 4\n4, 4, 4, 4, 4, 4, 4, 4, 5, 5, 4, 4, 0, 4\n1, 1, 4, 5, 5, 5, 5, 4, 4, 0, 5, 5, 5, 5\n4, 4, 4, 0, 4, 4, 4, 4, 4, 4, 5, 4, 3, 5\n4, 5, 4, 4, 0, 0, 5, 5, 0, 5, 4, 0, 4, 5\n0, 0, 4, 5, 0, 0, 5, 0, 0, 5, 5, 0, 0, 5\n0, 0, 5, 4, 5, 0, 0, 0, 0, 5, 0, 5, 0, 0\n4, 4, 0, 5, 5, 5, 0, 0, 0]"] ;
20 -> 21 ;
22 [label="non-productive cough <= 0.5\ngini = 0.991\nsamples = 483\nvalue = [0, 4, 4, 4, 4, 4, 4, 4, 4, 4, 4, 4, 4, 4\n4, 4, 4, 4, 4, 4, 4, 4, 4, 4, 4, 4, 4, 4\n4, 0, 4, 4, 0, 4, 4, 4, 4, 4, 4, 4, 5, 4\n4, 4, 4, 4, 4, 4, 4, 4, 4, 4, 0, 1, 4, 4\n4, 4, 4, 4, 4, 4, 4, 4, 5, 5, 4, 4, 0, 4\n1, 1, 4, 5, 5, 5, 5, 4, 4, 0, 5, 0, 5, 5\n4, 4, 4, 0, 4, 4, 4, 4, 4, 4, 5, 4, 3, 5\n4, 5, 4, 4, 0, 0, 5, 5, 0, 5, 4, 0, 4, 5\n0, 0, 4, 5, 0, 0, 5, 0, 0, 5, 5, 0, 0, 5\n0, 0, 5, 4, 5, 0, 0, 0, 0, 5, 0, 5, 0, 0\n4, 4, 0, 5, 5, 5, 0, 0, 0]"] ;
21 -> 22 ;
23 [label="floppy <= 0.5\ngini = 0.991\nsamples = 478\nvalue = [0, 4, 4, 4, 4, 4, 4, 4, 4, 4, 4, 4, 4, 4\n4, 4, 4, 4, 4, 4, 4, 4, 4, 4, 4, 4, 4, 4\n4, 0, 4, 4, 0, 4, 4, 4, 4, 4, 4, 4, 5, 4\n4, 4, 4, 4, 4, 4, 4, 4, 4, 4, 0, 1, 4, 4\n4, 4, 4, 4, 4, 4, 4, 4, 5, 5, 4, 4, 0, 4\n1, 1, 4, 5, 5, 5, 5, 4, 4, 0, 5, 0, 5, 0\n4, 4, 4, 0, 4, 4, 4, 4, 4, 4, 5, 4, 3, 5\n4, 5, 4, 4, 0, 0, 5, 5, 0, 5, 4, 0, 4, 5\n0, 0, 4, 5, 0, 0, 5, 0, 0, 5, 5, 0, 0, 5\n0, 0, 5, 4, 5, 0, 0, 0, 0, 5, 0, 5, 0, 0\n4, 4, 0, 5, 5, 5, 0, 0, 0]"] ;
22 -> 23 ;
24 [label="posterior rhinorrhea <= 0.5\ngini = 0.991\nsamples = 473\nvalue = [0, 4, 4, 4, 4, 4, 4, 4, 4, 4, 4, 4, 4, 4\n4, 4, 4, 4, 4, 4, 4, 4, 4, 4, 4, 4, 4, 4\n4, 0, 4, 4, 0, 4, 4, 4, 4, 4, 4, 4, 5, 4\n4, 4, 4, 4, 4, 4, 4, 4, 4, 4, 0, 1, 4, 4\n4, 4, 4, 4, 4, 4, 4, 4, 5, 5, 4, 4, 0, 4\n1, 1, 4, 5, 5, 5, 5, 4, 4, 0, 5, 0, 5, 0\n4, 4, 4, 0, 4, 4, 4, 4, 4, 4, 5, 4, 3, 5\n4, 5, 4, 4, 0, 0, 5, 5, 0, 5, 4, 0, 4, 5\n0, 0, 4, 5, 0, 0, 5, 0, 0, 5, 5, 0, 0, 5\n0, 0, 5, 4, 5, 0, 0, 0, 0, 5, 0, 0, 0, 0\n4, 4, 0, 5, 5, 5, 0, 0, 0]"] ;
23 -> 24 ;
25 [label="cushingoid habitus <= 0.5\ngini = 0.991\nsamples = 468\nvalue = [0, 4, 4, 4, 4, 4, 4, 4, 4, 4, 4, 4, 4, 4\n4, 4, 4, 4, 4, 4, 4, 4, 4, 4, 4, 4, 4, 4\n4, 0, 4, 4, 0, 4, 4, 4, 4, 4, 4, 4, 5, 4\n4, 4, 4, 4, 4, 4, 4, 4, 4, 4, 0, 1, 4, 4\n4, 4, 4, 4, 4, 4, 4, 4, 5, 5, 4, 4, 0, 4\n1, 1, 4, 5, 5, 5, 5, 4, 4, 0, 5, 0, 5, 0\n4, 4, 4, 0, 4, 4, 4, 4, 4, 4, 5, 4, 3, 5\n4, 5, 4, 4, 0, 0, 5, 5, 0, 5, 4, 0, 4, 5\n0, 0, 4, 5, 0, 0, 5, 0, 0, 5, 5, 0, 0, 5\n0, 0, 5, 4, 5, 0, 0, 0, 0, 5, 0, 0, 0, 0\n4, 4, 0, 5, 5, 0, 0, 0, 0]"] ;
24 -> 25 ;
26 [label="hunger <= 0.5\ngini = 0.991\nsamples = 463\nvalue = [0, 4, 4, 4, 4, 4, 4, 4, 4, 4, 4, 4, 4, 4\n4, 4, 4, 4, 4, 4, 4, 4, 4, 4, 4, 4, 4, 4\n4, 0, 4, 4, 0, 4, 4, 4, 4, 4, 4, 4, 5, 4\n4, 4, 4, 4, 4, 4, 4, 4, 4, 4, 0, 1, 4, 4\n4, 4, 4, 4, 4, 4, 4, 4, 5, 5, 4, 4, 0, 4\n1, 1, 4, 5, 5, 5, 5, 4, 4, 0, 5, 0, 5, 0\n4, 4, 4, 0, 4, 4, 4, 4, 4, 4, 5, 4, 3, 5\n4, 5, 4, 4, 0, 0, 5, 5, 0, 5, 4, 0, 4, 5\n0, 0, 4, 5, 0, 0, 5, 0, 0, 5, 5, 0, 0, 5\n0, 0, 5, 4, 5, 0, 0, 0, 0, 5, 0, 0, 0, 0\n4, 4, 0, 5, 0, 0, 0, 0, 0]"] ;
25 -> 26 ;
27 [label="unwell <= 0.5\ngini = 0.991\nsamples = 458\nvalue = [0, 4, 4, 4, 4, 4, 4, 4, 4, 4, 4, 4, 4, 4\n4, 4, 4, 4, 4, 4, 4, 4, 4, 4, 4, 4, 4, 4\n4, 0, 4, 4, 0, 4, 4, 4, 4, 4, 4, 4, 5, 4\n4, 4, 4, 4, 4, 4, 4, 4, 4, 4, 0, 1, 4, 4\n4, 4, 4, 4, 4, 4, 4, 4, 5, 5, 4, 4, 0, 4\n1, 1, 4, 5, 5, 5, 5, 4, 4, 0, 5, 0, 5, 0\n4, 4, 4, 0, 4, 4, 4, 4, 4, 4, 5, 4, 3, 5\n4, 5, 4, 4, 0, 0, 5, 5, 0, 5, 4, 0, 4, 5\n0, 0, 4, 5, 0, 0, 5, 0, 0, 5, 5, 0, 0, 5\n0, 0, 5, 4, 5, 0, 0, 0, 0, 5, 0, 0, 0, 0\n4, 4, 0, 0, 0, 0, 0, 0, 0]"] ;
26 -> 27 ;
28 [label="previous pregnancies 2 <= 0.5\ngini = 0.991\nsamples = 453\nvalue = [0, 4, 4, 4, 4, 4, 4, 4, 4, 4, 4, 4, 4, 4\n4, 4, 4, 4, 4, 4, 4, 4, 4, 4, 4, 4, 4, 4\n4, 0, 4, 4, 0, 4, 4, 4, 4, 4, 4, 4, 0, 4\n4, 4, 4, 4, 4, 4, 4, 4, 4, 4, 0, 1, 4, 4\n4, 4, 4, 4, 4, 4, 4, 4, 5, 5, 4, 4, 0, 4\n1, 1, 4, 5, 5, 5, 5, 4, 4, 0, 5, 0, 5, 0\n4, 4, 4, 0, 4, 4, 4, 4, 4, 4, 5, 4, 3, 5\n4, 5, 4, 4, 0, 0, 5, 5, 0, 5, 4, 0, 4, 5\n0, 0, 4, 5, 0, 0, 5, 0, 0, 5, 5, 0, 0, 5\n0, 0, 5, 4, 5, 0, 0, 0, 0, 5, 0, 0, 0, 0\n4, 4, 0, 0, 0, 0, 0, 0, 0]"] ;
27 -> 28 ;
29 [label="intermenstrual heavy bleeding <= 0.5\ngini = 0.991\nsamples = 448\nvalue = [0, 4, 4, 4, 4, 4, 4, 4, 4, 4, 4, 4, 4, 4\n4, 4, 4, 4, 4, 4, 4, 4, 4, 4, 4, 4, 4, 4\n4, 0, 4, 4, 0, 4, 4, 4, 4, 4, 4, 4, 0, 4\n4, 4, 4, 4, 4, 4, 4, 4, 4, 4, 0, 1, 4, 4\n4, 4, 4, 4, 4, 4, 4, 4, 5, 5, 4, 4, 0, 4\n1, 1, 4, 5, 5, 5, 5, 4, 4, 0, 5, 0, 5, 0\n4, 4, 4, 0, 4, 4, 4, 4, 4, 4, 5, 4, 3, 5\n4, 5, 4, 4, 0, 0, 5, 0, 0, 5, 4, 0, 4, 5\n0, 0, 4, 5, 0, 0, 5, 0, 0, 5, 5, 0, 0, 5\n0, 0, 5, 4, 5, 0, 0, 0, 0, 5, 0, 0, 0, 0\n4, 4, 0, 0, 0, 0, 0, 0, 0]"] ;
28 -> 29 ;
30 [label="transsexual <= 0.5\ngini = 0.99\nsamples = 443\nvalue = [0, 4, 4, 4, 4, 4, 4, 4, 4, 4, 4, 4, 4, 4\n4, 4, 4, 4, 4, 4, 4, 4, 4, 4, 4, 4, 4, 4\n4, 0, 4, 4, 0, 4, 4, 4, 4, 4, 4, 4, 0, 4\n4, 4, 4, 4, 4, 4, 4, 4, 4, 4, 0, 1, 4, 4\n4, 4, 4, 4, 4, 4, 4, 4, 5, 5, 4, 4, 0, 4\n1, 1, 4, 5, 5, 5, 0, 4, 4, 0, 5, 0, 5, 0\n4, 4, 4, 0, 4, 4, 4, 4, 4, 4, 5, 4, 3, 5\n4, 5, 4, 4, 0, 0, 5, 0, 0, 5, 4, 0, 4, 5\n0, 0, 4, 5, 0, 0, 5, 0, 0, 5, 5, 0, 0, 5\n0, 0, 5, 4, 5, 0, 0, 0, 0, 5, 0, 0, 0, 0\n4, 4, 0, 0, 0, 0, 0, 0, 0]"] ;
29 -> 30 ;
31 [label="verbally abusive behavior <= 0.5\ngini = 0.99\nsamples = 438\nvalue = [0, 4, 4, 4, 4, 4, 4, 4, 4, 4, 4, 4, 4, 4\n4, 4, 4, 4, 4, 4, 4, 4, 4, 4, 4, 4, 4, 4\n4, 0, 4, 4, 0, 4, 4, 4, 4, 4, 4, 4, 0, 4\n4, 4, 4, 4, 4, 4, 4, 4, 4, 4, 0, 1, 4, 4\n4, 4, 4, 4, 4, 4, 4, 4, 5, 5, 4, 4, 0, 4\n1, 1, 4, 5, 5, 5, 0, 4, 4, 0, 5, 0, 5, 0\n4, 4, 4, 0, 4, 4, 4, 4, 4, 4, 0, 4, 3, 5\n4, 5, 4, 4, 0, 0, 5, 0, 0, 5, 4, 0, 4, 5\n0, 0, 4, 5, 0, 0, 5, 0, 0, 5, 5, 0, 0, 5\n0, 0, 5, 4, 5, 0, 0, 0, 0, 5, 0, 0, 0, 0\n4, 4, 0, 0, 0, 0, 0, 0, 0]"] ;
30 -> 31 ;
32 [label="sensory discomfort <= 0.5\ngini = 0.99\nsamples = 433\nvalue = [0, 4, 4, 4, 4, 4, 4, 4, 4, 4, 4, 4, 4, 4\n4, 4, 4, 4, 4, 4, 4, 4, 4, 4, 4, 4, 4, 4\n4, 0, 4, 4, 0, 4, 4, 4, 4, 4, 4, 4, 0, 4\n4, 4, 4, 4, 4, 4, 4, 4, 4, 4, 0, 1, 4, 4\n4, 4, 4, 4, 4, 4, 4, 4, 0, 5, 4, 4, 0, 4\n1, 1, 4, 5, 5, 5, 0, 4, 4, 0, 5, 0, 5, 0\n4, 4, 4, 0, 4, 4, 4, 4, 4, 4, 0, 4, 3, 5\n4, 5, 4, 4, 0, 0, 5, 0, 0, 5, 4, 0, 4, 5\n0, 0, 4, 5, 0, 0, 5, 0, 0, 5, 5, 0, 0, 5\n0, 0, 5, 4, 5, 0, 0, 0, 0, 5, 0, 0, 0, 0\n4, 4, 0, 0, 0, 0, 0, 0, 0]"] ;
31 -> 32 ;
33 [label="hypersomnolence <= 0.5\ngini = 0.99\nsamples = 428\nvalue = [0, 4, 4, 4, 4, 4, 4, 4, 4, 4, 4, 4, 4, 4\n4, 4, 4, 4, 4, 4, 4, 4, 4, 4, 4, 4, 4, 4\n4, 0, 4, 4, 0, 4, 4, 4, 4, 4, 4, 4, 0, 4\n4, 4, 4, 4, 4, 4, 4, 4, 4, 4, 0, 1, 4, 4\n4, 4, 4, 4, 4, 4, 4, 4, 0, 5, 4, 4, 0, 4\n1, 1, 4, 5, 5, 5, 0, 4, 4, 0, 5, 0, 5, 0\n4, 4, 4, 0, 4, 4, 4, 4, 4, 4, 0, 4, 3, 5\n4, 5, 4, 4, 0, 0, 5, 0, 0, 5, 4, 0, 4, 0\n0, 0, 4, 5, 0, 0, 5, 0, 0, 5, 5, 0, 0, 5\n0, 0, 5, 4, 5, 0, 0, 0, 0, 5, 0, 0, 0, 0\n4, 4, 0, 0, 0, 0, 0, 0, 0]"] ;
32 -> 33 ;
34 [label="qt interval prolonged <= 0.5\ngini = 0.99\nsamples = 423\nvalue = [0, 4, 4, 4, 4, 4, 4, 4, 4, 4, 4, 4, 4, 4\n4, 4, 4, 4, 4, 4, 4, 4, 4, 4, 4, 4, 4, 4\n4, 0, 4, 4, 0, 4, 4, 4, 4, 4, 4, 4, 0, 4\n4, 4, 4, 4, 4, 4, 4, 4, 4, 4, 0, 1, 4, 4\n4, 4, 4, 4, 4, 4, 4, 4, 0, 5, 4, 4, 0, 4\n1, 1, 4, 5, 5, 5, 0, 4, 4, 0, 5, 0, 5, 0\n4, 4, 4, 0, 4, 4, 4, 4, 4, 4, 0, 4, 3, 5\n4, 5, 4, 4, 0, 0, 5, 0, 0, 5, 4, 0, 4, 0\n0, 0, 4, 0, 0, 0, 5, 0, 0, 5, 5, 0, 0, 5\n0, 0, 5, 4, 5, 0, 0, 0, 0, 5, 0, 0, 0, 0\n4, 4, 0, 0, 0, 0, 0, 0, 0]"] ;
33 -> 34 ;
35 [label="vomiting <= 0.5\ngini = 0.99\nsamples = 418\nvalue = [0, 4, 4, 4, 4, 4, 4, 4, 4, 4, 4, 4, 4, 4\n4, 4, 4, 4, 4, 4, 4, 4, 4, 4, 4, 4, 4, 4\n4, 0, 4, 4, 0, 4, 4, 4, 4, 4, 4, 4, 0, 4\n4, 4, 4, 4, 4, 4, 4, 4, 4, 4, 0, 1, 4, 4\n4, 4, 4, 4, 4, 4, 4, 4, 0, 5, 4, 4, 0, 4\n1, 1, 4, 5, 5, 5, 0, 4, 4, 0, 5, 0, 5, 0\n4, 4, 4, 0, 4, 4, 4, 4, 4, 4, 0, 4, 3, 5\n4, 5, 4, 4, 0, 0, 5, 0, 0, 0, 4, 0, 4, 0\n0, 0, 4, 0, 0, 0, 5, 0, 0, 5, 5, 0, 0, 5\n0, 0, 5, 4, 5, 0, 0, 0, 0, 5, 0, 0, 0, 0\n4, 4, 0, 0, 0, 0, 0, 0, 0]"] ;
34 -> 35 ;
36 [label="emphysematous change <= 0.5\ngini = 0.99\nsamples = 413\nvalue = [0, 4, 4, 4, 4, 4, 4, 4, 4, 4, 4, 4, 4, 4\n4, 4, 4, 4, 4, 4, 4, 4, 4, 4, 4, 4, 4, 4\n4, 0, 4, 4, 0, 4, 4, 4, 4, 4, 4, 4, 0, 4\n4, 4, 4, 4, 4, 4, 4, 4, 4, 4, 0, 1, 4, 4\n4, 4, 4, 4, 4, 4, 4, 4, 0, 5, 4, 4, 0, 4\n1, 1, 4, 0, 5, 5, 0, 4, 4, 0, 5, 0, 5, 0\n4, 4, 4, 0, 4, 4, 4, 4, 4, 4, 0, 4, 3, 5\n4, 5, 4, 4, 0, 0, 5, 0, 0, 0, 4, 0, 4, 0\n0, 0, 4, 0, 0, 0, 5, 0, 0, 5, 5, 0, 0, 5\n0, 0, 5, 4, 5, 0, 0, 0, 0, 5, 0, 0, 0, 0\n4, 4, 0, 0, 0, 0, 0, 0, 0]"] ;
35 -> 36 ;
37 [label="red blotches <= 0.5\ngini = 0.99\nsamples = 403\nvalue = [0, 4, 4, 4, 4, 4, 4, 4, 4, 4, 4, 4, 4, 4\n4, 4, 4, 4, 4, 4, 4, 4, 4, 4, 4, 4, 4, 4\n4, 0, 4, 4, 0, 4, 4, 4, 4, 4, 4, 4, 0, 4\n4, 4, 4, 4, 4, 4, 4, 4, 4, 4, 0, 1, 4, 4\n4, 4, 4, 4, 4, 4, 4, 4, 0, 5, 4, 4, 0, 4\n1, 1, 4, 0, 5, 5, 0, 4, 4, 0, 5, 0, 5, 0\n4, 4, 4, 0, 4, 4, 4, 4, 4, 4, 0, 4, 3, 5\n4, 5, 4, 4, 0, 0, 5, 0, 0, 0, 4, 0, 4, 0\n0, 0, 4, 0, 0, 0, 5, 0, 0, 5, 5, 0, 0, 0\n0, 0, 5, 4, 5, 0, 0, 0, 0, 0, 0, 0, 0, 0\n4, 4, 0, 0, 0, 0, 0, 0, 0]"] ;
36 -> 37 ;
38 [label="hydropneumothorax <= 0.5\ngini = 0.99\nsamples = 394\nvalue = [0, 4, 4, 4, 4, 4, 4, 4, 4, 4, 4, 4, 4, 4\n4, 4, 4, 4, 4, 4, 4, 4, 4, 0, 4, 4, 4, 4\n4, 0, 4, 4, 0, 4, 4, 4, 4, 4, 4, 4, 0, 4\n4, 4, 4, 4, 4, 4, 4, 4, 4, 4, 0, 1, 4, 4\n4, 4, 4, 4, 4, 4, 4, 4, 0, 5, 4, 4, 0, 4\n1, 1, 4, 0, 5, 5, 0, 4, 4, 0, 5, 0, 5, 0\n4, 4, 4, 0, 4, 4, 4, 4, 4, 4, 0, 4, 3, 0\n4, 5, 4, 4, 0, 0, 5, 0, 0, 0, 4, 0, 4, 0\n0, 0, 4, 0, 0, 0, 5, 0, 0, 5, 5, 0, 0, 0\n0, 0, 5, 4, 5, 0, 0, 0, 0, 0, 0, 0, 0, 0\n4, 4, 0, 0, 0, 0, 0, 0, 0]"] ;
37 -> 38 ;
39 [label="hoard <= 0.5\ngini = 0.989\nsamples = 385\nvalue = [0, 4, 4, 4, 4, 4, 4, 4, 4, 4, 4, 4, 4, 4\n4, 4, 4, 4, 4, 4, 4, 0, 4, 0, 4, 4, 4, 4\n4, 0, 4, 4, 0, 4, 4, 4, 4, 4, 4, 4, 0, 4\n4, 4, 4, 4, 4, 4, 4, 4, 4, 4, 0, 1, 4, 4\n4, 4, 4, 4, 4, 4, 4, 4, 0, 5, 4, 4, 0, 4\n1, 1, 4, 0, 5, 5, 0, 4, 4, 0, 5, 0, 5, 0\n4, 4, 4, 0, 4, 4, 4, 4, 4, 4, 0, 4, 3, 0\n4, 0, 4, 4, 0, 0, 5, 0, 0, 0, 4, 0, 4, 0\n0, 0, 4, 0, 0, 0, 5, 0, 0, 5, 5, 0, 0, 0\n0, 0, 5, 4, 5, 0, 0, 0, 0, 0, 0, 0, 0, 0\n4, 4, 0, 0, 0, 0, 0, 0, 0]"] ;
38 -> 39 ;
40 [label="rigor - temperature-associated observation <= 0.5\ngini = 0.989\nsamples = 376\nvalue = [0, 4, 4, 4, 4, 4, 4, 4, 4, 4, 4, 4, 4, 4\n4, 4, 4, 4, 4, 4, 4, 0, 4, 0, 4, 4, 4, 4\n4, 0, 4, 4, 0, 4, 4, 4, 4, 4, 4, 4, 0, 4\n4, 4, 4, 4, 4, 4, 4, 4, 4, 4, 0, 1, 4, 4\n4, 4, 4, 4, 4, 4, 4, 4, 0, 5, 4, 4, 0, 4\n1, 1, 4, 0, 5, 0, 0, 0, 4, 0, 5, 0, 5, 0\n4, 4, 4, 0, 4, 4, 4, 4, 4, 4, 0, 4, 3, 0\n4, 0, 4, 4, 0, 0, 5, 0, 0, 0, 4, 0, 4, 0\n0, 0, 4, 0, 0, 0, 5, 0, 0, 5, 5, 0, 0, 0\n0, 0, 5, 4, 5, 0, 0, 0, 0, 0, 0, 0, 0, 0\n4, 4, 0, 0, 0, 0, 0, 0, 0]"] ;
39 -> 40 ;
41 [label="night sweat <= 0.5\ngini = 0.989\nsamples = 367\nvalue = [0, 4, 4, 0, 4, 4, 4, 4, 4, 4, 4, 4, 4, 4\n4, 4, 4, 4, 4, 4, 4, 0, 4, 0, 4, 4, 4, 4\n4, 0, 4, 4, 0, 4, 4, 4, 4, 4, 4, 4, 0, 4\n4, 4, 4, 4, 4, 4, 4, 4, 4, 4, 0, 1, 4, 4\n4, 4, 4, 4, 4, 4, 4, 4, 0, 5, 4, 4, 0, 4\n1, 1, 4, 0, 5, 0, 0, 0, 4, 0, 5, 0, 0, 0\n4, 4, 4, 0, 4, 4, 4, 4, 4, 4, 0, 4, 3, 0\n4, 0, 4, 4, 0, 0, 5, 0, 0, 0, 4, 0, 4, 0\n0, 0, 4, 0, 0, 0, 5, 0, 0, 5, 5, 0, 0, 0\n0, 0, 5, 4, 5, 0, 0, 0, 0, 0, 0, 0, 0, 0\n4, 4, 0, 0, 0, 0, 0, 0, 0]"] ;
40 -> 41 ;
42 [label="breath sounds decreased <= 0.5\ngini = 0.989\nsamples = 358\nvalue = [0, 4, 4, 0, 4, 0, 4, 4, 4, 4, 4, 4, 4, 4\n4, 4, 4, 4, 4, 4, 4, 0, 4, 0, 4, 4, 4, 4\n4, 0, 4, 4, 0, 4, 4, 4, 4, 4, 4, 4, 0, 4\n4, 4, 4, 4, 4, 4, 4, 4, 4, 4, 0, 1, 4, 4\n4, 4, 4, 4, 4, 4, 4, 4, 0, 5, 4, 4, 0, 4\n1, 1, 4, 0, 5, 0, 0, 0, 4, 0, 5, 0, 0, 0\n4, 4, 4, 0, 4, 4, 4, 4, 4, 4, 0, 4, 3, 0\n4, 0, 4, 4, 0, 0, 5, 0, 0, 0, 4, 0, 4, 0\n0, 0, 4, 0, 0, 0, 0, 0, 0, 5, 5, 0, 0, 0\n0, 0, 5, 4, 5, 0, 0, 0, 0, 0, 0, 0, 0, 0\n4, 4, 0, 0, 0, 0, 0, 0, 0]"] ;
41 -> 42 ;
43 [label="constipation <= 0.5\ngini = 0.988\nsamples = 340\nvalue = [0, 4, 4, 0, 4, 0, 4, 4, 4, 4, 4, 4, 4, 4\n4, 4, 4, 4, 4, 4, 4, 0, 4, 0, 4, 4, 4, 4\n4, 0, 4, 4, 0, 4, 4, 4, 4, 0, 4, 4, 0, 4\n4, 4, 4, 4, 4, 4, 4, 4, 4, 0, 0, 1, 4, 4\n4, 4, 4, 4, 4, 4, 4, 4, 0, 5, 4, 4, 0, 4\n1, 1, 4, 0, 5, 0, 0, 0, 4, 0, 5, 0, 0, 0\n4, 4, 4, 0, 4, 4, 4, 4, 4, 4, 0, 4, 3, 0\n4, 0, 4, 4, 0, 0, 0, 0, 0, 0, 4, 0, 4, 0\n0, 0, 4, 0, 0, 0, 0, 0, 0, 0, 5, 0, 0, 0\n0, 0, 5, 4, 5, 0, 0, 0, 0, 0, 0, 0, 0, 0\n4, 4, 0, 0, 0, 0, 0, 0, 0]"] ;
42 -> 43 ;
44 [label="dullness <= 0.5\ngini = 0.987\nsamples = 318\nvalue = [0, 4, 4, 0, 4, 0, 4, 4, 4, 4, 4, 4, 4, 4\n4, 4, 4, 4, 4, 4, 4, 0, 4, 0, 4, 4, 4, 4\n4, 0, 4, 4, 0, 4, 4, 4, 4, 0, 4, 4, 0, 4\n4, 4, 4, 4, 4, 4, 4, 4, 4, 0, 0, 1, 4, 4\n4, 4, 4, 4, 4, 4, 4, 4, 0, 5, 4, 4, 0, 4\n1, 1, 0, 0, 5, 0, 0, 0, 4, 0, 5, 0, 0, 0\n4, 4, 0, 0, 4, 4, 4, 4, 4, 4, 0, 4, 3, 0\n0, 0, 4, 4, 0, 0, 0, 0, 0, 0, 4, 0, 4, 0\n0, 0, 4, 0, 0, 0, 0, 0, 0, 0, 5, 0, 0, 0\n0, 0, 0, 4, 0, 0, 0, 0, 0, 0, 0, 0, 0, 0\n4, 4, 0, 0, 0, 0, 0, 0, 0]"] ;
43 -> 44 ;
45 [label="gasping for breath <= 0.5\ngini = 0.987\nsamples = 305\nvalue = [0, 4, 4, 0, 4, 0, 4, 4, 4, 4, 4, 4, 4, 4\n4, 4, 4, 4, 4, 0, 4, 0, 4, 0, 4, 4, 4, 4\n4, 0, 4, 4, 0, 4, 4, 4, 4, 0, 4, 4, 0, 4\n4, 4, 4, 4, 4, 4, 4, 4, 4, 0, 0, 1, 4, 4\n4, 4, 4, 4, 4, 4, 4, 4, 0, 0, 4, 4, 0, 4\n1, 1, 0, 0, 5, 0, 0, 0, 4, 0, 5, 0, 0, 0\n4, 4, 0, 0, 4, 4, 4, 4, 4, 4, 0, 0, 3, 0\n0, 0, 4, 4, 0, 0, 0, 0, 0, 0, 4, 0, 4, 0\n0, 0, 4, 0, 0, 0, 0, 0, 0, 0, 5, 0, 0, 0\n0, 0, 0, 4, 0, 0, 0, 0, 0, 0, 0, 0, 0, 0\n4, 4, 0, 0, 0, 0, 0, 0, 0]"] ;
44 -> 45 ;
46 [label="exhaustion <= 0.5\ngini = 0.986\nsamples = 292\nvalue = [0, 4, 4, 0, 4, 0, 4, 4, 4, 4, 4, 4, 4, 4\n4, 4, 4, 4, 4, 0, 4, 0, 4, 0, 4, 4, 4, 4\n4, 0, 4, 4, 0, 4, 4, 4, 4, 0, 4, 4, 0, 4\n4, 4, 4, 4, 4, 0, 4, 4, 4, 0, 0, 1, 4, 4\n4, 4, 4, 4, 4, 4, 4, 4, 0, 0, 4, 4, 0, 4\n1, 1, 0, 0, 5, 0, 0, 0, 4, 0, 0, 0, 0, 0\n4, 4, 0, 0, 4, 4, 4, 4, 4, 4, 0, 0, 3, 0\n0, 0, 4, 4, 0, 0, 0, 0, 0, 0, 4, 0, 4, 0\n0, 0, 0, 0, 0, 0, 0, 0, 0, 0, 5, 0, 0, 0\n0, 0, 0, 4, 0, 0, 0, 0, 0, 0, 0, 0, 0, 0\n4, 4, 0, 0, 0, 0, 0, 0, 0]"] ;
45 -> 46 ;
47 [label="withdraw <= 0.5\ngini = 0.986\nsamples = 283\nvalue = [0, 4, 4, 0, 4, 0, 4, 4, 4, 4, 4, 4, 4, 4\n4, 4, 4, 0, 4, 0, 4, 0, 4, 0, 4, 4, 4, 4\n4, 0, 4, 4, 0, 4, 4, 4, 4, 0, 4, 4, 0, 4\n4, 4, 4, 4, 4, 0, 4, 4, 4, 0, 0, 1, 4, 4\n4, 4, 4, 4, 4, 4, 4, 4, 0, 0, 4, 4, 0, 4\n1, 1, 0, 0, 5, 0, 0, 0, 4, 0, 0, 0, 0, 0\n4, 4, 0, 0, 4, 4, 4, 4, 4, 4, 0, 0, 3, 0\n0, 0, 4, 4, 0, 0, 0, 0, 0, 0, 4, 0, 4, 0\n0, 0, 0, 0, 0, 0, 0, 0, 0, 0, 0, 0, 0, 0\n0, 0, 0, 4, 0, 0, 0, 0, 0, 0, 0, 0, 0, 0\n4, 4, 0, 0, 0, 0, 0, 0, 0]"] ;
46 -> 47 ;
48 [label="side pain <= 0.5\ngini = 0.985\nsamples = 266\nvalue = [0, 0, 4, 0, 0, 0, 4, 4, 4, 4, 4, 4, 4, 4\n4, 4, 4, 0, 4, 0, 4, 0, 4, 0, 4, 4, 4, 4\n4, 0, 4, 4, 0, 4, 4, 4, 4, 0, 4, 4, 0, 4\n4, 4, 4, 4, 4, 0, 4, 4, 4, 0, 0, 1, 4, 4\n4, 4, 4, 4, 4, 0, 4, 4, 0, 0, 4, 4, 0, 4\n1, 1, 0, 0, 0, 0, 0, 0, 4, 0, 0, 0, 0, 0\n4, 4, 0, 0, 4, 4, 4, 4, 4, 4, 0, 0, 3, 0\n0, 0, 4, 4, 0, 0, 0, 0, 0, 0, 4, 0, 4, 0\n0, 0, 0, 0, 0, 0, 0, 0, 0, 0, 0, 0, 0, 0\n0, 0, 0, 4, 0, 0, 0, 0, 0, 0, 0, 0, 0, 0\n4, 4, 0, 0, 0, 0, 0, 0, 0]"] ;
47 -> 48 ;
49 [label="hemodynamically stable <= 0.5\ngini = 0.985\nsamples = 262\nvalue = [0, 0, 4, 0, 0, 0, 4, 4, 4, 4, 4, 4, 4, 4\n4, 4, 4, 0, 4, 0, 4, 0, 4, 0, 4, 4, 4, 4\n4, 0, 4, 4, 0, 4, 4, 4, 4, 0, 4, 4, 0, 4\n4, 4, 4, 4, 4, 0, 4, 4, 4, 0, 0, 1, 4, 4\n4, 4, 4, 4, 4, 0, 4, 4, 0, 0, 4, 4, 0, 4\n1, 1, 0, 0, 0, 0, 0, 0, 4, 0, 0, 0, 0, 0\n4, 4, 0, 0, 4, 4, 4, 4, 4, 4, 0, 0, 3, 0\n0, 0, 4, 4, 0, 0, 0, 0, 0, 0, 4, 0, 0, 0\n0, 0, 0, 0, 0, 0, 0, 0, 0, 0, 0, 0, 0, 0\n0, 0, 0, 4, 0, 0, 0, 0, 0, 0, 0, 0, 0, 0\n4, 4, 0, 0, 0, 0, 0, 0, 0]"] ;
48 -> 49 ;
50 [label="haemorrhage <= 0.5\ngini = 0.985\nsamples = 258\nvalue = [0, 0, 4, 0, 0, 0, 4, 4, 4, 4, 4, 4, 4, 4\n4, 4, 4, 0, 4, 0, 4, 0, 4, 0, 4, 4, 4, 4\n4, 0, 4, 4, 0, 4, 4, 4, 4, 0, 4, 4, 0, 4\n4, 4, 4, 4, 4, 0, 4, 4, 4, 0, 0, 1, 4, 4\n4, 4, 4, 4, 4, 0, 4, 4, 0, 0, 4, 4, 0, 4\n1, 1, 0, 0, 0, 0, 0, 0, 4, 0, 0, 0, 0, 0\n4, 4, 0, 0, 4, 4, 4, 4, 4, 4, 0, 0, 3, 0\n0, 0, 0, 4, 0, 0, 0, 0, 0, 0, 4, 0, 0, 0\n0, 0, 0, 0, 0, 0, 0, 0, 0, 0, 0, 0, 0, 0\n0, 0, 0, 4, 0, 0, 0, 0, 0, 0, 0, 0, 0, 0\n4, 4, 0, 0, 0, 0, 0, 0, 0]"] ;
49 -> 50 ;
51 [label="mood depressed <= 0.5\ngini = 0.984\nsamples = 254\nvalue = [0, 0, 4, 0, 0, 0, 4, 4, 4, 4, 4, 4, 4, 4\n4, 4, 4, 0, 4, 0, 4, 0, 4, 0, 4, 4, 4, 4\n4, 0, 4, 4, 0, 4, 4, 4, 4, 0, 4, 4, 0, 4\n4, 4, 4, 4, 4, 0, 0, 4, 4, 0, 0, 1, 4, 4\n4, 4, 4, 4, 4, 0, 4, 4, 0, 0, 4, 4, 0, 4\n1, 1, 0, 0, 0, 0, 0, 0, 4, 0, 0, 0, 0, 0\n4, 4, 0, 0, 4, 4, 4, 4, 4, 4, 0, 0, 3, 0\n0, 0, 0, 4, 0, 0, 0, 0, 0, 0, 4, 0, 0, 0\n0, 0, 0, 0, 0, 0, 0, 0, 0, 0, 0, 0, 0, 0\n0, 0, 0, 4, 0, 0, 0, 0, 0, 0, 0, 0, 0, 0\n4, 4, 0, 0, 0, 0, 0, 0, 0]"] ;
50 -> 51 ;
52 [label="tenesmus <= 0.5\ngini = 0.984\nsamples = 250\nvalue = [0, 0, 4, 0, 0, 0, 4, 4, 4, 4, 4, 4, 4, 4\n4, 4, 4, 0, 4, 0, 4, 0, 4, 0, 4, 4, 4, 4\n4, 0, 4, 4, 0, 4, 4, 4, 4, 0, 4, 0, 0, 4\n4, 4, 4, 4, 4, 0, 0, 4, 4, 0, 0, 1, 4, 4\n4, 4, 4, 4, 4, 0, 4, 4, 0, 0, 4, 4, 0, 4\n1, 1, 0, 0, 0, 0, 0, 0, 4, 0, 0, 0, 0, 0\n4, 4, 0, 0, 4, 4, 4, 4, 4, 4, 0, 0, 3, 0\n0, 0, 0, 4, 0, 0, 0, 0, 0, 0, 4, 0, 0, 0\n0, 0, 0, 0, 0, 0, 0, 0, 0, 0, 0, 0, 0, 0\n0, 0, 0, 4, 0, 0, 0, 0, 0, 0, 0, 0, 0, 0\n4, 4, 0, 0, 0, 0, 0, 0, 0]"] ;
51 -> 52 ;
53 [label="pin-point pupils <= 0.5\ngini = 0.984\nsamples = 246\nvalue = [0, 0, 4, 0, 0, 0, 4, 4, 4, 4, 4, 4, 4, 4\n4, 4, 4, 0, 4, 0, 0, 0, 4, 0, 4, 4, 4, 4\n4, 0, 4, 4, 0, 4, 4, 4, 4, 0, 4, 0, 0, 4\n4, 4, 4, 4, 4, 0, 0, 4, 4, 0, 0, 1, 4, 4\n4, 4, 4, 4, 4, 0, 4, 4, 0, 0, 4, 4, 0, 4\n1, 1, 0, 0, 0, 0, 0, 0, 4, 0, 0, 0, 0, 0\n4, 4, 0, 0, 4, 4, 4, 4, 4, 4, 0, 0, 3, 0\n0, 0, 0, 4, 0, 0, 0, 0, 0, 0, 4, 0, 0, 0\n0, 0, 0, 0, 0, 0, 0, 0, 0, 0, 0, 0, 0, 0\n0, 0, 0, 4, 0, 0, 0, 0, 0, 0, 0, 0, 0, 0\n4, 4, 0, 0, 0, 0, 0, 0, 0]"] ;
52 -> 53 ;
54 [label="monoclonal <= 0.5\ngini = 0.984\nsamples = 242\nvalue = [0, 0, 4, 0, 0, 0, 4, 4, 4, 4, 4, 4, 4, 4\n4, 4, 0, 0, 4, 0, 0, 0, 4, 0, 4, 4, 4, 4\n4, 0, 4, 4, 0, 4, 4, 4, 4, 0, 4, 0, 0, 4\n4, 4, 4, 4, 4, 0, 0, 4, 4, 0, 0, 1, 4, 4\n4, 4, 4, 4, 4, 0, 4, 4, 0, 0, 4, 4, 0, 4\n1, 1, 0, 0, 0, 0, 0, 0, 4, 0, 0, 0, 0, 0\n4, 4, 0, 0, 4, 4, 4, 4, 4, 4, 0, 0, 3, 0\n0, 0, 0, 4, 0, 0, 0, 0, 0, 0, 4, 0, 0, 0\n0, 0, 0, 0, 0, 0, 0, 0, 0, 0, 0, 0, 0, 0\n0, 0, 0, 4, 0, 0, 0, 0, 0, 0, 0, 0, 0, 0\n4, 4, 0, 0, 0, 0, 0, 0, 0]"] ;
53 -> 54 ;
55 [label="frothy sputum <= 0.5\ngini = 0.983\nsamples = 238\nvalue = [0, 0, 0, 0, 0, 0, 4, 4, 4, 4, 4, 4, 4, 4\n4, 4, 0, 0, 4, 0, 0, 0, 4, 0, 4, 4, 4, 4\n4, 0, 4, 4, 0, 4, 4, 4, 4, 0, 4, 0, 0, 4\n4, 4, 4, 4, 4, 0, 0, 4, 4, 0, 0, 1, 4, 4\n4, 4, 4, 4, 4, 0, 4, 4, 0, 0, 4, 4, 0, 4\n1, 1, 0, 0, 0, 0, 0, 0, 4, 0, 0, 0, 0, 0\n4, 4, 0, 0, 4, 4, 4, 4, 4, 4, 0, 0, 3, 0\n0, 0, 0, 4, 0, 0, 0, 0, 0, 0, 4, 0, 0, 0\n0, 0, 0, 0, 0, 0, 0, 0, 0, 0, 0, 0, 0, 0\n0, 0, 0, 4, 0, 0, 0, 0, 0, 0, 0, 0, 0, 0\n4, 4, 0, 0, 0, 0, 0, 0, 0]"] ;
54 -> 55 ;
56 [label="bleeding of vagina <= 0.5\ngini = 0.983\nsamples = 234\nvalue = [0, 0, 0, 0, 0, 0, 4, 4, 4, 4, 4, 4, 4, 4\n4, 4, 0, 0, 4, 0, 0, 0, 4, 0, 4, 4, 4, 4\n4, 0, 4, 4, 0, 4, 4, 4, 4, 0, 4, 0, 0, 4\n4, 4, 4, 4, 4, 0, 0, 4, 4, 0, 0, 1, 4, 4\n4, 4, 0, 4, 4, 0, 4, 4, 0, 0, 4, 4, 0, 4\n1, 1, 0, 0, 0, 0, 0, 0, 4, 0, 0, 0, 0, 0\n4, 4, 0, 0, 4, 4, 4, 4, 4, 4, 0, 0, 3, 0\n0, 0, 0, 4, 0, 0, 0, 0, 0, 0, 4, 0, 0, 0\n0, 0, 0, 0, 0, 0, 0, 0, 0, 0, 0, 0, 0, 0\n0, 0, 0, 4, 0, 0, 0, 0, 0, 0, 0, 0, 0, 0\n4, 4, 0, 0, 0, 0, 0, 0, 0]"] ;
55 -> 56 ;
57 [label="wheelchair bound <= 0.5\ngini = 0.983\nsamples = 230\nvalue = [0, 0, 0, 0, 0, 0, 4, 4, 4, 4, 4, 4, 4, 4\n4, 4, 0, 0, 4, 0, 0, 0, 4, 0, 4, 4, 4, 4\n4, 0, 4, 4, 0, 4, 4, 4, 4, 0, 4, 0, 0, 4\n4, 4, 4, 4, 4, 0, 0, 4, 4, 0, 0, 1, 4, 4\n4, 4, 0, 4, 4, 0, 4, 4, 0, 0, 4, 4, 0, 4\n1, 1, 0, 0, 0, 0, 0, 0, 4, 0, 0, 0, 0, 0\n4, 4, 0, 0, 4, 4, 0, 4, 4, 4, 0, 0, 3, 0\n0, 0, 0, 4, 0, 0, 0, 0, 0, 0, 4, 0, 0, 0\n0, 0, 0, 0, 0, 0, 0, 0, 0, 0, 0, 0, 0, 0\n0, 0, 0, 4, 0, 0, 0, 0, 0, 0, 0, 0, 0, 0\n4, 4, 0, 0, 0, 0, 0, 0, 0]"] ;
56 -> 57 ;
58 [label="gravida 10 <= 0.5\ngini = 0.983\nsamples = 226\nvalue = [0, 0, 0, 0, 0, 0, 4, 4, 4, 4, 4, 4, 4, 4\n4, 4, 0, 0, 4, 0, 0, 0, 0, 0, 4, 4, 4, 4\n4, 0, 4, 4, 0, 4, 4, 4, 4, 0, 4, 0, 0, 4\n4, 4, 4, 4, 4, 0, 0, 4, 4, 0, 0, 1, 4, 4\n4, 4, 0, 4, 4, 0, 4, 4, 0, 0, 4, 4, 0, 4\n1, 1, 0, 0, 0, 0, 0, 0, 4, 0, 0, 0, 0, 0\n4, 4, 0, 0, 4, 4, 0, 4, 4, 4, 0, 0, 3, 0\n0, 0, 0, 4, 0, 0, 0, 0, 0, 0, 4, 0, 0, 0\n0, 0, 0, 0, 0, 0, 0, 0, 0, 0, 0, 0, 0, 0\n0, 0, 0, 4, 0, 0, 0, 0, 0, 0, 0, 0, 0, 0\n4, 4, 0, 0, 0, 0, 0, 0, 0]"] ;
57 -> 58 ;
59 [label="prostatism <= 0.5\ngini = 0.982\nsamples = 222\nvalue = [0, 0, 0, 0, 0, 0, 4, 0, 4, 4, 4, 4, 4, 4\n4, 4, 0, 0, 4, 0, 0, 0, 0, 0, 4, 4, 4, 4\n4, 0, 4, 4, 0, 4, 4, 4, 4, 0, 4, 0, 0, 4\n4, 4, 4, 4, 4, 0, 0, 4, 4, 0, 0, 1, 4, 4\n4, 4, 0, 4, 4, 0, 4, 4, 0, 0, 4, 4, 0, 4\n1, 1, 0, 0, 0, 0, 0, 0, 4, 0, 0, 0, 0, 0\n4, 4, 0, 0, 4, 4, 0, 4, 4, 4, 0, 0, 3, 0\n0, 0, 0, 4, 0, 0, 0, 0, 0, 0, 4, 0, 0, 0\n0, 0, 0, 0, 0, 0, 0, 0, 0, 0, 0, 0, 0, 0\n0, 0, 0, 4, 0, 0, 0, 0, 0, 0, 0, 0, 0, 0\n4, 4, 0, 0, 0, 0, 0, 0, 0]"] ;
58 -> 59 ;
60 [label="aphagia <= 0.5\ngini = 0.982\nsamples = 218\nvalue = [0, 0, 0, 0, 0, 0, 4, 0, 4, 0, 4, 4, 4, 4\n4, 4, 0, 0, 4, 0, 0, 0, 0, 0, 4, 4, 4, 4\n4, 0, 4, 4, 0, 4, 4, 4, 4, 0, 4, 0, 0, 4\n4, 4, 4, 4, 4, 0, 0, 4, 4, 0, 0, 1, 4, 4\n4, 4, 0, 4, 4, 0, 4, 4, 0, 0, 4, 4, 0, 4\n1, 1, 0, 0, 0, 0, 0, 0, 4, 0, 0, 0, 0, 0\n4, 4, 0, 0, 4, 4, 0, 4, 4, 4, 0, 0, 3, 0\n0, 0, 0, 4, 0, 0, 0, 0, 0, 0, 4, 0, 0, 0\n0, 0, 0, 0, 0, 0, 0, 0, 0, 0, 0, 0, 0, 0\n0, 0, 0, 4, 0, 0, 0, 0, 0, 0, 0, 0, 0, 0\n4, 4, 0, 0, 0, 0, 0, 0, 0]"] ;
59 -> 60 ;
61 [label="awakening early <= 0.5\ngini = 0.982\nsamples = 214\nvalue = [0, 0, 0, 0, 0, 0, 4, 0, 0, 0, 4, 4, 4, 4\n4, 4, 0, 0, 4, 0, 0, 0, 0, 0, 4, 4, 4, 4\n4, 0, 4, 4, 0, 4, 4, 4, 4, 0, 4, 0, 0, 4\n4, 4, 4, 4, 4, 0, 0, 4, 4, 0, 0, 1, 4, 4\n4, 4, 0, 4, 4, 0, 4, 4, 0, 0, 4, 4, 0, 4\n1, 1, 0, 0, 0, 0, 0, 0, 4, 0, 0, 0, 0, 0\n4, 4, 0, 0, 4, 4, 0, 4, 4, 4, 0, 0, 3, 0\n0, 0, 0, 4, 0, 0, 0, 0, 0, 0, 4, 0, 0, 0\n0, 0, 0, 0, 0, 0, 0, 0, 0, 0, 0, 0, 0, 0\n0, 0, 0, 4, 0, 0, 0, 0, 0, 0, 0, 0, 0, 0\n4, 4, 0, 0, 0, 0, 0, 0, 0]"] ;
60 -> 61 ;
62 [label="dizziness <= 0.5\ngini = 0.981\nsamples = 210\nvalue = [0, 0, 0, 0, 0, 0, 4, 0, 0, 0, 4, 4, 4, 4\n4, 4, 0, 0, 4, 0, 0, 0, 0, 0, 4, 4, 4, 4\n4, 0, 4, 4, 0, 4, 4, 4, 4, 0, 4, 0, 0, 4\n4, 4, 4, 4, 4, 0, 0, 4, 4, 0, 0, 1, 4, 4\n4, 4, 0, 4, 4, 0, 4, 0, 0, 0, 4, 4, 0, 4\n1, 1, 0, 0, 0, 0, 0, 0, 4, 0, 0, 0, 0, 0\n4, 4, 0, 0, 4, 4, 0, 4, 4, 4, 0, 0, 3, 0\n0, 0, 0, 4, 0, 0, 0, 0, 0, 0, 4, 0, 0, 0\n0, 0, 0, 0, 0, 0, 0, 0, 0, 0, 0, 0, 0, 0\n0, 0, 0, 4, 0, 0, 0, 0, 0, 0, 0, 0, 0, 0\n4, 4, 0, 0, 0, 0, 0, 0, 0]"] ;
61 -> 62 ;
63 [label="scar tissue <= 0.5\ngini = 0.981\nsamples = 206\nvalue = [0, 0, 0, 0, 0, 0, 4, 0, 0, 0, 4, 4, 4, 4\n4, 4, 0, 0, 4, 0, 0, 0, 0, 0, 4, 4, 0, 4\n4, 0, 4, 4, 0, 4, 4, 4, 4, 0, 4, 0, 0, 4\n4, 4, 4, 4, 4, 0, 0, 4, 4, 0, 0, 1, 4, 4\n4, 4, 0, 4, 4, 0, 4, 0, 0, 0, 4, 4, 0, 4\n1, 1, 0, 0, 0, 0, 0, 0, 4, 0, 0, 0, 0, 0\n4, 4, 0, 0, 4, 4, 0, 4, 4, 4, 0, 0, 3, 0\n0, 0, 0, 4, 0, 0, 0, 0, 0, 0, 4, 0, 0, 0\n0, 0, 0, 0, 0, 0, 0, 0, 0, 0, 0, 0, 0, 0\n0, 0, 0, 4, 0, 0, 0, 0, 0, 0, 0, 0, 0, 0\n4, 4, 0, 0, 0, 0, 0, 0, 0]"] ;
62 -> 63 ;
64 [label="urgency of micturition <= 0.5\ngini = 0.98\nsamples = 202\nvalue = [0, 0, 0, 0, 0, 0, 4, 0, 0, 0, 4, 4, 4, 4\n4, 4, 0, 0, 4, 0, 0, 0, 0, 0, 4, 4, 0, 4\n4, 0, 4, 4, 0, 4, 4, 4, 4, 0, 4, 0, 0, 4\n4, 4, 4, 4, 4, 0, 0, 4, 4, 0, 0, 1, 4, 4\n4, 4, 0, 4, 0, 0, 4, 0, 0, 0, 4, 4, 0, 4\n1, 1, 0, 0, 0, 0, 0, 0, 4, 0, 0, 0, 0, 0\n4, 4, 0, 0, 4, 4, 0, 4, 4, 4, 0, 0, 3, 0\n0, 0, 0, 4, 0, 0, 0, 0, 0, 0, 4, 0, 0, 0\n0, 0, 0, 0, 0, 0, 0, 0, 0, 0, 0, 0, 0, 0\n0, 0, 0, 4, 0, 0, 0, 0, 0, 0, 0, 0, 0, 0\n4, 4, 0, 0, 0, 0, 0, 0, 0]"] ;
63 -> 64 ;
65 [label="unconscious state <= 0.5\ngini = 0.98\nsamples = 198\nvalue = [0, 0, 0, 0, 0, 0, 4, 0, 0, 0, 4, 4, 4, 4\n4, 4, 0, 0, 4, 0, 0, 0, 0, 0, 4, 4, 0, 4\n4, 0, 4, 4, 0, 4, 4, 4, 4, 0, 4, 0, 0, 4\n4, 4, 4, 4, 4, 0, 0, 4, 4, 0, 0, 1, 4, 4\n4, 4, 0, 4, 0, 0, 4, 0, 0, 0, 4, 4, 0, 4\n1, 1, 0, 0, 0, 0, 0, 0, 4, 0, 0, 0, 0, 0\n0, 4, 0, 0, 4, 4, 0, 4, 4, 4, 0, 0, 3, 0\n0, 0, 0, 4, 0, 0, 0, 0, 0, 0, 4, 0, 0, 0\n0, 0, 0, 0, 0, 0, 0, 0, 0, 0, 0, 0, 0, 0\n0, 0, 0, 4, 0, 0, 0, 0, 0, 0, 0, 0, 0, 0\n4, 4, 0, 0, 0, 0, 0, 0, 0]"] ;
64 -> 65 ;
66 [label="indifferent mood <= 0.5\ngini = 0.98\nsamples = 194\nvalue = [0, 0, 0, 0, 0, 0, 4, 0, 0, 0, 4, 4, 4, 4\n4, 4, 0, 0, 4, 0, 0, 0, 0, 0, 4, 4, 0, 4\n4, 0, 4, 4, 0, 4, 4, 4, 4, 0, 4, 0, 0, 4\n0, 4, 4, 4, 4, 0, 0, 4, 4, 0, 0, 1, 4, 4\n4, 4, 0, 4, 0, 0, 4, 0, 0, 0, 4, 4, 0, 4\n1, 1, 0, 0, 0, 0, 0, 0, 4, 0, 0, 0, 0, 0\n0, 4, 0, 0, 4, 4, 0, 4, 4, 4, 0, 0, 3, 0\n0, 0, 0, 4, 0, 0, 0, 0, 0, 0, 4, 0, 0, 0\n0, 0, 0, 0, 0, 0, 0, 0, 0, 0, 0, 0, 0, 0\n0, 0, 0, 4, 0, 0, 0, 0, 0, 0, 0, 0, 0, 0\n4, 4, 0, 0, 0, 0, 0, 0, 0]"] ;
65 -> 66 ;
67 [label="pain foot <= 0.5\ngini = 0.979\nsamples = 190\nvalue = [0, 0, 0, 0, 0, 0, 4, 0, 0, 0, 4, 4, 4, 4\n4, 4, 0, 0, 4, 0, 0, 0, 0, 0, 4, 4, 0, 4\n4, 0, 4, 4, 0, 4, 4, 4, 4, 0, 0, 0, 0, 4\n0, 4, 4, 4, 4, 0, 0, 4, 4, 0, 0, 1, 4, 4\n4, 4, 0, 4, 0, 0, 4, 0, 0, 0, 4, 4, 0, 4\n1, 1, 0, 0, 0, 0, 0, 0, 4, 0, 0, 0, 0, 0\n0, 4, 0, 0, 4, 4, 0, 4, 4, 4, 0, 0, 3, 0\n0, 0, 0, 4, 0, 0, 0, 0, 0, 0, 4, 0, 0, 0\n0, 0, 0, 0, 0, 0, 0, 0, 0, 0, 0, 0, 0, 0\n0, 0, 0, 4, 0, 0, 0, 0, 0, 0, 0, 0, 0, 0\n4, 4, 0, 0, 0, 0, 0, 0, 0]"] ;
66 -> 67 ;
68 [label="low back pain <= 0.5\ngini = 0.979\nsamples = 186\nvalue = [0, 0, 0, 0, 0, 0, 4, 0, 0, 0, 4, 4, 4, 4\n4, 4, 0, 0, 4, 0, 0, 0, 0, 0, 4, 4, 0, 4\n4, 0, 4, 4, 0, 4, 4, 4, 4, 0, 0, 0, 0, 4\n0, 4, 4, 4, 4, 0, 0, 4, 4, 0, 0, 1, 4, 4\n4, 4, 0, 4, 0, 0, 4, 0, 0, 0, 4, 4, 0, 4\n1, 1, 0, 0, 0, 0, 0, 0, 0, 0, 0, 0, 0, 0\n0, 4, 0, 0, 4, 4, 0, 4, 4, 4, 0, 0, 3, 0\n0, 0, 0, 4, 0, 0, 0, 0, 0, 0, 4, 0, 0, 0\n0, 0, 0, 0, 0, 0, 0, 0, 0, 0, 0, 0, 0, 0\n0, 0, 0, 4, 0, 0, 0, 0, 0, 0, 0, 0, 0, 0\n4, 4, 0, 0, 0, 0, 0, 0, 0]"] ;
67 -> 68 ;
69 [label="fall <= 0.5\ngini = 0.978\nsamples = 182\nvalue = [0, 0, 0, 0, 0, 0, 4, 0, 0, 0, 4, 4, 4, 4\n4, 4, 0, 0, 4, 0, 0, 0, 0, 0, 4, 4, 0, 4\n4, 0, 4, 4, 0, 4, 4, 4, 4, 0, 0, 0, 0, 4\n0, 4, 4, 4, 4, 0, 0, 4, 4, 0, 0, 1, 4, 4\n4, 4, 0, 4, 0, 0, 4, 0, 0, 0, 4, 4, 0, 4\n1, 1, 0, 0, 0, 0, 0, 0, 0, 0, 0, 0, 0, 0\n0, 4, 0, 0, 4, 4, 0, 4, 4, 4, 0, 0, 3, 0\n0, 0, 0, 0, 0, 0, 0, 0, 0, 0, 4, 0, 0, 0\n0, 0, 0, 0, 0, 0, 0, 0, 0, 0, 0, 0, 0, 0\n0, 0, 0, 4, 0, 0, 0, 0, 0, 0, 0, 0, 0, 0\n4, 4, 0, 0, 0, 0, 0, 0, 0]"] ;
68 -> 69 ;
70 [label="titubation <= 0.5\ngini = 0.978\nsamples = 178\nvalue = [0, 0, 0, 0, 0, 0, 4, 0, 0, 0, 4, 4, 4, 4\n4, 4, 0, 0, 4, 0, 0, 0, 0, 0, 4, 4, 0, 4\n4, 0, 4, 4, 0, 4, 4, 4, 4, 0, 0, 0, 0, 4\n0, 4, 4, 4, 4, 0, 0, 4, 4, 0, 0, 1, 4, 4\n4, 4, 0, 4, 0, 0, 4, 0, 0, 0, 4, 4, 0, 4\n1, 1, 0, 0, 0, 0, 0, 0, 0, 0, 0, 0, 0, 0\n0, 4, 0, 0, 4, 4, 0, 4, 4, 4, 0, 0, 3, 0\n0, 0, 0, 0, 0, 0, 0, 0, 0, 0, 4, 0, 0, 0\n0, 0, 0, 0, 0, 0, 0, 0, 0, 0, 0, 0, 0, 0\n0, 0, 0, 4, 0, 0, 0, 0, 0, 0, 0, 0, 0, 0\n0, 4, 0, 0, 0, 0, 0, 0, 0]"] ;
69 -> 70 ;
71 [label="elation <= 0.5\ngini = 0.977\nsamples = 174\nvalue = [0, 0, 0, 0, 0, 0, 4, 0, 0, 0, 4, 4, 4, 4\n4, 4, 0, 0, 4, 0, 0, 0, 0, 0, 4, 4, 0, 4\n4, 0, 4, 4, 0, 4, 4, 4, 4, 0, 0, 0, 0, 4\n0, 4, 4, 4, 4, 0, 0, 4, 4, 0, 0, 1, 4, 0\n4, 4, 0, 4, 0, 0, 4, 0, 0, 0, 4, 4, 0, 4\n1, 1, 0, 0, 0, 0, 0, 0, 0, 0, 0, 0, 0, 0\n0, 4, 0, 0, 4, 4, 0, 4, 4, 4, 0, 0, 3, 0\n0, 0, 0, 0, 0, 0, 0, 0, 0, 0, 4, 0, 0, 0\n0, 0, 0, 0, 0, 0, 0, 0, 0, 0, 0, 0, 0, 0\n0, 0, 0, 4, 0, 0, 0, 0, 0, 0, 0, 0, 0, 0\n0, 4, 0, 0, 0, 0, 0, 0, 0]"] ;
70 -> 71 ;
72 [label="pneumatouria <= 0.5\ngini = 0.977\nsamples = 170\nvalue = [0, 0, 0, 0, 0, 0, 4, 0, 0, 0, 4, 4, 4, 4\n4, 4, 0, 0, 0, 0, 0, 0, 0, 0, 4, 4, 0, 4\n4, 0, 4, 4, 0, 4, 4, 4, 4, 0, 0, 0, 0, 4\n0, 4, 4, 4, 4, 0, 0, 4, 4, 0, 0, 1, 4, 0\n4, 4, 0, 4, 0, 0, 4, 0, 0, 0, 4, 4, 0, 4\n1, 1, 0, 0, 0, 0, 0, 0, 0, 0, 0, 0, 0, 0\n0, 4, 0, 0, 4, 4, 0, 4, 4, 4, 0, 0, 3, 0\n0, 0, 0, 0, 0, 0, 0, 0, 0, 0, 4, 0, 0, 0\n0, 0, 0, 0, 0, 0, 0, 0, 0, 0, 0, 0, 0, 0\n0, 0, 0, 4, 0, 0, 0, 0, 0, 0, 0, 0, 0, 0\n0, 4, 0, 0, 0, 0, 0, 0, 0]"] ;
71 -> 72 ;
73 [label="wheezing <= 0.5\ngini = 0.976\nsamples = 166\nvalue = [0, 0, 0, 0, 0, 0, 4, 0, 0, 0, 4, 4, 4, 4\n4, 4, 0, 0, 0, 0, 0, 0, 0, 0, 4, 4, 0, 4\n4, 0, 4, 4, 0, 4, 4, 4, 4, 0, 0, 0, 0, 4\n0, 0, 4, 4, 4, 0, 0, 4, 4, 0, 0, 1, 4, 0\n4, 4, 0, 4, 0, 0, 4, 0, 0, 0, 4, 4, 0, 4\n1, 1, 0, 0, 0, 0, 0, 0, 0, 0, 0, 0, 0, 0\n0, 4, 0, 0, 4, 4, 0, 4, 4, 4, 0, 0, 3, 0\n0, 0, 0, 0, 0, 0, 0, 0, 0, 0, 4, 0, 0, 0\n0, 0, 0, 0, 0, 0, 0, 0, 0, 0, 0, 0, 0, 0\n0, 0, 0, 4, 0, 0, 0, 0, 0, 0, 0, 0, 0, 0\n0, 4, 0, 0, 0, 0, 0, 0, 0]"] ;
72 -> 73 ;
74 [label="homicidal thoughts <= 0.5\ngini = 0.976\nsamples = 162\nvalue = [0, 0, 0, 0, 0, 0, 4, 0, 0, 0, 0, 4, 4, 4\n4, 4, 0, 0, 0, 0, 0, 0, 0, 0, 4, 4, 0, 4\n4, 0, 4, 4, 0, 4, 4, 4, 4, 0, 0, 0, 0, 4\n0, 0, 4, 4, 4, 0, 0, 4, 4, 0, 0, 1, 4, 0\n4, 4, 0, 4, 0, 0, 4, 0, 0, 0, 4, 4, 0, 4\n1, 1, 0, 0, 0, 0, 0, 0, 0, 0, 0, 0, 0, 0\n0, 4, 0, 0, 4, 4, 0, 4, 4, 4, 0, 0, 3, 0\n0, 0, 0, 0, 0, 0, 0, 0, 0, 0, 4, 0, 0, 0\n0, 0, 0, 0, 0, 0, 0, 0, 0, 0, 0, 0, 0, 0\n0, 0, 0, 4, 0, 0, 0, 0, 0, 0, 0, 0, 0, 0\n0, 4, 0, 0, 0, 0, 0, 0, 0]"] ;
73 -> 74 ;
75 [label="soft tissue swelling <= 0.5\ngini = 0.975\nsamples = 158\nvalue = [0, 0, 0, 0, 0, 0, 4, 0, 0, 0, 0, 4, 4, 4\n4, 4, 0, 0, 0, 0, 0, 0, 0, 0, 0, 4, 0, 4\n4, 0, 4, 4, 0, 4, 4, 4, 4, 0, 0, 0, 0, 4\n0, 0, 4, 4, 4, 0, 0, 4, 4, 0, 0, 1, 4, 0\n4, 4, 0, 4, 0, 0, 4, 0, 0, 0, 4, 4, 0, 4\n1, 1, 0, 0, 0, 0, 0, 0, 0, 0, 0, 0, 0, 0\n0, 4, 0, 0, 4, 4, 0, 4, 4, 4, 0, 0, 3, 0\n0, 0, 0, 0, 0, 0, 0, 0, 0, 0, 4, 0, 0, 0\n0, 0, 0, 0, 0, 0, 0, 0, 0, 0, 0, 0, 0, 0\n0, 0, 0, 4, 0, 0, 0, 0, 0, 0, 0, 0, 0, 0\n0, 4, 0, 0, 0, 0, 0, 0, 0]"] ;
74 -> 75 ;
76 [label="sweat <= 0.5\ngini = 0.975\nsamples = 154\nvalue = [0, 0, 0, 0, 0, 0, 0, 0, 0, 0, 0, 4, 4, 4\n4, 4, 0, 0, 0, 0, 0, 0, 0, 0, 0, 4, 0, 4\n4, 0, 4, 4, 0, 4, 4, 4, 4, 0, 0, 0, 0, 4\n0, 0, 4, 4, 4, 0, 0, 4, 4, 0, 0, 1, 4, 0\n4, 4, 0, 4, 0, 0, 4, 0, 0, 0, 4, 4, 0, 4\n1, 1, 0, 0, 0, 0, 0, 0, 0, 0, 0, 0, 0, 0\n0, 4, 0, 0, 4, 4, 0, 4, 4, 4, 0, 0, 3, 0\n0, 0, 0, 0, 0, 0, 0, 0, 0, 0, 4, 0, 0, 0\n0, 0, 0, 0, 0, 0, 0, 0, 0, 0, 0, 0, 0, 0\n0, 0, 0, 4, 0, 0, 0, 0, 0, 0, 0, 0, 0, 0\n0, 4, 0, 0, 0, 0, 0, 0, 0]"] ;
75 -> 76 ;
77 [label="abortion <= 0.5\ngini = 0.974\nsamples = 150\nvalue = [0, 0, 0, 0, 0, 0, 0, 0, 0, 0, 0, 4, 4, 4\n4, 4, 0, 0, 0, 0, 0, 0, 0, 0, 0, 4, 0, 4\n4, 0, 4, 4, 0, 4, 4, 4, 4, 0, 0, 0, 0, 4\n0, 0, 4, 4, 4, 0, 0, 4, 4, 0, 0, 1, 4, 0\n4, 4, 0, 4, 0, 0, 4, 0, 0, 0, 4, 0, 0, 4\n1, 1, 0, 0, 0, 0, 0, 0, 0, 0, 0, 0, 0, 0\n0, 4, 0, 0, 4, 4, 0, 4, 4, 4, 0, 0, 3, 0\n0, 0, 0, 0, 0, 0, 0, 0, 0, 0, 4, 0, 0, 0\n0, 0, 0, 0, 0, 0, 0, 0, 0, 0, 0, 0, 0, 0\n0, 0, 0, 4, 0, 0, 0, 0, 0, 0, 0, 0, 0, 0\n0, 4, 0, 0, 0, 0, 0, 0, 0]"] ;
76 -> 77 ;
78 [label="arthralgia <= 0.5\ngini = 0.973\nsamples = 146\nvalue = [0, 0, 0, 0, 0, 0, 0, 0, 0, 0, 0, 4, 4, 4\n4, 4, 0, 0, 0, 0, 0, 0, 0, 0, 0, 4, 0, 4\n4, 0, 0, 4, 0, 4, 4, 4, 4, 0, 0, 0, 0, 4\n0, 0, 4, 4, 4, 0, 0, 4, 4, 0, 0, 1, 4, 0\n4, 4, 0, 4, 0, 0, 4, 0, 0, 0, 4, 0, 0, 4\n1, 1, 0, 0, 0, 0, 0, 0, 0, 0, 0, 0, 0, 0\n0, 4, 0, 0, 4, 4, 0, 4, 4, 4, 0, 0, 3, 0\n0, 0, 0, 0, 0, 0, 0, 0, 0, 0, 4, 0, 0, 0\n0, 0, 0, 0, 0, 0, 0, 0, 0, 0, 0, 0, 0, 0\n0, 0, 0, 4, 0, 0, 0, 0, 0, 0, 0, 0, 0, 0\n0, 4, 0, 0, 0, 0, 0, 0, 0]"] ;
77 -> 78 ;
79 [label="flatulence <= 0.5\ngini = 0.972\nsamples = 142\nvalue = [0, 0, 0, 0, 0, 0, 0, 0, 0, 0, 0, 4, 4, 4\n4, 4, 0, 0, 0, 0, 0, 0, 0, 0, 0, 4, 0, 4\n4, 0, 0, 4, 0, 0, 4, 4, 4, 0, 0, 0, 0, 4\n0, 0, 4, 4, 4, 0, 0, 4, 4, 0, 0, 1, 4, 0\n4, 4, 0, 4, 0, 0, 4, 0, 0, 0, 4, 0, 0, 4\n1, 1, 0, 0, 0, 0, 0, 0, 0, 0, 0, 0, 0, 0\n0, 4, 0, 0, 4, 4, 0, 4, 4, 4, 0, 0, 3, 0\n0, 0, 0, 0, 0, 0, 0, 0, 0, 0, 4, 0, 0, 0\n0, 0, 0, 0, 0, 0, 0, 0, 0, 0, 0, 0, 0, 0\n0, 0, 0, 4, 0, 0, 0, 0, 0, 0, 0, 0, 0, 0\n0, 4, 0, 0, 0, 0, 0, 0, 0]"] ;
78 -> 79 ;
80 [label="agitation <= 0.5\ngini = 0.972\nsamples = 138\nvalue = [0, 0, 0, 0, 0, 0, 0, 0, 0, 0, 0, 4, 4, 4\n4, 4, 0, 0, 0, 0, 0, 0, 0, 0, 0, 4, 0, 4\n4, 0, 0, 4, 0, 0, 4, 4, 4, 0, 0, 0, 0, 0\n0, 0, 4, 4, 4, 0, 0, 4, 4, 0, 0, 1, 4, 0\n4, 4, 0, 4, 0, 0, 4, 0, 0, 0, 4, 0, 0, 4\n1, 1, 0, 0, 0, 0, 0, 0, 0, 0, 0, 0, 0, 0\n0, 4, 0, 0, 4, 4, 0, 4, 4, 4, 0, 0, 3, 0\n0, 0, 0, 0, 0, 0, 0, 0, 0, 0, 4, 0, 0, 0\n0, 0, 0, 0, 0, 0, 0, 0, 0, 0, 0, 0, 0, 0\n0, 0, 0, 4, 0, 0, 0, 0, 0, 0, 0, 0, 0, 0\n0, 4, 0, 0, 0, 0, 0, 0, 0]"] ;
79 -> 80 ;
81 [label="worry <= 0.5\ngini = 0.971\nsamples = 134\nvalue = [0, 0, 0, 0, 0, 0, 0, 0, 0, 0, 0, 4, 4, 4\n4, 4, 0, 0, 0, 0, 0, 0, 0, 0, 0, 4, 0, 4\n4, 0, 0, 4, 0, 0, 4, 4, 4, 0, 0, 0, 0, 0\n0, 0, 4, 4, 4, 0, 0, 4, 4, 0, 0, 1, 4, 0\n4, 4, 0, 4, 0, 0, 4, 0, 0, 0, 4, 0, 0, 4\n1, 1, 0, 0, 0, 0, 0, 0, 0, 0, 0, 0, 0, 0\n0, 4, 0, 0, 4, 4, 0, 4, 4, 4, 0, 0, 3, 0\n0, 0, 0, 0, 0, 0, 0, 0, 0, 0, 0, 0, 0, 0\n0, 0, 0, 0, 0, 0, 0, 0, 0, 0, 0, 0, 0, 0\n0, 0, 0, 4, 0, 0, 0, 0, 0, 0, 0, 0, 0, 0\n0, 4, 0, 0, 0, 0, 0, 0, 0]"] ;
80 -> 81 ;
82 [label="scratch marks <= 0.5\ngini = 0.97\nsamples = 130\nvalue = [0, 0, 0, 0, 0, 0, 0, 0, 0, 0, 0, 4, 4, 4\n4, 4, 0, 0, 0, 0, 0, 0, 0, 0, 0, 4, 0, 4\n4, 0, 0, 4, 0, 0, 4, 4, 4, 0, 0, 0, 0, 0\n0, 0, 4, 4, 4, 0, 0, 4, 4, 0, 0, 1, 0, 0\n4, 4, 0, 4, 0, 0, 4, 0, 0, 0, 4, 0, 0, 4\n1, 1, 0, 0, 0, 0, 0, 0, 0, 0, 0, 0, 0, 0\n0, 4, 0, 0, 4, 4, 0, 4, 4, 4, 0, 0, 3, 0\n0, 0, 0, 0, 0, 0, 0, 0, 0, 0, 0, 0, 0, 0\n0, 0, 0, 0, 0, 0, 0, 0, 0, 0, 0, 0, 0, 0\n0, 0, 0, 4, 0, 0, 0, 0, 0, 0, 0, 0, 0, 0\n0, 4, 0, 0, 0, 0, 0, 0, 0]"] ;
81 -> 82 ;
83 [label="pain in lower limb <= 0.5\ngini = 0.969\nsamples = 126\nvalue = [0, 0, 0, 0, 0, 0, 0, 0, 0, 0, 0, 4, 4, 4\n4, 4, 0, 0, 0, 0, 0, 0, 0, 0, 0, 4, 0, 4\n4, 0, 0, 4, 0, 0, 4, 4, 4, 0, 0, 0, 0, 0\n0, 0, 4, 4, 4, 0, 0, 4, 4, 0, 0, 1, 0, 0\n4, 0, 0, 4, 0, 0, 4, 0, 0, 0, 4, 0, 0, 4\n1, 1, 0, 0, 0, 0, 0, 0, 0, 0, 0, 0, 0, 0\n0, 4, 0, 0, 4, 4, 0, 4, 4, 4, 0, 0, 3, 0\n0, 0, 0, 0, 0, 0, 0, 0, 0, 0, 0, 0, 0, 0\n0, 0, 0, 0, 0, 0, 0, 0, 0, 0, 0, 0, 0, 0\n0, 0, 0, 4, 0, 0, 0, 0, 0, 0, 0, 0, 0, 0\n0, 4, 0, 0, 0, 0, 0, 0, 0]"] ;
82 -> 83 ;
84 [label="hyponatremia <= 0.5\ngini = 0.968\nsamples = 122\nvalue = [0, 0, 0, 0, 0, 0, 0, 0, 0, 0, 0, 4, 4, 4\n4, 4, 0, 0, 0, 0, 0, 0, 0, 0, 0, 4, 0, 4\n4, 0, 0, 4, 0, 0, 4, 4, 4, 0, 0, 0, 0, 0\n0, 0, 4, 4, 4, 0, 0, 4, 4, 0, 0, 1, 0, 0\n4, 0, 0, 4, 0, 0, 4, 0, 0, 0, 4, 0, 0, 4\n1, 1, 0, 0, 0, 0, 0, 0, 0, 0, 0, 0, 0, 0\n0, 4, 0, 0, 4, 4, 0, 4, 4, 0, 0, 0, 3, 0\n0, 0, 0, 0, 0, 0, 0, 0, 0, 0, 0, 0, 0, 0\n0, 0, 0, 0, 0, 0, 0, 0, 0, 0, 0, 0, 0, 0\n0, 0, 0, 4, 0, 0, 0, 0, 0, 0, 0, 0, 0, 0\n0, 4, 0, 0, 0, 0, 0, 0, 0]"] ;
83 -> 84 ;
85 [label="pain <= 0.5\ngini = 0.967\nsamples = 118\nvalue = [0, 0, 0, 0, 0, 0, 0, 0, 0, 0, 0, 4, 4, 4\n4, 4, 0, 0, 0, 0, 0, 0, 0, 0, 0, 4, 0, 4\n4, 0, 0, 4, 0, 0, 4, 4, 4, 0, 0, 0, 0, 0\n0, 0, 4, 4, 4, 0, 0, 4, 4, 0, 0, 1, 0, 0\n0, 0, 0, 4, 0, 0, 4, 0, 0, 0, 4, 0, 0, 4\n1, 1, 0, 0, 0, 0, 0, 0, 0, 0, 0, 0, 0, 0\n0, 4, 0, 0, 4, 4, 0, 4, 4, 0, 0, 0, 3, 0\n0, 0, 0, 0, 0, 0, 0, 0, 0, 0, 0, 0, 0, 0\n0, 0, 0, 0, 0, 0, 0, 0, 0, 0, 0, 0, 0, 0\n0, 0, 0, 4, 0, 0, 0, 0, 0, 0, 0, 0, 0, 0\n0, 4, 0, 0, 0, 0, 0, 0, 0]"] ;
84 -> 85 ;
86 [label="verbal auditory hallucinations <= 0.5\ngini = 0.966\nsamples = 114\nvalue = [0, 0, 0, 0, 0, 0, 0, 0, 0, 0, 0, 4, 4, 4\n4, 4, 0, 0, 0, 0, 0, 0, 0, 0, 0, 4, 0, 4\n4, 0, 0, 4, 0, 0, 4, 4, 4, 0, 0, 0, 0, 0\n0, 0, 4, 4, 4, 0, 0, 4, 4, 0, 0, 1, 0, 0\n0, 0, 0, 4, 0, 0, 0, 0, 0, 0, 4, 0, 0, 4\n1, 1, 0, 0, 0, 0, 0, 0, 0, 0, 0, 0, 0, 0\n0, 4, 0, 0, 4, 4, 0, 4, 4, 0, 0, 0, 3, 0\n0, 0, 0, 0, 0, 0, 0, 0, 0, 0, 0, 0, 0, 0\n0, 0, 0, 0, 0, 0, 0, 0, 0, 0, 0, 0, 0, 0\n0, 0, 0, 4, 0, 0, 0, 0, 0, 0, 0, 0, 0, 0\n0, 4, 0, 0, 0, 0, 0, 0, 0]"] ;
85 -> 86 ;
87 [label="feels hot/feverish <= 0.5\ngini = 0.965\nsamples = 110\nvalue = [0, 0, 0, 0, 0, 0, 0, 0, 0, 0, 0, 4, 4, 4\n4, 4, 0, 0, 0, 0, 0, 0, 0, 0, 0, 4, 0, 4\n4, 0, 0, 4, 0, 0, 4, 4, 4, 0, 0, 0, 0, 0\n0, 0, 4, 4, 4, 0, 0, 4, 4, 0, 0, 1, 0, 0\n0, 0, 0, 4, 0, 0, 0, 0, 0, 0, 4, 0, 0, 4\n1, 1, 0, 0, 0, 0, 0, 0, 0, 0, 0, 0, 0, 0\n0, 4, 0, 0, 4, 4, 0, 4, 4, 0, 0, 0, 3, 0\n0, 0, 0, 0, 0, 0, 0, 0, 0, 0, 0, 0, 0, 0\n0, 0, 0, 0, 0, 0, 0, 0, 0, 0, 0, 0, 0, 0\n0, 0, 0, 0, 0, 0, 0, 0, 0, 0, 0, 0, 0, 0\n0, 4, 0, 0, 0, 0, 0, 0, 0]"] ;
86 -> 87 ;
88 [label="sciatica <= 0.5\ngini = 0.963\nsamples = 106\nvalue = [0, 0, 0, 0, 0, 0, 0, 0, 0, 0, 0, 4, 4, 4\n4, 4, 0, 0, 0, 0, 0, 0, 0, 0, 0, 4, 0, 4\n4, 0, 0, 0, 0, 0, 4, 4, 4, 0, 0, 0, 0, 0\n0, 0, 4, 4, 4, 0, 0, 4, 4, 0, 0, 1, 0, 0\n0, 0, 0, 4, 0, 0, 0, 0, 0, 0, 4, 0, 0, 4\n1, 1, 0, 0, 0, 0, 0, 0, 0, 0, 0, 0, 0, 0\n0, 4, 0, 0, 4, 4, 0, 4, 4, 0, 0, 0, 3, 0\n0, 0, 0, 0, 0, 0, 0, 0, 0, 0, 0, 0, 0, 0\n0, 0, 0, 0, 0, 0, 0, 0, 0, 0, 0, 0, 0, 0\n0, 0, 0, 0, 0, 0, 0, 0, 0, 0, 0, 0, 0, 0\n0, 4, 0, 0, 0, 0, 0, 0, 0]"] ;
87 -> 88 ;
89 [label="nasal flaring <= 0.5\ngini = 0.962\nsamples = 102\nvalue = [0, 0, 0, 0, 0, 0, 0, 0, 0, 0, 0, 4, 4, 4\n4, 4, 0, 0, 0, 0, 0, 0, 0, 0, 0, 4, 0, 4\n0, 0, 0, 0, 0, 0, 4, 4, 4, 0, 0, 0, 0, 0\n0, 0, 4, 4, 4, 0, 0, 4, 4, 0, 0, 1, 0, 0\n0, 0, 0, 4, 0, 0, 0, 0, 0, 0, 4, 0, 0, 4\n1, 1, 0, 0, 0, 0, 0, 0, 0, 0, 0, 0, 0, 0\n0, 4, 0, 0, 4, 4, 0, 4, 4, 0, 0, 0, 3, 0\n0, 0, 0, 0, 0, 0, 0, 0, 0, 0, 0, 0, 0, 0\n0, 0, 0, 0, 0, 0, 0, 0, 0, 0, 0, 0, 0, 0\n0, 0, 0, 0, 0, 0, 0, 0, 0, 0, 0, 0, 0, 0\n0, 4, 0, 0, 0, 0, 0, 0, 0]"] ;
88 -> 89 ;
90 [label="pain abdominal <= 0.5\ngini = 0.96\nsamples = 98\nvalue = [0, 0, 0, 0, 0, 0, 0, 0, 0, 0, 0, 4, 4, 4\n4, 4, 0, 0, 0, 0, 0, 0, 0, 0, 0, 4, 0, 4\n0, 0, 0, 0, 0, 0, 4, 4, 4, 0, 0, 0, 0, 0\n0, 0, 4, 4, 4, 0, 0, 4, 4, 0, 0, 1, 0, 0\n0, 0, 0, 4, 0, 0, 0, 0, 0, 0, 4, 0, 0, 4\n1, 1, 0, 0, 0, 0, 0, 0, 0, 0, 0, 0, 0, 0\n0, 4, 0, 0, 0, 4, 0, 4, 4, 0, 0, 0, 3, 0\n0, 0, 0, 0, 0, 0, 0, 0, 0, 0, 0, 0, 0, 0\n0, 0, 0, 0, 0, 0, 0, 0, 0, 0, 0, 0, 0, 0\n0, 0, 0, 0, 0, 0, 0, 0, 0, 0, 0, 0, 0, 0\n0, 4, 0, 0, 0, 0, 0, 0, 0]"] ;
89 -> 90 ;
91 [label="debilitation <= 0.5\ngini = 0.959\nsamples = 94\nvalue = [0, 0, 0, 0, 0, 0, 0, 0, 0, 0, 0, 4, 4, 4\n4, 4, 0, 0, 0, 0, 0, 0, 0, 0, 0, 4, 0, 4\n0, 0, 0, 0, 0, 0, 4, 4, 4, 0, 0, 0, 0, 0\n0, 0, 4, 4, 4, 0, 0, 0, 4, 0, 0, 1, 0, 0\n0, 0, 0, 4, 0, 0, 0, 0, 0, 0, 4, 0, 0, 4\n1, 1, 0, 0, 0, 0, 0, 0, 0, 0, 0, 0, 0, 0\n0, 4, 0, 0, 0, 4, 0, 4, 4, 0, 0, 0, 3, 0\n0, 0, 0, 0, 0, 0, 0, 0, 0, 0, 0, 0, 0, 0\n0, 0, 0, 0, 0, 0, 0, 0, 0, 0, 0, 0, 0, 0\n0, 0, 0, 0, 0, 0, 0, 0, 0, 0, 0, 0, 0, 0\n0, 4, 0, 0, 0, 0, 0, 0, 0]"] ;
90 -> 91 ;
92 [label="cyanosis <= 0.5\ngini = 0.957\nsamples = 90\nvalue = [0, 0, 0, 0, 0, 0, 0, 0, 0, 0, 0, 4, 4, 0\n4, 4, 0, 0, 0, 0, 0, 0, 0, 0, 0, 4, 0, 4\n0, 0, 0, 0, 0, 0, 4, 4, 4, 0, 0, 0, 0, 0\n0, 0, 4, 4, 4, 0, 0, 0, 4, 0, 0, 1, 0, 0\n0, 0, 0, 4, 0, 0, 0, 0, 0, 0, 4, 0, 0, 4\n1, 1, 0, 0, 0, 0, 0, 0, 0, 0, 0, 0, 0, 0\n0, 4, 0, 0, 0, 4, 0, 4, 4, 0, 0, 0, 3, 0\n0, 0, 0, 0, 0, 0, 0, 0, 0, 0, 0, 0, 0, 0\n0, 0, 0, 0, 0, 0, 0, 0, 0, 0, 0, 0, 0, 0\n0, 0, 0, 0, 0, 0, 0, 0, 0, 0, 0, 0, 0, 0\n0, 4, 0, 0, 0, 0, 0, 0, 0]"] ;
91 -> 92 ;
93 [label="spasm <= 0.5\ngini = 0.955\nsamples = 86\nvalue = [0, 0, 0, 0, 0, 0, 0, 0, 0, 0, 0, 4, 4, 0\n4, 4, 0, 0, 0, 0, 0, 0, 0, 0, 0, 4, 0, 4\n0, 0, 0, 0, 0, 0, 4, 4, 4, 0, 0, 0, 0, 0\n0, 0, 4, 4, 4, 0, 0, 0, 4, 0, 0, 1, 0, 0\n0, 0, 0, 4, 0, 0, 0, 0, 0, 0, 4, 0, 0, 4\n1, 1, 0, 0, 0, 0, 0, 0, 0, 0, 0, 0, 0, 0\n0, 4, 0, 0, 0, 4, 0, 4, 0, 0, 0, 0, 3, 0\n0, 0, 0, 0, 0, 0, 0, 0, 0, 0, 0, 0, 0, 0\n0, 0, 0, 0, 0, 0, 0, 0, 0, 0, 0, 0, 0, 0\n0, 0, 0, 0, 0, 0, 0, 0, 0, 0, 0, 0, 0, 0\n0, 4, 0, 0, 0, 0, 0, 0, 0]"] ;
92 -> 93 ;
94 [label="no known drug allergies <= 0.5\ngini = 0.953\nsamples = 82\nvalue = [0, 0, 0, 0, 0, 0, 0, 0, 0, 0, 0, 4, 4, 0\n0, 4, 0, 0, 0, 0, 0, 0, 0, 0, 0, 4, 0, 4\n0, 0, 0, 0, 0, 0, 4, 4, 4, 0, 0, 0, 0, 0\n0, 0, 4, 4, 4, 0, 0, 0, 4, 0, 0, 1, 0, 0\n0, 0, 0, 4, 0, 0, 0, 0, 0, 0, 4, 0, 0, 4\n1, 1, 0, 0, 0, 0, 0, 0, 0, 0, 0, 0, 0, 0\n0, 4, 0, 0, 0, 4, 0, 4, 0, 0, 0, 0, 3, 0\n0, 0, 0, 0, 0, 0, 0, 0, 0, 0, 0, 0, 0, 0\n0, 0, 0, 0, 0, 0, 0, 0, 0, 0, 0, 0, 0, 0\n0, 0, 0, 0, 0, 0, 0, 0, 0, 0, 0, 0, 0, 0\n0, 4, 0, 0, 0, 0, 0, 0, 0]"] ;
93 -> 94 ;
95 [label="extreme exhaustion <= 0.5\ngini = 0.951\nsamples = 78\nvalue = [0, 0, 0, 0, 0, 0, 0, 0, 0, 0, 0, 4, 4, 0\n0, 4, 0, 0, 0, 0, 0, 0, 0, 0, 0, 4, 0, 4\n0, 0, 0, 0, 0, 0, 4, 4, 4, 0, 0, 0, 0, 0\n0, 0, 4, 4, 4, 0, 0, 0, 4, 0, 0, 1, 0, 0\n0, 0, 0, 4, 0, 0, 0, 0, 0, 0, 4, 0, 0, 0\n1, 1, 0, 0, 0, 0, 0, 0, 0, 0, 0, 0, 0, 0\n0, 4, 0, 0, 0, 4, 0, 4, 0, 0, 0, 0, 3, 0\n0, 0, 0, 0, 0, 0, 0, 0, 0, 0, 0, 0, 0, 0\n0, 0, 0, 0, 0, 0, 0, 0, 0, 0, 0, 0, 0, 0\n0, 0, 0, 0, 0, 0, 0, 0, 0, 0, 0, 0, 0, 0\n0, 4, 0, 0, 0, 0, 0, 0, 0]"] ;
94 -> 95 ;
96 [label="sinus rhythm <= 0.5\ngini = 0.948\nsamples = 74\nvalue = [0, 0, 0, 0, 0, 0, 0, 0, 0, 0, 0, 4, 4, 0\n0, 4, 0, 0, 0, 0, 0, 0, 0, 0, 0, 4, 0, 4\n0, 0, 0, 0, 0, 0, 4, 4, 4, 0, 0, 0, 0, 0\n0, 0, 4, 4, 4, 0, 0, 0, 4, 0, 0, 1, 0, 0\n0, 0, 0, 4, 0, 0, 0, 0, 0, 0, 0, 0, 0, 0\n1, 1, 0, 0, 0, 0, 0, 0, 0, 0, 0, 0, 0, 0\n0, 4, 0, 0, 0, 4, 0, 4, 0, 0, 0, 0, 3, 0\n0, 0, 0, 0, 0, 0, 0, 0, 0, 0, 0, 0, 0, 0\n0, 0, 0, 0, 0, 0, 0, 0, 0, 0, 0, 0, 0, 0\n0, 0, 0, 0, 0, 0, 0, 0, 0, 0, 0, 0, 0, 0\n0, 4, 0, 0, 0, 0, 0, 0, 0]"] ;
95 -> 96 ;
97 [label="cardiomegaly <= 0.5\ngini = 0.945\nsamples = 70\nvalue = [0, 0, 0, 0, 0, 0, 0, 0, 0, 0, 0, 4, 4, 0\n0, 4, 0, 0, 0, 0, 0, 0, 0, 0, 0, 4, 0, 4\n0, 0, 0, 0, 0, 0, 4, 4, 4, 0, 0, 0, 0, 0\n0, 0, 4, 4, 4, 0, 0, 0, 4, 0, 0, 1, 0, 0\n0, 0, 0, 4, 0, 0, 0, 0, 0, 0, 0, 0, 0, 0\n1, 1, 0, 0, 0, 0, 0, 0, 0, 0, 0, 0, 0, 0\n0, 4, 0, 0, 0, 4, 0, 4, 0, 0, 0, 0, 3, 0\n0, 0, 0, 0, 0, 0, 0, 0, 0, 0, 0, 0, 0, 0\n0, 0, 0, 0, 0, 0, 0, 0, 0, 0, 0, 0, 0, 0\n0, 0, 0, 0, 0, 0, 0, 0, 0, 0, 0, 0, 0, 0\n0, 0, 0, 0, 0, 0, 0, 0, 0]"] ;
96 -> 97 ;
98 [label="breath-holding spell <= 0.5\ngini = 0.942\nsamples = 66\nvalue = [0, 0, 0, 0, 0, 0, 0, 0, 0, 0, 0, 4, 4, 0\n0, 4, 0, 0, 0, 0, 0, 0, 0, 0, 0, 4, 0, 4\n0, 0, 0, 0, 0, 0, 4, 4, 4, 0, 0, 0, 0, 0\n0, 0, 4, 4, 4, 0, 0, 0, 4, 0, 0, 1, 0, 0\n0, 0, 0, 4, 0, 0, 0, 0, 0, 0, 0, 0, 0, 0\n1, 1, 0, 0, 0, 0, 0, 0, 0, 0, 0, 0, 0, 0\n0, 0, 0, 0, 0, 4, 0, 4, 0, 0, 0, 0, 3, 0\n0, 0, 0, 0, 0, 0, 0, 0, 0, 0, 0, 0, 0, 0\n0, 0, 0, 0, 0, 0, 0, 0, 0, 0, 0, 0, 0, 0\n0, 0, 0, 0, 0, 0, 0, 0, 0, 0, 0, 0, 0, 0\n0, 0, 0, 0, 0, 0, 0, 0, 0]"] ;
97 -> 98 ;
99 [label="overweight <= 0.5\ngini = 0.939\nsamples = 62\nvalue = [0, 0, 0, 0, 0, 0, 0, 0, 0, 0, 0, 4, 4, 0\n0, 4, 0, 0, 0, 0, 0, 0, 0, 0, 0, 4, 0, 4\n0, 0, 0, 0, 0, 0, 4, 4, 4, 0, 0, 0, 0, 0\n0, 0, 4, 4, 4, 0, 0, 0, 0, 0, 0, 1, 0, 0\n0, 0, 0, 4, 0, 0, 0, 0, 0, 0, 0, 0, 0, 0\n1, 1, 0, 0, 0, 0, 0, 0, 0, 0, 0, 0, 0, 0\n0, 0, 0, 0, 0, 4, 0, 4, 0, 0, 0, 0, 3, 0\n0, 0, 0, 0, 0, 0, 0, 0, 0, 0, 0, 0, 0, 0\n0, 0, 0, 0, 0, 0, 0, 0, 0, 0, 0, 0, 0, 0\n0, 0, 0, 0, 0, 0, 0, 0, 0, 0, 0, 0, 0, 0\n0, 0, 0, 0, 0, 0, 0, 0, 0]"] ;
98 -> 99 ;
100 [label="oliguria <= 0.5\ngini = 0.935\nsamples = 58\nvalue = [0, 0, 0, 0, 0, 0, 0, 0, 0, 0, 0, 4, 4, 0\n0, 0, 0, 0, 0, 0, 0, 0, 0, 0, 0, 4, 0, 4\n0, 0, 0, 0, 0, 0, 4, 4, 4, 0, 0, 0, 0, 0\n0, 0, 4, 4, 4, 0, 0, 0, 0, 0, 0, 1, 0, 0\n0, 0, 0, 4, 0, 0, 0, 0, 0, 0, 0, 0, 0, 0\n1, 1, 0, 0, 0, 0, 0, 0, 0, 0, 0, 0, 0, 0\n0, 0, 0, 0, 0, 4, 0, 4, 0, 0, 0, 0, 3, 0\n0, 0, 0, 0, 0, 0, 0, 0, 0, 0, 0, 0, 0, 0\n0, 0, 0, 0, 0, 0, 0, 0, 0, 0, 0, 0, 0, 0\n0, 0, 0, 0, 0, 0, 0, 0, 0, 0, 0, 0, 0, 0\n0, 0, 0, 0, 0, 0, 0, 0, 0]"] ;
99 -> 100 ;
101 [label="st segment elevation <= 0.5\ngini = 0.93\nsamples = 54\nvalue = [0, 0, 0, 0, 0, 0, 0, 0, 0, 0, 0, 4, 4, 0\n0, 0, 0, 0, 0, 0, 0, 0, 0, 0, 0, 4, 0, 4\n0, 0, 0, 0, 0, 0, 4, 4, 4, 0, 0, 0, 0, 0\n0, 0, 0, 4, 4, 0, 0, 0, 0, 0, 0, 1, 0, 0\n0, 0, 0, 4, 0, 0, 0, 0, 0, 0, 0, 0, 0, 0\n1, 1, 0, 0, 0, 0, 0, 0, 0, 0, 0, 0, 0, 0\n0, 0, 0, 0, 0, 4, 0, 4, 0, 0, 0, 0, 3, 0\n0, 0, 0, 0, 0, 0, 0, 0, 0, 0, 0, 0, 0, 0\n0, 0, 0, 0, 0, 0, 0, 0, 0, 0, 0, 0, 0, 0\n0, 0, 0, 0, 0, 0, 0, 0, 0, 0, 0, 0, 0, 0\n0, 0, 0, 0, 0, 0, 0, 0, 0]"] ;
100 -> 101 ;
102 [label="apyrexial <= 0.5\ngini = 0.925\nsamples = 50\nvalue = [0, 0, 0, 0, 0, 0, 0, 0, 0, 0, 0, 4, 4, 0\n0, 0, 0, 0, 0, 0, 0, 0, 0, 0, 0, 4, 0, 0\n0, 0, 0, 0, 0, 0, 4, 4, 4, 0, 0, 0, 0, 0\n0, 0, 0, 4, 4, 0, 0, 0, 0, 0, 0, 1, 0, 0\n0, 0, 0, 4, 0, 0, 0, 0, 0, 0, 0, 0, 0, 0\n1, 1, 0, 0, 0, 0, 0, 0, 0, 0, 0, 0, 0, 0\n0, 0, 0, 0, 0, 4, 0, 4, 0, 0, 0, 0, 3, 0\n0, 0, 0, 0, 0, 0, 0, 0, 0, 0, 0, 0, 0, 0\n0, 0, 0, 0, 0, 0, 0, 0, 0, 0, 0, 0, 0, 0\n0, 0, 0, 0, 0, 0, 0, 0, 0, 0, 0, 0, 0, 0\n0, 0, 0, 0, 0, 0, 0, 0, 0]"] ;
101 -> 102 ;
103 [label="phonophobia <= 0.5\ngini = 0.919\nsamples = 46\nvalue = [0, 0, 0, 0, 0, 0, 0, 0, 0, 0, 0, 4, 0, 0\n0, 0, 0, 0, 0, 0, 0, 0, 0, 0, 0, 4, 0, 0\n0, 0, 0, 0, 0, 0, 4, 4, 4, 0, 0, 0, 0, 0\n0, 0, 0, 4, 4, 0, 0, 0, 0, 0, 0, 1, 0, 0\n0, 0, 0, 4, 0, 0, 0, 0, 0, 0, 0, 0, 0, 0\n1, 1, 0, 0, 0, 0, 0, 0, 0, 0, 0, 0, 0, 0\n0, 0, 0, 0, 0, 4, 0, 4, 0, 0, 0, 0, 3, 0\n0, 0, 0, 0, 0, 0, 0, 0, 0, 0, 0, 0, 0, 0\n0, 0, 0, 0, 0, 0, 0, 0, 0, 0, 0, 0, 0, 0\n0, 0, 0, 0, 0, 0, 0, 0, 0, 0, 0, 0, 0, 0\n0, 0, 0, 0, 0, 0, 0, 0, 0]"] ;
102 -> 103 ;
104 [label="cushingoid facies <= 0.5\ngini = 0.912\nsamples = 42\nvalue = [0, 0, 0, 0, 0, 0, 0, 0, 0, 0, 0, 0, 0, 0\n0, 0, 0, 0, 0, 0, 0, 0, 0, 0, 0, 4, 0, 0\n0, 0, 0, 0, 0, 0, 4, 4, 4, 0, 0, 0, 0, 0\n0, 0, 0, 4, 4, 0, 0, 0, 0, 0, 0, 1, 0, 0\n0, 0, 0, 4, 0, 0, 0, 0, 0, 0, 0, 0, 0, 0\n1, 1, 0, 0, 0, 0, 0, 0, 0, 0, 0, 0, 0, 0\n0, 0, 0, 0, 0, 4, 0, 4, 0, 0, 0, 0, 3, 0\n0, 0, 0, 0, 0, 0, 0, 0, 0, 0, 0, 0, 0, 0\n0, 0, 0, 0, 0, 0, 0, 0, 0, 0, 0, 0, 0, 0\n0, 0, 0, 0, 0, 0, 0, 0, 0, 0, 0, 0, 0, 0\n0, 0, 0, 0, 0, 0, 0, 0, 0]"] ;
103 -> 104 ;
105 [label="catching breath <= 0.5\ngini = 0.903\nsamples = 38\nvalue = [0, 0, 0, 0, 0, 0, 0, 0, 0, 0, 0, 0, 0, 0\n0, 0, 0, 0, 0, 0, 0, 0, 0, 0, 0, 4, 0, 0\n0, 0, 0, 0, 0, 0, 4, 4, 4, 0, 0, 0, 0, 0\n0, 0, 0, 4, 4, 0, 0, 0, 0, 0, 0, 1, 0, 0\n0, 0, 0, 4, 0, 0, 0, 0, 0, 0, 0, 0, 0, 0\n1, 1, 0, 0, 0, 0, 0, 0, 0, 0, 0, 0, 0, 0\n0, 0, 0, 0, 0, 4, 0, 0, 0, 0, 0, 0, 3, 0\n0, 0, 0, 0, 0, 0, 0, 0, 0, 0, 0, 0, 0, 0\n0, 0, 0, 0, 0, 0, 0, 0, 0, 0, 0, 0, 0, 0\n0, 0, 0, 0, 0, 0, 0, 0, 0, 0, 0, 0, 0, 0\n0, 0, 0, 0, 0, 0, 0, 0, 0]"] ;
104 -> 105 ;
106 [label="blackout <= 0.5\ngini = 0.893\nsamples = 34\nvalue = [0, 0, 0, 0, 0, 0, 0, 0, 0, 0, 0, 0, 0, 0\n0, 0, 0, 0, 0, 0, 0, 0, 0, 0, 0, 4, 0, 0\n0, 0, 0, 0, 0, 0, 4, 4, 4, 0, 0, 0, 0, 0\n0, 0, 0, 4, 4, 0, 0, 0, 0, 0, 0, 1, 0, 0\n0, 0, 0, 0, 0, 0, 0, 0, 0, 0, 0, 0, 0, 0\n1, 1, 0, 0, 0, 0, 0, 0, 0, 0, 0, 0, 0, 0\n0, 0, 0, 0, 0, 4, 0, 0, 0, 0, 0, 0, 3, 0\n0, 0, 0, 0, 0, 0, 0, 0, 0, 0, 0, 0, 0, 0\n0, 0, 0, 0, 0, 0, 0, 0, 0, 0, 0, 0, 0, 0\n0, 0, 0, 0, 0, 0, 0, 0, 0, 0, 0, 0, 0, 0\n0, 0, 0, 0, 0, 0, 0, 0, 0]"] ;
105 -> 106 ;
107 [label="pleuritic pain <= 0.5\ngini = 0.88\nsamples = 30\nvalue = [0, 0, 0, 0, 0, 0, 0, 0, 0, 0, 0, 0, 0, 0\n0, 0, 0, 0, 0, 0, 0, 0, 0, 0, 0, 4, 0, 0\n0, 0, 0, 0, 0, 0, 4, 4, 4, 0, 0, 0, 0, 0\n0, 0, 0, 4, 4, 0, 0, 0, 0, 0, 0, 1, 0, 0\n0, 0, 0, 0, 0, 0, 0, 0, 0, 0, 0, 0, 0, 0\n1, 1, 0, 0, 0, 0, 0, 0, 0, 0, 0, 0, 0, 0\n0, 0, 0, 0, 0, 0, 0, 0, 0, 0, 0, 0, 3, 0\n0, 0, 0, 0, 0, 0, 0, 0, 0, 0, 0, 0, 0, 0\n0, 0, 0, 0, 0, 0, 0, 0, 0, 0, 0, 0, 0, 0\n0, 0, 0, 0, 0, 0, 0, 0, 0, 0, 0, 0, 0, 0\n0, 0, 0, 0, 0, 0, 0, 0, 0]"] ;
106 -> 107 ;
108 [label="charleyhorse <= 0.5\ngini = 0.864\nsamples = 26\nvalue = [0, 0, 0, 0, 0, 0, 0, 0, 0, 0, 0, 0, 0, 0\n0, 0, 0, 0, 0, 0, 0, 0, 0, 0, 0, 0, 0, 0\n0, 0, 0, 0, 0, 0, 4, 4, 4, 0, 0, 0, 0, 0\n0, 0, 0, 4, 4, 0, 0, 0, 0, 0, 0, 1, 0, 0\n0, 0, 0, 0, 0, 0, 0, 0, 0, 0, 0, 0, 0, 0\n1, 1, 0, 0, 0, 0, 0, 0, 0, 0, 0, 0, 0, 0\n0, 0, 0, 0, 0, 0, 0, 0, 0, 0, 0, 0, 3, 0\n0, 0, 0, 0, 0, 0, 0, 0, 0, 0, 0, 0, 0, 0\n0, 0, 0, 0, 0, 0, 0, 0, 0, 0, 0, 0, 0, 0\n0, 0, 0, 0, 0, 0, 0, 0, 0, 0, 0, 0, 0, 0\n0, 0, 0, 0, 0, 0, 0, 0, 0]"] ;
107 -> 108 ;
109 [label="fear of falling <= 0.5\ngini = 0.815\nsamples = 18\nvalue = [0, 0, 0, 0, 0, 0, 0, 0, 0, 0, 0, 0, 0, 0\n0, 0, 0, 0, 0, 0, 0, 0, 0, 0, 0, 0, 0, 0\n0, 0, 0, 0, 0, 0, 4, 4, 4, 0, 0, 0, 0, 0\n0, 0, 0, 0, 0, 0, 0, 0, 0, 0, 0, 1, 0, 0\n0, 0, 0, 0, 0, 0, 0, 0, 0, 0, 0, 0, 0, 0\n1, 1, 0, 0, 0, 0, 0, 0, 0, 0, 0, 0, 0, 0\n0, 0, 0, 0, 0, 0, 0, 0, 0, 0, 0, 0, 3, 0\n0, 0, 0, 0, 0, 0, 0, 0, 0, 0, 0, 0, 0, 0\n0, 0, 0, 0, 0, 0, 0, 0, 0, 0, 0, 0, 0, 0\n0, 0, 0, 0, 0, 0, 0, 0, 0, 0, 0, 0, 0, 0\n0, 0, 0, 0, 0, 0, 0, 0, 0]"] ;
108 -> 109 ;
110 [label="painful swallowing <= 0.5\ngini = 0.72\nsamples = 10\nvalue = [0, 0, 0, 0, 0, 0, 0, 0, 0, 0, 0, 0, 0, 0\n0, 0, 0, 0, 0, 0, 0, 0, 0, 0, 0, 0, 0, 0\n0, 0, 0, 0, 0, 0, 0, 0, 4, 0, 0, 0, 0, 0\n0, 0, 0, 0, 0, 0, 0, 0, 0, 0, 0, 1, 0, 0\n0, 0, 0, 0, 0, 0, 0, 0, 0, 0, 0, 0, 0, 0\n1, 1, 0, 0, 0, 0, 0, 0, 0, 0, 0, 0, 0, 0\n0, 0, 0, 0, 0, 0, 0, 0, 0, 0, 0, 0, 3, 0\n0, 0, 0, 0, 0, 0, 0, 0, 0, 0, 0, 0, 0, 0\n0, 0, 0, 0, 0, 0, 0, 0, 0, 0, 0, 0, 0, 0\n0, 0, 0, 0, 0, 0, 0, 0, 0, 0, 0, 0, 0, 0\n0, 0, 0, 0, 0, 0, 0, 0, 0]"] ;
109 -> 110 ;
111 [label="paresis <= 0.5\ngini = 0.612\nsamples = 7\nvalue = [0, 0, 0, 0, 0, 0, 0, 0, 0, 0, 0, 0, 0, 0\n0, 0, 0, 0, 0, 0, 0, 0, 0, 0, 0, 0, 0, 0\n0, 0, 0, 0, 0, 0, 0, 0, 4, 0, 0, 0, 0, 0\n0, 0, 0, 0, 0, 0, 0, 0, 0, 0, 0, 1, 0, 0\n0, 0, 0, 0, 0, 0, 0, 0, 0, 0, 0, 0, 0, 0\n1, 1, 0, 0, 0, 0, 0, 0, 0, 0, 0, 0, 0, 0\n0, 0, 0, 0, 0, 0, 0, 0, 0, 0, 0, 0, 0, 0\n0, 0, 0, 0, 0, 0, 0, 0, 0, 0, 0, 0, 0, 0\n0, 0, 0, 0, 0, 0, 0, 0, 0, 0, 0, 0, 0, 0\n0, 0, 0, 0, 0, 0, 0, 0, 0, 0, 0, 0, 0, 0\n0, 0, 0, 0, 0, 0, 0, 0, 0]"] ;
110 -> 111 ;
112 [label="polyuria <= 0.5\ngini = 0.32\nsamples = 5\nvalue = [0, 0, 0, 0, 0, 0, 0, 0, 0, 0, 0, 0, 0, 0\n0, 0, 0, 0, 0, 0, 0, 0, 0, 0, 0, 0, 0, 0\n0, 0, 0, 0, 0, 0, 0, 0, 4, 0, 0, 0, 0, 0\n0, 0, 0, 0, 0, 0, 0, 0, 0, 0, 0, 0, 0, 0\n0, 0, 0, 0, 0, 0, 0, 0, 0, 0, 0, 0, 0, 0\n0, 1, 0, 0, 0, 0, 0, 0, 0, 0, 0, 0, 0, 0\n0, 0, 0, 0, 0, 0, 0, 0, 0, 0, 0, 0, 0, 0\n0, 0, 0, 0, 0, 0, 0, 0, 0, 0, 0, 0, 0, 0\n0, 0, 0, 0, 0, 0, 0, 0, 0, 0, 0, 0, 0, 0\n0, 0, 0, 0, 0, 0, 0, 0, 0, 0, 0, 0, 0, 0\n0, 0, 0, 0, 0, 0, 0, 0, 0]"] ;
111 -> 112 ;
113 [label="gini = 0.0\nsamples = 4\nvalue = [0, 0, 0, 0, 0, 0, 0, 0, 0, 0, 0, 0, 0, 0\n0, 0, 0, 0, 0, 0, 0, 0, 0, 0, 0, 0, 0, 0\n0, 0, 0, 0, 0, 0, 0, 0, 4, 0, 0, 0, 0, 0\n0, 0, 0, 0, 0, 0, 0, 0, 0, 0, 0, 0, 0, 0\n0, 0, 0, 0, 0, 0, 0, 0, 0, 0, 0, 0, 0, 0\n0, 0, 0, 0, 0, 0, 0, 0, 0, 0, 0, 0, 0, 0\n0, 0, 0, 0, 0, 0, 0, 0, 0, 0, 0, 0, 0, 0\n0, 0, 0, 0, 0, 0, 0, 0, 0, 0, 0, 0, 0, 0\n0, 0, 0, 0, 0, 0, 0, 0, 0, 0, 0, 0, 0, 0\n0, 0, 0, 0, 0, 0, 0, 0, 0, 0, 0, 0, 0, 0\n0, 0, 0, 0, 0, 0, 0, 0, 0]"] ;
112 -> 113 ;
114 [label="gini = 0.0\nsamples = 1\nvalue = [0, 0, 0, 0, 0, 0, 0, 0, 0, 0, 0, 0, 0, 0\n0, 0, 0, 0, 0, 0, 0, 0, 0, 0, 0, 0, 0, 0\n0, 0, 0, 0, 0, 0, 0, 0, 0, 0, 0, 0, 0, 0\n0, 0, 0, 0, 0, 0, 0, 0, 0, 0, 0, 0, 0, 0\n0, 0, 0, 0, 0, 0, 0, 0, 0, 0, 0, 0, 0, 0\n0, 1, 0, 0, 0, 0, 0, 0, 0, 0, 0, 0, 0, 0\n0, 0, 0, 0, 0, 0, 0, 0, 0, 0, 0, 0, 0, 0\n0, 0, 0, 0, 0, 0, 0, 0, 0, 0, 0, 0, 0, 0\n0, 0, 0, 0, 0, 0, 0, 0, 0, 0, 0, 0, 0, 0\n0, 0, 0, 0, 0, 0, 0, 0, 0, 0, 0, 0, 0, 0\n0, 0, 0, 0, 0, 0, 0, 0, 0]"] ;
112 -> 114 ;
115 [label="weepiness <= 0.5\ngini = 0.5\nsamples = 2\nvalue = [0, 0, 0, 0, 0, 0, 0, 0, 0, 0, 0, 0, 0, 0\n0, 0, 0, 0, 0, 0, 0, 0, 0, 0, 0, 0, 0, 0\n0, 0, 0, 0, 0, 0, 0, 0, 0, 0, 0, 0, 0, 0\n0, 0, 0, 0, 0, 0, 0, 0, 0, 0, 0, 1, 0, 0\n0, 0, 0, 0, 0, 0, 0, 0, 0, 0, 0, 0, 0, 0\n1, 0, 0, 0, 0, 0, 0, 0, 0, 0, 0, 0, 0, 0\n0, 0, 0, 0, 0, 0, 0, 0, 0, 0, 0, 0, 0, 0\n0, 0, 0, 0, 0, 0, 0, 0, 0, 0, 0, 0, 0, 0\n0, 0, 0, 0, 0, 0, 0, 0, 0, 0, 0, 0, 0, 0\n0, 0, 0, 0, 0, 0, 0, 0, 0, 0, 0, 0, 0, 0\n0, 0, 0, 0, 0, 0, 0, 0, 0]"] ;
111 -> 115 ;
116 [label="gini = 0.0\nsamples = 1\nvalue = [0, 0, 0, 0, 0, 0, 0, 0, 0, 0, 0, 0, 0, 0\n0, 0, 0, 0, 0, 0, 0, 0, 0, 0, 0, 0, 0, 0\n0, 0, 0, 0, 0, 0, 0, 0, 0, 0, 0, 0, 0, 0\n0, 0, 0, 0, 0, 0, 0, 0, 0, 0, 0, 0, 0, 0\n0, 0, 0, 0, 0, 0, 0, 0, 0, 0, 0, 0, 0, 0\n1, 0, 0, 0, 0, 0, 0, 0, 0, 0, 0, 0, 0, 0\n0, 0, 0, 0, 0, 0, 0, 0, 0, 0, 0, 0, 0, 0\n0, 0, 0, 0, 0, 0, 0, 0, 0, 0, 0, 0, 0, 0\n0, 0, 0, 0, 0, 0, 0, 0, 0, 0, 0, 0, 0, 0\n0, 0, 0, 0, 0, 0, 0, 0, 0, 0, 0, 0, 0, 0\n0, 0, 0, 0, 0, 0, 0, 0, 0]"] ;
115 -> 116 ;
117 [label="gini = 0.0\nsamples = 1\nvalue = [0, 0, 0, 0, 0, 0, 0, 0, 0, 0, 0, 0, 0, 0\n0, 0, 0, 0, 0, 0, 0, 0, 0, 0, 0, 0, 0, 0\n0, 0, 0, 0, 0, 0, 0, 0, 0, 0, 0, 0, 0, 0\n0, 0, 0, 0, 0, 0, 0, 0, 0, 0, 0, 1, 0, 0\n0, 0, 0, 0, 0, 0, 0, 0, 0, 0, 0, 0, 0, 0\n0, 0, 0, 0, 0, 0, 0, 0, 0, 0, 0, 0, 0, 0\n0, 0, 0, 0, 0, 0, 0, 0, 0, 0, 0, 0, 0, 0\n0, 0, 0, 0, 0, 0, 0, 0, 0, 0, 0, 0, 0, 0\n0, 0, 0, 0, 0, 0, 0, 0, 0, 0, 0, 0, 0, 0\n0, 0, 0, 0, 0, 0, 0, 0, 0, 0, 0, 0, 0, 0\n0, 0, 0, 0, 0, 0, 0, 0, 0]"] ;
115 -> 117 ;
118 [label="gini = 0.0\nsamples = 3\nvalue = [0, 0, 0, 0, 0, 0, 0, 0, 0, 0, 0, 0, 0, 0\n0, 0, 0, 0, 0, 0, 0, 0, 0, 0, 0, 0, 0, 0\n0, 0, 0, 0, 0, 0, 0, 0, 0, 0, 0, 0, 0, 0\n0, 0, 0, 0, 0, 0, 0, 0, 0, 0, 0, 0, 0, 0\n0, 0, 0, 0, 0, 0, 0, 0, 0, 0, 0, 0, 0, 0\n0, 0, 0, 0, 0, 0, 0, 0, 0, 0, 0, 0, 0, 0\n0, 0, 0, 0, 0, 0, 0, 0, 0, 0, 0, 0, 3, 0\n0, 0, 0, 0, 0, 0, 0, 0, 0, 0, 0, 0, 0, 0\n0, 0, 0, 0, 0, 0, 0, 0, 0, 0, 0, 0, 0, 0\n0, 0, 0, 0, 0, 0, 0, 0, 0, 0, 0, 0, 0, 0\n0, 0, 0, 0, 0, 0, 0, 0, 0]"] ;
110 -> 118 ;
119 [label="gini = 0.5\nsamples = 8\nvalue = [0, 0, 0, 0, 0, 0, 0, 0, 0, 0, 0, 0, 0, 0\n0, 0, 0, 0, 0, 0, 0, 0, 0, 0, 0, 0, 0, 0\n0, 0, 0, 0, 0, 0, 4, 4, 0, 0, 0, 0, 0, 0\n0, 0, 0, 0, 0, 0, 0, 0, 0, 0, 0, 0, 0, 0\n0, 0, 0, 0, 0, 0, 0, 0, 0, 0, 0, 0, 0, 0\n0, 0, 0, 0, 0, 0, 0, 0, 0, 0, 0, 0, 0, 0\n0, 0, 0, 0, 0, 0, 0, 0, 0, 0, 0, 0, 0, 0\n0, 0, 0, 0, 0, 0, 0, 0, 0, 0, 0, 0, 0, 0\n0, 0, 0, 0, 0, 0, 0, 0, 0, 0, 0, 0, 0, 0\n0, 0, 0, 0, 0, 0, 0, 0, 0, 0, 0, 0, 0, 0\n0, 0, 0, 0, 0, 0, 0, 0, 0]"] ;
109 -> 119 ;
120 [label="gini = 0.5\nsamples = 8\nvalue = [0, 0, 0, 0, 0, 0, 0, 0, 0, 0, 0, 0, 0, 0\n0, 0, 0, 0, 0, 0, 0, 0, 0, 0, 0, 0, 0, 0\n0, 0, 0, 0, 0, 0, 0, 0, 0, 0, 0, 0, 0, 0\n0, 0, 0, 4, 4, 0, 0, 0, 0, 0, 0, 0, 0, 0\n0, 0, 0, 0, 0, 0, 0, 0, 0, 0, 0, 0, 0, 0\n0, 0, 0, 0, 0, 0, 0, 0, 0, 0, 0, 0, 0, 0\n0, 0, 0, 0, 0, 0, 0, 0, 0, 0, 0, 0, 0, 0\n0, 0, 0, 0, 0, 0, 0, 0, 0, 0, 0, 0, 0, 0\n0, 0, 0, 0, 0, 0, 0, 0, 0, 0, 0, 0, 0, 0\n0, 0, 0, 0, 0, 0, 0, 0, 0, 0, 0, 0, 0, 0\n0, 0, 0, 0, 0, 0, 0, 0, 0]"] ;
108 -> 120 ;
121 [label="gini = 0.0\nsamples = 4\nvalue = [0, 0, 0, 0, 0, 0, 0, 0, 0, 0, 0, 0, 0, 0\n0, 0, 0, 0, 0, 0, 0, 0, 0, 0, 0, 4, 0, 0\n0, 0, 0, 0, 0, 0, 0, 0, 0, 0, 0, 0, 0, 0\n0, 0, 0, 0, 0, 0, 0, 0, 0, 0, 0, 0, 0, 0\n0, 0, 0, 0, 0, 0, 0, 0, 0, 0, 0, 0, 0, 0\n0, 0, 0, 0, 0, 0, 0, 0, 0, 0, 0, 0, 0, 0\n0, 0, 0, 0, 0, 0, 0, 0, 0, 0, 0, 0, 0, 0\n0, 0, 0, 0, 0, 0, 0, 0, 0, 0, 0, 0, 0, 0\n0, 0, 0, 0, 0, 0, 0, 0, 0, 0, 0, 0, 0, 0\n0, 0, 0, 0, 0, 0, 0, 0, 0, 0, 0, 0, 0, 0\n0, 0, 0, 0, 0, 0, 0, 0, 0]"] ;
107 -> 121 ;
122 [label="gini = 0.0\nsamples = 4\nvalue = [0, 0, 0, 0, 0, 0, 0, 0, 0, 0, 0, 0, 0, 0\n0, 0, 0, 0, 0, 0, 0, 0, 0, 0, 0, 0, 0, 0\n0, 0, 0, 0, 0, 0, 0, 0, 0, 0, 0, 0, 0, 0\n0, 0, 0, 0, 0, 0, 0, 0, 0, 0, 0, 0, 0, 0\n0, 0, 0, 0, 0, 0, 0, 0, 0, 0, 0, 0, 0, 0\n0, 0, 0, 0, 0, 0, 0, 0, 0, 0, 0, 0, 0, 0\n0, 0, 0, 0, 0, 4, 0, 0, 0, 0, 0, 0, 0, 0\n0, 0, 0, 0, 0, 0, 0, 0, 0, 0, 0, 0, 0, 0\n0, 0, 0, 0, 0, 0, 0, 0, 0, 0, 0, 0, 0, 0\n0, 0, 0, 0, 0, 0, 0, 0, 0, 0, 0, 0, 0, 0\n0, 0, 0, 0, 0, 0, 0, 0, 0]"] ;
106 -> 122 ;
123 [label="gini = 0.0\nsamples = 4\nvalue = [0, 0, 0, 0, 0, 0, 0, 0, 0, 0, 0, 0, 0, 0\n0, 0, 0, 0, 0, 0, 0, 0, 0, 0, 0, 0, 0, 0\n0, 0, 0, 0, 0, 0, 0, 0, 0, 0, 0, 0, 0, 0\n0, 0, 0, 0, 0, 0, 0, 0, 0, 0, 0, 0, 0, 0\n0, 0, 0, 4, 0, 0, 0, 0, 0, 0, 0, 0, 0, 0\n0, 0, 0, 0, 0, 0, 0, 0, 0, 0, 0, 0, 0, 0\n0, 0, 0, 0, 0, 0, 0, 0, 0, 0, 0, 0, 0, 0\n0, 0, 0, 0, 0, 0, 0, 0, 0, 0, 0, 0, 0, 0\n0, 0, 0, 0, 0, 0, 0, 0, 0, 0, 0, 0, 0, 0\n0, 0, 0, 0, 0, 0, 0, 0, 0, 0, 0, 0, 0, 0\n0, 0, 0, 0, 0, 0, 0, 0, 0]"] ;
105 -> 123 ;
124 [label="gini = 0.0\nsamples = 4\nvalue = [0, 0, 0, 0, 0, 0, 0, 0, 0, 0, 0, 0, 0, 0\n0, 0, 0, 0, 0, 0, 0, 0, 0, 0, 0, 0, 0, 0\n0, 0, 0, 0, 0, 0, 0, 0, 0, 0, 0, 0, 0, 0\n0, 0, 0, 0, 0, 0, 0, 0, 0, 0, 0, 0, 0, 0\n0, 0, 0, 0, 0, 0, 0, 0, 0, 0, 0, 0, 0, 0\n0, 0, 0, 0, 0, 0, 0, 0, 0, 0, 0, 0, 0, 0\n0, 0, 0, 0, 0, 0, 0, 4, 0, 0, 0, 0, 0, 0\n0, 0, 0, 0, 0, 0, 0, 0, 0, 0, 0, 0, 0, 0\n0, 0, 0, 0, 0, 0, 0, 0, 0, 0, 0, 0, 0, 0\n0, 0, 0, 0, 0, 0, 0, 0, 0, 0, 0, 0, 0, 0\n0, 0, 0, 0, 0, 0, 0, 0, 0]"] ;
104 -> 124 ;
125 [label="gini = 0.0\nsamples = 4\nvalue = [0, 0, 0, 0, 0, 0, 0, 0, 0, 0, 0, 4, 0, 0\n0, 0, 0, 0, 0, 0, 0, 0, 0, 0, 0, 0, 0, 0\n0, 0, 0, 0, 0, 0, 0, 0, 0, 0, 0, 0, 0, 0\n0, 0, 0, 0, 0, 0, 0, 0, 0, 0, 0, 0, 0, 0\n0, 0, 0, 0, 0, 0, 0, 0, 0, 0, 0, 0, 0, 0\n0, 0, 0, 0, 0, 0, 0, 0, 0, 0, 0, 0, 0, 0\n0, 0, 0, 0, 0, 0, 0, 0, 0, 0, 0, 0, 0, 0\n0, 0, 0, 0, 0, 0, 0, 0, 0, 0, 0, 0, 0, 0\n0, 0, 0, 0, 0, 0, 0, 0, 0, 0, 0, 0, 0, 0\n0, 0, 0, 0, 0, 0, 0, 0, 0, 0, 0, 0, 0, 0\n0, 0, 0, 0, 0, 0, 0, 0, 0]"] ;
103 -> 125 ;
126 [label="gini = 0.0\nsamples = 4\nvalue = [0, 0, 0, 0, 0, 0, 0, 0, 0, 0, 0, 0, 4, 0\n0, 0, 0, 0, 0, 0, 0, 0, 0, 0, 0, 0, 0, 0\n0, 0, 0, 0, 0, 0, 0, 0, 0, 0, 0, 0, 0, 0\n0, 0, 0, 0, 0, 0, 0, 0, 0, 0, 0, 0, 0, 0\n0, 0, 0, 0, 0, 0, 0, 0, 0, 0, 0, 0, 0, 0\n0, 0, 0, 0, 0, 0, 0, 0, 0, 0, 0, 0, 0, 0\n0, 0, 0, 0, 0, 0, 0, 0, 0, 0, 0, 0, 0, 0\n0, 0, 0, 0, 0, 0, 0, 0, 0, 0, 0, 0, 0, 0\n0, 0, 0, 0, 0, 0, 0, 0, 0, 0, 0, 0, 0, 0\n0, 0, 0, 0, 0, 0, 0, 0, 0, 0, 0, 0, 0, 0\n0, 0, 0, 0, 0, 0, 0, 0, 0]"] ;
102 -> 126 ;
127 [label="gini = 0.0\nsamples = 4\nvalue = [0, 0, 0, 0, 0, 0, 0, 0, 0, 0, 0, 0, 0, 0\n0, 0, 0, 0, 0, 0, 0, 0, 0, 0, 0, 0, 0, 4\n0, 0, 0, 0, 0, 0, 0, 0, 0, 0, 0, 0, 0, 0\n0, 0, 0, 0, 0, 0, 0, 0, 0, 0, 0, 0, 0, 0\n0, 0, 0, 0, 0, 0, 0, 0, 0, 0, 0, 0, 0, 0\n0, 0, 0, 0, 0, 0, 0, 0, 0, 0, 0, 0, 0, 0\n0, 0, 0, 0, 0, 0, 0, 0, 0, 0, 0, 0, 0, 0\n0, 0, 0, 0, 0, 0, 0, 0, 0, 0, 0, 0, 0, 0\n0, 0, 0, 0, 0, 0, 0, 0, 0, 0, 0, 0, 0, 0\n0, 0, 0, 0, 0, 0, 0, 0, 0, 0, 0, 0, 0, 0\n0, 0, 0, 0, 0, 0, 0, 0, 0]"] ;
101 -> 127 ;
128 [label="gini = 0.0\nsamples = 4\nvalue = [0, 0, 0, 0, 0, 0, 0, 0, 0, 0, 0, 0, 0, 0\n0, 0, 0, 0, 0, 0, 0, 0, 0, 0, 0, 0, 0, 0\n0, 0, 0, 0, 0, 0, 0, 0, 0, 0, 0, 0, 0, 0\n0, 0, 4, 0, 0, 0, 0, 0, 0, 0, 0, 0, 0, 0\n0, 0, 0, 0, 0, 0, 0, 0, 0, 0, 0, 0, 0, 0\n0, 0, 0, 0, 0, 0, 0, 0, 0, 0, 0, 0, 0, 0\n0, 0, 0, 0, 0, 0, 0, 0, 0, 0, 0, 0, 0, 0\n0, 0, 0, 0, 0, 0, 0, 0, 0, 0, 0, 0, 0, 0\n0, 0, 0, 0, 0, 0, 0, 0, 0, 0, 0, 0, 0, 0\n0, 0, 0, 0, 0, 0, 0, 0, 0, 0, 0, 0, 0, 0\n0, 0, 0, 0, 0, 0, 0, 0, 0]"] ;
100 -> 128 ;
129 [label="gini = 0.0\nsamples = 4\nvalue = [0, 0, 0, 0, 0, 0, 0, 0, 0, 0, 0, 0, 0, 0\n0, 4, 0, 0, 0, 0, 0, 0, 0, 0, 0, 0, 0, 0\n0, 0, 0, 0, 0, 0, 0, 0, 0, 0, 0, 0, 0, 0\n0, 0, 0, 0, 0, 0, 0, 0, 0, 0, 0, 0, 0, 0\n0, 0, 0, 0, 0, 0, 0, 0, 0, 0, 0, 0, 0, 0\n0, 0, 0, 0, 0, 0, 0, 0, 0, 0, 0, 0, 0, 0\n0, 0, 0, 0, 0, 0, 0, 0, 0, 0, 0, 0, 0, 0\n0, 0, 0, 0, 0, 0, 0, 0, 0, 0, 0, 0, 0, 0\n0, 0, 0, 0, 0, 0, 0, 0, 0, 0, 0, 0, 0, 0\n0, 0, 0, 0, 0, 0, 0, 0, 0, 0, 0, 0, 0, 0\n0, 0, 0, 0, 0, 0, 0, 0, 0]"] ;
99 -> 129 ;
130 [label="gini = 0.0\nsamples = 4\nvalue = [0, 0, 0, 0, 0, 0, 0, 0, 0, 0, 0, 0, 0, 0\n0, 0, 0, 0, 0, 0, 0, 0, 0, 0, 0, 0, 0, 0\n0, 0, 0, 0, 0, 0, 0, 0, 0, 0, 0, 0, 0, 0\n0, 0, 0, 0, 0, 0, 0, 0, 4, 0, 0, 0, 0, 0\n0, 0, 0, 0, 0, 0, 0, 0, 0, 0, 0, 0, 0, 0\n0, 0, 0, 0, 0, 0, 0, 0, 0, 0, 0, 0, 0, 0\n0, 0, 0, 0, 0, 0, 0, 0, 0, 0, 0, 0, 0, 0\n0, 0, 0, 0, 0, 0, 0, 0, 0, 0, 0, 0, 0, 0\n0, 0, 0, 0, 0, 0, 0, 0, 0, 0, 0, 0, 0, 0\n0, 0, 0, 0, 0, 0, 0, 0, 0, 0, 0, 0, 0, 0\n0, 0, 0, 0, 0, 0, 0, 0, 0]"] ;
98 -> 130 ;
131 [label="gini = 0.0\nsamples = 4\nvalue = [0, 0, 0, 0, 0, 0, 0, 0, 0, 0, 0, 0, 0, 0\n0, 0, 0, 0, 0, 0, 0, 0, 0, 0, 0, 0, 0, 0\n0, 0, 0, 0, 0, 0, 0, 0, 0, 0, 0, 0, 0, 0\n0, 0, 0, 0, 0, 0, 0, 0, 0, 0, 0, 0, 0, 0\n0, 0, 0, 0, 0, 0, 0, 0, 0, 0, 0, 0, 0, 0\n0, 0, 0, 0, 0, 0, 0, 0, 0, 0, 0, 0, 0, 0\n0, 4, 0, 0, 0, 0, 0, 0, 0, 0, 0, 0, 0, 0\n0, 0, 0, 0, 0, 0, 0, 0, 0, 0, 0, 0, 0, 0\n0, 0, 0, 0, 0, 0, 0, 0, 0, 0, 0, 0, 0, 0\n0, 0, 0, 0, 0, 0, 0, 0, 0, 0, 0, 0, 0, 0\n0, 0, 0, 0, 0, 0, 0, 0, 0]"] ;
97 -> 131 ;
132 [label="gini = 0.0\nsamples = 4\nvalue = [0, 0, 0, 0, 0, 0, 0, 0, 0, 0, 0, 0, 0, 0\n0, 0, 0, 0, 0, 0, 0, 0, 0, 0, 0, 0, 0, 0\n0, 0, 0, 0, 0, 0, 0, 0, 0, 0, 0, 0, 0, 0\n0, 0, 0, 0, 0, 0, 0, 0, 0, 0, 0, 0, 0, 0\n0, 0, 0, 0, 0, 0, 0, 0, 0, 0, 0, 0, 0, 0\n0, 0, 0, 0, 0, 0, 0, 0, 0, 0, 0, 0, 0, 0\n0, 0, 0, 0, 0, 0, 0, 0, 0, 0, 0, 0, 0, 0\n0, 0, 0, 0, 0, 0, 0, 0, 0, 0, 0, 0, 0, 0\n0, 0, 0, 0, 0, 0, 0, 0, 0, 0, 0, 0, 0, 0\n0, 0, 0, 0, 0, 0, 0, 0, 0, 0, 0, 0, 0, 0\n0, 4, 0, 0, 0, 0, 0, 0, 0]"] ;
96 -> 132 ;
133 [label="gini = 0.0\nsamples = 4\nvalue = [0, 0, 0, 0, 0, 0, 0, 0, 0, 0, 0, 0, 0, 0\n0, 0, 0, 0, 0, 0, 0, 0, 0, 0, 0, 0, 0, 0\n0, 0, 0, 0, 0, 0, 0, 0, 0, 0, 0, 0, 0, 0\n0, 0, 0, 0, 0, 0, 0, 0, 0, 0, 0, 0, 0, 0\n0, 0, 0, 0, 0, 0, 0, 0, 0, 0, 4, 0, 0, 0\n0, 0, 0, 0, 0, 0, 0, 0, 0, 0, 0, 0, 0, 0\n0, 0, 0, 0, 0, 0, 0, 0, 0, 0, 0, 0, 0, 0\n0, 0, 0, 0, 0, 0, 0, 0, 0, 0, 0, 0, 0, 0\n0, 0, 0, 0, 0, 0, 0, 0, 0, 0, 0, 0, 0, 0\n0, 0, 0, 0, 0, 0, 0, 0, 0, 0, 0, 0, 0, 0\n0, 0, 0, 0, 0, 0, 0, 0, 0]"] ;
95 -> 133 ;
134 [label="gini = 0.0\nsamples = 4\nvalue = [0, 0, 0, 0, 0, 0, 0, 0, 0, 0, 0, 0, 0, 0\n0, 0, 0, 0, 0, 0, 0, 0, 0, 0, 0, 0, 0, 0\n0, 0, 0, 0, 0, 0, 0, 0, 0, 0, 0, 0, 0, 0\n0, 0, 0, 0, 0, 0, 0, 0, 0, 0, 0, 0, 0, 0\n0, 0, 0, 0, 0, 0, 0, 0, 0, 0, 0, 0, 0, 4\n0, 0, 0, 0, 0, 0, 0, 0, 0, 0, 0, 0, 0, 0\n0, 0, 0, 0, 0, 0, 0, 0, 0, 0, 0, 0, 0, 0\n0, 0, 0, 0, 0, 0, 0, 0, 0, 0, 0, 0, 0, 0\n0, 0, 0, 0, 0, 0, 0, 0, 0, 0, 0, 0, 0, 0\n0, 0, 0, 0, 0, 0, 0, 0, 0, 0, 0, 0, 0, 0\n0, 0, 0, 0, 0, 0, 0, 0, 0]"] ;
94 -> 134 ;
135 [label="gini = 0.0\nsamples = 4\nvalue = [0, 0, 0, 0, 0, 0, 0, 0, 0, 0, 0, 0, 0, 0\n4, 0, 0, 0, 0, 0, 0, 0, 0, 0, 0, 0, 0, 0\n0, 0, 0, 0, 0, 0, 0, 0, 0, 0, 0, 0, 0, 0\n0, 0, 0, 0, 0, 0, 0, 0, 0, 0, 0, 0, 0, 0\n0, 0, 0, 0, 0, 0, 0, 0, 0, 0, 0, 0, 0, 0\n0, 0, 0, 0, 0, 0, 0, 0, 0, 0, 0, 0, 0, 0\n0, 0, 0, 0, 0, 0, 0, 0, 0, 0, 0, 0, 0, 0\n0, 0, 0, 0, 0, 0, 0, 0, 0, 0, 0, 0, 0, 0\n0, 0, 0, 0, 0, 0, 0, 0, 0, 0, 0, 0, 0, 0\n0, 0, 0, 0, 0, 0, 0, 0, 0, 0, 0, 0, 0, 0\n0, 0, 0, 0, 0, 0, 0, 0, 0]"] ;
93 -> 135 ;
136 [label="gini = 0.0\nsamples = 4\nvalue = [0, 0, 0, 0, 0, 0, 0, 0, 0, 0, 0, 0, 0, 0\n0, 0, 0, 0, 0, 0, 0, 0, 0, 0, 0, 0, 0, 0\n0, 0, 0, 0, 0, 0, 0, 0, 0, 0, 0, 0, 0, 0\n0, 0, 0, 0, 0, 0, 0, 0, 0, 0, 0, 0, 0, 0\n0, 0, 0, 0, 0, 0, 0, 0, 0, 0, 0, 0, 0, 0\n0, 0, 0, 0, 0, 0, 0, 0, 0, 0, 0, 0, 0, 0\n0, 0, 0, 0, 0, 0, 0, 0, 4, 0, 0, 0, 0, 0\n0, 0, 0, 0, 0, 0, 0, 0, 0, 0, 0, 0, 0, 0\n0, 0, 0, 0, 0, 0, 0, 0, 0, 0, 0, 0, 0, 0\n0, 0, 0, 0, 0, 0, 0, 0, 0, 0, 0, 0, 0, 0\n0, 0, 0, 0, 0, 0, 0, 0, 0]"] ;
92 -> 136 ;
137 [label="gini = 0.0\nsamples = 4\nvalue = [0, 0, 0, 0, 0, 0, 0, 0, 0, 0, 0, 0, 0, 4\n0, 0, 0, 0, 0, 0, 0, 0, 0, 0, 0, 0, 0, 0\n0, 0, 0, 0, 0, 0, 0, 0, 0, 0, 0, 0, 0, 0\n0, 0, 0, 0, 0, 0, 0, 0, 0, 0, 0, 0, 0, 0\n0, 0, 0, 0, 0, 0, 0, 0, 0, 0, 0, 0, 0, 0\n0, 0, 0, 0, 0, 0, 0, 0, 0, 0, 0, 0, 0, 0\n0, 0, 0, 0, 0, 0, 0, 0, 0, 0, 0, 0, 0, 0\n0, 0, 0, 0, 0, 0, 0, 0, 0, 0, 0, 0, 0, 0\n0, 0, 0, 0, 0, 0, 0, 0, 0, 0, 0, 0, 0, 0\n0, 0, 0, 0, 0, 0, 0, 0, 0, 0, 0, 0, 0, 0\n0, 0, 0, 0, 0, 0, 0, 0, 0]"] ;
91 -> 137 ;
138 [label="gini = 0.0\nsamples = 4\nvalue = [0, 0, 0, 0, 0, 0, 0, 0, 0, 0, 0, 0, 0, 0\n0, 0, 0, 0, 0, 0, 0, 0, 0, 0, 0, 0, 0, 0\n0, 0, 0, 0, 0, 0, 0, 0, 0, 0, 0, 0, 0, 0\n0, 0, 0, 0, 0, 0, 0, 4, 0, 0, 0, 0, 0, 0\n0, 0, 0, 0, 0, 0, 0, 0, 0, 0, 0, 0, 0, 0\n0, 0, 0, 0, 0, 0, 0, 0, 0, 0, 0, 0, 0, 0\n0, 0, 0, 0, 0, 0, 0, 0, 0, 0, 0, 0, 0, 0\n0, 0, 0, 0, 0, 0, 0, 0, 0, 0, 0, 0, 0, 0\n0, 0, 0, 0, 0, 0, 0, 0, 0, 0, 0, 0, 0, 0\n0, 0, 0, 0, 0, 0, 0, 0, 0, 0, 0, 0, 0, 0\n0, 0, 0, 0, 0, 0, 0, 0, 0]"] ;
90 -> 138 ;
139 [label="gini = 0.0\nsamples = 4\nvalue = [0, 0, 0, 0, 0, 0, 0, 0, 0, 0, 0, 0, 0, 0\n0, 0, 0, 0, 0, 0, 0, 0, 0, 0, 0, 0, 0, 0\n0, 0, 0, 0, 0, 0, 0, 0, 0, 0, 0, 0, 0, 0\n0, 0, 0, 0, 0, 0, 0, 0, 0, 0, 0, 0, 0, 0\n0, 0, 0, 0, 0, 0, 0, 0, 0, 0, 0, 0, 0, 0\n0, 0, 0, 0, 0, 0, 0, 0, 0, 0, 0, 0, 0, 0\n0, 0, 0, 0, 4, 0, 0, 0, 0, 0, 0, 0, 0, 0\n0, 0, 0, 0, 0, 0, 0, 0, 0, 0, 0, 0, 0, 0\n0, 0, 0, 0, 0, 0, 0, 0, 0, 0, 0, 0, 0, 0\n0, 0, 0, 0, 0, 0, 0, 0, 0, 0, 0, 0, 0, 0\n0, 0, 0, 0, 0, 0, 0, 0, 0]"] ;
89 -> 139 ;
140 [label="gini = 0.0\nsamples = 4\nvalue = [0, 0, 0, 0, 0, 0, 0, 0, 0, 0, 0, 0, 0, 0\n0, 0, 0, 0, 0, 0, 0, 0, 0, 0, 0, 0, 0, 0\n4, 0, 0, 0, 0, 0, 0, 0, 0, 0, 0, 0, 0, 0\n0, 0, 0, 0, 0, 0, 0, 0, 0, 0, 0, 0, 0, 0\n0, 0, 0, 0, 0, 0, 0, 0, 0, 0, 0, 0, 0, 0\n0, 0, 0, 0, 0, 0, 0, 0, 0, 0, 0, 0, 0, 0\n0, 0, 0, 0, 0, 0, 0, 0, 0, 0, 0, 0, 0, 0\n0, 0, 0, 0, 0, 0, 0, 0, 0, 0, 0, 0, 0, 0\n0, 0, 0, 0, 0, 0, 0, 0, 0, 0, 0, 0, 0, 0\n0, 0, 0, 0, 0, 0, 0, 0, 0, 0, 0, 0, 0, 0\n0, 0, 0, 0, 0, 0, 0, 0, 0]"] ;
88 -> 140 ;
141 [label="gini = 0.0\nsamples = 4\nvalue = [0, 0, 0, 0, 0, 0, 0, 0, 0, 0, 0, 0, 0, 0\n0, 0, 0, 0, 0, 0, 0, 0, 0, 0, 0, 0, 0, 0\n0, 0, 0, 4, 0, 0, 0, 0, 0, 0, 0, 0, 0, 0\n0, 0, 0, 0, 0, 0, 0, 0, 0, 0, 0, 0, 0, 0\n0, 0, 0, 0, 0, 0, 0, 0, 0, 0, 0, 0, 0, 0\n0, 0, 0, 0, 0, 0, 0, 0, 0, 0, 0, 0, 0, 0\n0, 0, 0, 0, 0, 0, 0, 0, 0, 0, 0, 0, 0, 0\n0, 0, 0, 0, 0, 0, 0, 0, 0, 0, 0, 0, 0, 0\n0, 0, 0, 0, 0, 0, 0, 0, 0, 0, 0, 0, 0, 0\n0, 0, 0, 0, 0, 0, 0, 0, 0, 0, 0, 0, 0, 0\n0, 0, 0, 0, 0, 0, 0, 0, 0]"] ;
87 -> 141 ;
142 [label="gini = 0.0\nsamples = 4\nvalue = [0, 0, 0, 0, 0, 0, 0, 0, 0, 0, 0, 0, 0, 0\n0, 0, 0, 0, 0, 0, 0, 0, 0, 0, 0, 0, 0, 0\n0, 0, 0, 0, 0, 0, 0, 0, 0, 0, 0, 0, 0, 0\n0, 0, 0, 0, 0, 0, 0, 0, 0, 0, 0, 0, 0, 0\n0, 0, 0, 0, 0, 0, 0, 0, 0, 0, 0, 0, 0, 0\n0, 0, 0, 0, 0, 0, 0, 0, 0, 0, 0, 0, 0, 0\n0, 0, 0, 0, 0, 0, 0, 0, 0, 0, 0, 0, 0, 0\n0, 0, 0, 0, 0, 0, 0, 0, 0, 0, 0, 0, 0, 0\n0, 0, 0, 0, 0, 0, 0, 0, 0, 0, 0, 0, 0, 0\n0, 0, 0, 4, 0, 0, 0, 0, 0, 0, 0, 0, 0, 0\n0, 0, 0, 0, 0, 0, 0, 0, 0]"] ;
86 -> 142 ;
143 [label="gini = 0.0\nsamples = 4\nvalue = [0, 0, 0, 0, 0, 0, 0, 0, 0, 0, 0, 0, 0, 0\n0, 0, 0, 0, 0, 0, 0, 0, 0, 0, 0, 0, 0, 0\n0, 0, 0, 0, 0, 0, 0, 0, 0, 0, 0, 0, 0, 0\n0, 0, 0, 0, 0, 0, 0, 0, 0, 0, 0, 0, 0, 0\n0, 0, 0, 0, 0, 0, 4, 0, 0, 0, 0, 0, 0, 0\n0, 0, 0, 0, 0, 0, 0, 0, 0, 0, 0, 0, 0, 0\n0, 0, 0, 0, 0, 0, 0, 0, 0, 0, 0, 0, 0, 0\n0, 0, 0, 0, 0, 0, 0, 0, 0, 0, 0, 0, 0, 0\n0, 0, 0, 0, 0, 0, 0, 0, 0, 0, 0, 0, 0, 0\n0, 0, 0, 0, 0, 0, 0, 0, 0, 0, 0, 0, 0, 0\n0, 0, 0, 0, 0, 0, 0, 0, 0]"] ;
85 -> 143 ;
144 [label="gini = 0.0\nsamples = 4\nvalue = [0, 0, 0, 0, 0, 0, 0, 0, 0, 0, 0, 0, 0, 0\n0, 0, 0, 0, 0, 0, 0, 0, 0, 0, 0, 0, 0, 0\n0, 0, 0, 0, 0, 0, 0, 0, 0, 0, 0, 0, 0, 0\n0, 0, 0, 0, 0, 0, 0, 0, 0, 0, 0, 0, 0, 0\n4, 0, 0, 0, 0, 0, 0, 0, 0, 0, 0, 0, 0, 0\n0, 0, 0, 0, 0, 0, 0, 0, 0, 0, 0, 0, 0, 0\n0, 0, 0, 0, 0, 0, 0, 0, 0, 0, 0, 0, 0, 0\n0, 0, 0, 0, 0, 0, 0, 0, 0, 0, 0, 0, 0, 0\n0, 0, 0, 0, 0, 0, 0, 0, 0, 0, 0, 0, 0, 0\n0, 0, 0, 0, 0, 0, 0, 0, 0, 0, 0, 0, 0, 0\n0, 0, 0, 0, 0, 0, 0, 0, 0]"] ;
84 -> 144 ;
145 [label="gini = 0.0\nsamples = 4\nvalue = [0, 0, 0, 0, 0, 0, 0, 0, 0, 0, 0, 0, 0, 0\n0, 0, 0, 0, 0, 0, 0, 0, 0, 0, 0, 0, 0, 0\n0, 0, 0, 0, 0, 0, 0, 0, 0, 0, 0, 0, 0, 0\n0, 0, 0, 0, 0, 0, 0, 0, 0, 0, 0, 0, 0, 0\n0, 0, 0, 0, 0, 0, 0, 0, 0, 0, 0, 0, 0, 0\n0, 0, 0, 0, 0, 0, 0, 0, 0, 0, 0, 0, 0, 0\n0, 0, 0, 0, 0, 0, 0, 0, 0, 4, 0, 0, 0, 0\n0, 0, 0, 0, 0, 0, 0, 0, 0, 0, 0, 0, 0, 0\n0, 0, 0, 0, 0, 0, 0, 0, 0, 0, 0, 0, 0, 0\n0, 0, 0, 0, 0, 0, 0, 0, 0, 0, 0, 0, 0, 0\n0, 0, 0, 0, 0, 0, 0, 0, 0]"] ;
83 -> 145 ;
146 [label="gini = 0.0\nsamples = 4\nvalue = [0, 0, 0, 0, 0, 0, 0, 0, 0, 0, 0, 0, 0, 0\n0, 0, 0, 0, 0, 0, 0, 0, 0, 0, 0, 0, 0, 0\n0, 0, 0, 0, 0, 0, 0, 0, 0, 0, 0, 0, 0, 0\n0, 0, 0, 0, 0, 0, 0, 0, 0, 0, 0, 0, 0, 0\n0, 4, 0, 0, 0, 0, 0, 0, 0, 0, 0, 0, 0, 0\n0, 0, 0, 0, 0, 0, 0, 0, 0, 0, 0, 0, 0, 0\n0, 0, 0, 0, 0, 0, 0, 0, 0, 0, 0, 0, 0, 0\n0, 0, 0, 0, 0, 0, 0, 0, 0, 0, 0, 0, 0, 0\n0, 0, 0, 0, 0, 0, 0, 0, 0, 0, 0, 0, 0, 0\n0, 0, 0, 0, 0, 0, 0, 0, 0, 0, 0, 0, 0, 0\n0, 0, 0, 0, 0, 0, 0, 0, 0]"] ;
82 -> 146 ;
147 [label="gini = 0.0\nsamples = 4\nvalue = [0, 0, 0, 0, 0, 0, 0, 0, 0, 0, 0, 0, 0, 0\n0, 0, 0, 0, 0, 0, 0, 0, 0, 0, 0, 0, 0, 0\n0, 0, 0, 0, 0, 0, 0, 0, 0, 0, 0, 0, 0, 0\n0, 0, 0, 0, 0, 0, 0, 0, 0, 0, 0, 0, 4, 0\n0, 0, 0, 0, 0, 0, 0, 0, 0, 0, 0, 0, 0, 0\n0, 0, 0, 0, 0, 0, 0, 0, 0, 0, 0, 0, 0, 0\n0, 0, 0, 0, 0, 0, 0, 0, 0, 0, 0, 0, 0, 0\n0, 0, 0, 0, 0, 0, 0, 0, 0, 0, 0, 0, 0, 0\n0, 0, 0, 0, 0, 0, 0, 0, 0, 0, 0, 0, 0, 0\n0, 0, 0, 0, 0, 0, 0, 0, 0, 0, 0, 0, 0, 0\n0, 0, 0, 0, 0, 0, 0, 0, 0]"] ;
81 -> 147 ;
148 [label="gini = 0.0\nsamples = 4\nvalue = [0, 0, 0, 0, 0, 0, 0, 0, 0, 0, 0, 0, 0, 0\n0, 0, 0, 0, 0, 0, 0, 0, 0, 0, 0, 0, 0, 0\n0, 0, 0, 0, 0, 0, 0, 0, 0, 0, 0, 0, 0, 0\n0, 0, 0, 0, 0, 0, 0, 0, 0, 0, 0, 0, 0, 0\n0, 0, 0, 0, 0, 0, 0, 0, 0, 0, 0, 0, 0, 0\n0, 0, 0, 0, 0, 0, 0, 0, 0, 0, 0, 0, 0, 0\n0, 0, 0, 0, 0, 0, 0, 0, 0, 0, 0, 0, 0, 0\n0, 0, 0, 0, 0, 0, 0, 0, 0, 0, 4, 0, 0, 0\n0, 0, 0, 0, 0, 0, 0, 0, 0, 0, 0, 0, 0, 0\n0, 0, 0, 0, 0, 0, 0, 0, 0, 0, 0, 0, 0, 0\n0, 0, 0, 0, 0, 0, 0, 0, 0]"] ;
80 -> 148 ;
149 [label="gini = 0.0\nsamples = 4\nvalue = [0, 0, 0, 0, 0, 0, 0, 0, 0, 0, 0, 0, 0, 0\n0, 0, 0, 0, 0, 0, 0, 0, 0, 0, 0, 0, 0, 0\n0, 0, 0, 0, 0, 0, 0, 0, 0, 0, 0, 0, 0, 4\n0, 0, 0, 0, 0, 0, 0, 0, 0, 0, 0, 0, 0, 0\n0, 0, 0, 0, 0, 0, 0, 0, 0, 0, 0, 0, 0, 0\n0, 0, 0, 0, 0, 0, 0, 0, 0, 0, 0, 0, 0, 0\n0, 0, 0, 0, 0, 0, 0, 0, 0, 0, 0, 0, 0, 0\n0, 0, 0, 0, 0, 0, 0, 0, 0, 0, 0, 0, 0, 0\n0, 0, 0, 0, 0, 0, 0, 0, 0, 0, 0, 0, 0, 0\n0, 0, 0, 0, 0, 0, 0, 0, 0, 0, 0, 0, 0, 0\n0, 0, 0, 0, 0, 0, 0, 0, 0]"] ;
79 -> 149 ;
150 [label="gini = 0.0\nsamples = 4\nvalue = [0, 0, 0, 0, 0, 0, 0, 0, 0, 0, 0, 0, 0, 0\n0, 0, 0, 0, 0, 0, 0, 0, 0, 0, 0, 0, 0, 0\n0, 0, 0, 0, 0, 4, 0, 0, 0, 0, 0, 0, 0, 0\n0, 0, 0, 0, 0, 0, 0, 0, 0, 0, 0, 0, 0, 0\n0, 0, 0, 0, 0, 0, 0, 0, 0, 0, 0, 0, 0, 0\n0, 0, 0, 0, 0, 0, 0, 0, 0, 0, 0, 0, 0, 0\n0, 0, 0, 0, 0, 0, 0, 0, 0, 0, 0, 0, 0, 0\n0, 0, 0, 0, 0, 0, 0, 0, 0, 0, 0, 0, 0, 0\n0, 0, 0, 0, 0, 0, 0, 0, 0, 0, 0, 0, 0, 0\n0, 0, 0, 0, 0, 0, 0, 0, 0, 0, 0, 0, 0, 0\n0, 0, 0, 0, 0, 0, 0, 0, 0]"] ;
78 -> 150 ;
151 [label="gini = 0.0\nsamples = 4\nvalue = [0, 0, 0, 0, 0, 0, 0, 0, 0, 0, 0, 0, 0, 0\n0, 0, 0, 0, 0, 0, 0, 0, 0, 0, 0, 0, 0, 0\n0, 0, 4, 0, 0, 0, 0, 0, 0, 0, 0, 0, 0, 0\n0, 0, 0, 0, 0, 0, 0, 0, 0, 0, 0, 0, 0, 0\n0, 0, 0, 0, 0, 0, 0, 0, 0, 0, 0, 0, 0, 0\n0, 0, 0, 0, 0, 0, 0, 0, 0, 0, 0, 0, 0, 0\n0, 0, 0, 0, 0, 0, 0, 0, 0, 0, 0, 0, 0, 0\n0, 0, 0, 0, 0, 0, 0, 0, 0, 0, 0, 0, 0, 0\n0, 0, 0, 0, 0, 0, 0, 0, 0, 0, 0, 0, 0, 0\n0, 0, 0, 0, 0, 0, 0, 0, 0, 0, 0, 0, 0, 0\n0, 0, 0, 0, 0, 0, 0, 0, 0]"] ;
77 -> 151 ;
152 [label="gini = 0.0\nsamples = 4\nvalue = [0, 0, 0, 0, 0, 0, 0, 0, 0, 0, 0, 0, 0, 0\n0, 0, 0, 0, 0, 0, 0, 0, 0, 0, 0, 0, 0, 0\n0, 0, 0, 0, 0, 0, 0, 0, 0, 0, 0, 0, 0, 0\n0, 0, 0, 0, 0, 0, 0, 0, 0, 0, 0, 0, 0, 0\n0, 0, 0, 0, 0, 0, 0, 0, 0, 0, 0, 4, 0, 0\n0, 0, 0, 0, 0, 0, 0, 0, 0, 0, 0, 0, 0, 0\n0, 0, 0, 0, 0, 0, 0, 0, 0, 0, 0, 0, 0, 0\n0, 0, 0, 0, 0, 0, 0, 0, 0, 0, 0, 0, 0, 0\n0, 0, 0, 0, 0, 0, 0, 0, 0, 0, 0, 0, 0, 0\n0, 0, 0, 0, 0, 0, 0, 0, 0, 0, 0, 0, 0, 0\n0, 0, 0, 0, 0, 0, 0, 0, 0]"] ;
76 -> 152 ;
153 [label="gini = 0.0\nsamples = 4\nvalue = [0, 0, 0, 0, 0, 0, 4, 0, 0, 0, 0, 0, 0, 0\n0, 0, 0, 0, 0, 0, 0, 0, 0, 0, 0, 0, 0, 0\n0, 0, 0, 0, 0, 0, 0, 0, 0, 0, 0, 0, 0, 0\n0, 0, 0, 0, 0, 0, 0, 0, 0, 0, 0, 0, 0, 0\n0, 0, 0, 0, 0, 0, 0, 0, 0, 0, 0, 0, 0, 0\n0, 0, 0, 0, 0, 0, 0, 0, 0, 0, 0, 0, 0, 0\n0, 0, 0, 0, 0, 0, 0, 0, 0, 0, 0, 0, 0, 0\n0, 0, 0, 0, 0, 0, 0, 0, 0, 0, 0, 0, 0, 0\n0, 0, 0, 0, 0, 0, 0, 0, 0, 0, 0, 0, 0, 0\n0, 0, 0, 0, 0, 0, 0, 0, 0, 0, 0, 0, 0, 0\n0, 0, 0, 0, 0, 0, 0, 0, 0]"] ;
75 -> 153 ;
154 [label="gini = 0.0\nsamples = 4\nvalue = [0, 0, 0, 0, 0, 0, 0, 0, 0, 0, 0, 0, 0, 0\n0, 0, 0, 0, 0, 0, 0, 0, 0, 0, 4, 0, 0, 0\n0, 0, 0, 0, 0, 0, 0, 0, 0, 0, 0, 0, 0, 0\n0, 0, 0, 0, 0, 0, 0, 0, 0, 0, 0, 0, 0, 0\n0, 0, 0, 0, 0, 0, 0, 0, 0, 0, 0, 0, 0, 0\n0, 0, 0, 0, 0, 0, 0, 0, 0, 0, 0, 0, 0, 0\n0, 0, 0, 0, 0, 0, 0, 0, 0, 0, 0, 0, 0, 0\n0, 0, 0, 0, 0, 0, 0, 0, 0, 0, 0, 0, 0, 0\n0, 0, 0, 0, 0, 0, 0, 0, 0, 0, 0, 0, 0, 0\n0, 0, 0, 0, 0, 0, 0, 0, 0, 0, 0, 0, 0, 0\n0, 0, 0, 0, 0, 0, 0, 0, 0]"] ;
74 -> 154 ;
155 [label="gini = 0.0\nsamples = 4\nvalue = [0, 0, 0, 0, 0, 0, 0, 0, 0, 0, 4, 0, 0, 0\n0, 0, 0, 0, 0, 0, 0, 0, 0, 0, 0, 0, 0, 0\n0, 0, 0, 0, 0, 0, 0, 0, 0, 0, 0, 0, 0, 0\n0, 0, 0, 0, 0, 0, 0, 0, 0, 0, 0, 0, 0, 0\n0, 0, 0, 0, 0, 0, 0, 0, 0, 0, 0, 0, 0, 0\n0, 0, 0, 0, 0, 0, 0, 0, 0, 0, 0, 0, 0, 0\n0, 0, 0, 0, 0, 0, 0, 0, 0, 0, 0, 0, 0, 0\n0, 0, 0, 0, 0, 0, 0, 0, 0, 0, 0, 0, 0, 0\n0, 0, 0, 0, 0, 0, 0, 0, 0, 0, 0, 0, 0, 0\n0, 0, 0, 0, 0, 0, 0, 0, 0, 0, 0, 0, 0, 0\n0, 0, 0, 0, 0, 0, 0, 0, 0]"] ;
73 -> 155 ;
156 [label="gini = 0.0\nsamples = 4\nvalue = [0, 0, 0, 0, 0, 0, 0, 0, 0, 0, 0, 0, 0, 0\n0, 0, 0, 0, 0, 0, 0, 0, 0, 0, 0, 0, 0, 0\n0, 0, 0, 0, 0, 0, 0, 0, 0, 0, 0, 0, 0, 0\n0, 4, 0, 0, 0, 0, 0, 0, 0, 0, 0, 0, 0, 0\n0, 0, 0, 0, 0, 0, 0, 0, 0, 0, 0, 0, 0, 0\n0, 0, 0, 0, 0, 0, 0, 0, 0, 0, 0, 0, 0, 0\n0, 0, 0, 0, 0, 0, 0, 0, 0, 0, 0, 0, 0, 0\n0, 0, 0, 0, 0, 0, 0, 0, 0, 0, 0, 0, 0, 0\n0, 0, 0, 0, 0, 0, 0, 0, 0, 0, 0, 0, 0, 0\n0, 0, 0, 0, 0, 0, 0, 0, 0, 0, 0, 0, 0, 0\n0, 0, 0, 0, 0, 0, 0, 0, 0]"] ;
72 -> 156 ;
157 [label="gini = 0.0\nsamples = 4\nvalue = [0, 0, 0, 0, 0, 0, 0, 0, 0, 0, 0, 0, 0, 0\n0, 0, 0, 0, 4, 0, 0, 0, 0, 0, 0, 0, 0, 0\n0, 0, 0, 0, 0, 0, 0, 0, 0, 0, 0, 0, 0, 0\n0, 0, 0, 0, 0, 0, 0, 0, 0, 0, 0, 0, 0, 0\n0, 0, 0, 0, 0, 0, 0, 0, 0, 0, 0, 0, 0, 0\n0, 0, 0, 0, 0, 0, 0, 0, 0, 0, 0, 0, 0, 0\n0, 0, 0, 0, 0, 0, 0, 0, 0, 0, 0, 0, 0, 0\n0, 0, 0, 0, 0, 0, 0, 0, 0, 0, 0, 0, 0, 0\n0, 0, 0, 0, 0, 0, 0, 0, 0, 0, 0, 0, 0, 0\n0, 0, 0, 0, 0, 0, 0, 0, 0, 0, 0, 0, 0, 0\n0, 0, 0, 0, 0, 0, 0, 0, 0]"] ;
71 -> 157 ;
158 [label="gini = 0.0\nsamples = 4\nvalue = [0, 0, 0, 0, 0, 0, 0, 0, 0, 0, 0, 0, 0, 0\n0, 0, 0, 0, 0, 0, 0, 0, 0, 0, 0, 0, 0, 0\n0, 0, 0, 0, 0, 0, 0, 0, 0, 0, 0, 0, 0, 0\n0, 0, 0, 0, 0, 0, 0, 0, 0, 0, 0, 0, 0, 4\n0, 0, 0, 0, 0, 0, 0, 0, 0, 0, 0, 0, 0, 0\n0, 0, 0, 0, 0, 0, 0, 0, 0, 0, 0, 0, 0, 0\n0, 0, 0, 0, 0, 0, 0, 0, 0, 0, 0, 0, 0, 0\n0, 0, 0, 0, 0, 0, 0, 0, 0, 0, 0, 0, 0, 0\n0, 0, 0, 0, 0, 0, 0, 0, 0, 0, 0, 0, 0, 0\n0, 0, 0, 0, 0, 0, 0, 0, 0, 0, 0, 0, 0, 0\n0, 0, 0, 0, 0, 0, 0, 0, 0]"] ;
70 -> 158 ;
159 [label="gini = 0.0\nsamples = 4\nvalue = [0, 0, 0, 0, 0, 0, 0, 0, 0, 0, 0, 0, 0, 0\n0, 0, 0, 0, 0, 0, 0, 0, 0, 0, 0, 0, 0, 0\n0, 0, 0, 0, 0, 0, 0, 0, 0, 0, 0, 0, 0, 0\n0, 0, 0, 0, 0, 0, 0, 0, 0, 0, 0, 0, 0, 0\n0, 0, 0, 0, 0, 0, 0, 0, 0, 0, 0, 0, 0, 0\n0, 0, 0, 0, 0, 0, 0, 0, 0, 0, 0, 0, 0, 0\n0, 0, 0, 0, 0, 0, 0, 0, 0, 0, 0, 0, 0, 0\n0, 0, 0, 0, 0, 0, 0, 0, 0, 0, 0, 0, 0, 0\n0, 0, 0, 0, 0, 0, 0, 0, 0, 0, 0, 0, 0, 0\n0, 0, 0, 0, 0, 0, 0, 0, 0, 0, 0, 0, 0, 0\n4, 0, 0, 0, 0, 0, 0, 0, 0]"] ;
69 -> 159 ;
160 [label="gini = 0.0\nsamples = 4\nvalue = [0, 0, 0, 0, 0, 0, 0, 0, 0, 0, 0, 0, 0, 0\n0, 0, 0, 0, 0, 0, 0, 0, 0, 0, 0, 0, 0, 0\n0, 0, 0, 0, 0, 0, 0, 0, 0, 0, 0, 0, 0, 0\n0, 0, 0, 0, 0, 0, 0, 0, 0, 0, 0, 0, 0, 0\n0, 0, 0, 0, 0, 0, 0, 0, 0, 0, 0, 0, 0, 0\n0, 0, 0, 0, 0, 0, 0, 0, 0, 0, 0, 0, 0, 0\n0, 0, 0, 0, 0, 0, 0, 0, 0, 0, 0, 0, 0, 0\n0, 0, 0, 4, 0, 0, 0, 0, 0, 0, 0, 0, 0, 0\n0, 0, 0, 0, 0, 0, 0, 0, 0, 0, 0, 0, 0, 0\n0, 0, 0, 0, 0, 0, 0, 0, 0, 0, 0, 0, 0, 0\n0, 0, 0, 0, 0, 0, 0, 0, 0]"] ;
68 -> 160 ;
161 [label="gini = 0.0\nsamples = 4\nvalue = [0, 0, 0, 0, 0, 0, 0, 0, 0, 0, 0, 0, 0, 0\n0, 0, 0, 0, 0, 0, 0, 0, 0, 0, 0, 0, 0, 0\n0, 0, 0, 0, 0, 0, 0, 0, 0, 0, 0, 0, 0, 0\n0, 0, 0, 0, 0, 0, 0, 0, 0, 0, 0, 0, 0, 0\n0, 0, 0, 0, 0, 0, 0, 0, 0, 0, 0, 0, 0, 0\n0, 0, 0, 0, 0, 0, 0, 0, 4, 0, 0, 0, 0, 0\n0, 0, 0, 0, 0, 0, 0, 0, 0, 0, 0, 0, 0, 0\n0, 0, 0, 0, 0, 0, 0, 0, 0, 0, 0, 0, 0, 0\n0, 0, 0, 0, 0, 0, 0, 0, 0, 0, 0, 0, 0, 0\n0, 0, 0, 0, 0, 0, 0, 0, 0, 0, 0, 0, 0, 0\n0, 0, 0, 0, 0, 0, 0, 0, 0]"] ;
67 -> 161 ;
162 [label="gini = 0.0\nsamples = 4\nvalue = [0, 0, 0, 0, 0, 0, 0, 0, 0, 0, 0, 0, 0, 0\n0, 0, 0, 0, 0, 0, 0, 0, 0, 0, 0, 0, 0, 0\n0, 0, 0, 0, 0, 0, 0, 0, 0, 0, 4, 0, 0, 0\n0, 0, 0, 0, 0, 0, 0, 0, 0, 0, 0, 0, 0, 0\n0, 0, 0, 0, 0, 0, 0, 0, 0, 0, 0, 0, 0, 0\n0, 0, 0, 0, 0, 0, 0, 0, 0, 0, 0, 0, 0, 0\n0, 0, 0, 0, 0, 0, 0, 0, 0, 0, 0, 0, 0, 0\n0, 0, 0, 0, 0, 0, 0, 0, 0, 0, 0, 0, 0, 0\n0, 0, 0, 0, 0, 0, 0, 0, 0, 0, 0, 0, 0, 0\n0, 0, 0, 0, 0, 0, 0, 0, 0, 0, 0, 0, 0, 0\n0, 0, 0, 0, 0, 0, 0, 0, 0]"] ;
66 -> 162 ;
163 [label="gini = 0.0\nsamples = 4\nvalue = [0, 0, 0, 0, 0, 0, 0, 0, 0, 0, 0, 0, 0, 0\n0, 0, 0, 0, 0, 0, 0, 0, 0, 0, 0, 0, 0, 0\n0, 0, 0, 0, 0, 0, 0, 0, 0, 0, 0, 0, 0, 0\n4, 0, 0, 0, 0, 0, 0, 0, 0, 0, 0, 0, 0, 0\n0, 0, 0, 0, 0, 0, 0, 0, 0, 0, 0, 0, 0, 0\n0, 0, 0, 0, 0, 0, 0, 0, 0, 0, 0, 0, 0, 0\n0, 0, 0, 0, 0, 0, 0, 0, 0, 0, 0, 0, 0, 0\n0, 0, 0, 0, 0, 0, 0, 0, 0, 0, 0, 0, 0, 0\n0, 0, 0, 0, 0, 0, 0, 0, 0, 0, 0, 0, 0, 0\n0, 0, 0, 0, 0, 0, 0, 0, 0, 0, 0, 0, 0, 0\n0, 0, 0, 0, 0, 0, 0, 0, 0]"] ;
65 -> 163 ;
164 [label="gini = 0.0\nsamples = 4\nvalue = [0, 0, 0, 0, 0, 0, 0, 0, 0, 0, 0, 0, 0, 0\n0, 0, 0, 0, 0, 0, 0, 0, 0, 0, 0, 0, 0, 0\n0, 0, 0, 0, 0, 0, 0, 0, 0, 0, 0, 0, 0, 0\n0, 0, 0, 0, 0, 0, 0, 0, 0, 0, 0, 0, 0, 0\n0, 0, 0, 0, 0, 0, 0, 0, 0, 0, 0, 0, 0, 0\n0, 0, 0, 0, 0, 0, 0, 0, 0, 0, 0, 0, 0, 0\n4, 0, 0, 0, 0, 0, 0, 0, 0, 0, 0, 0, 0, 0\n0, 0, 0, 0, 0, 0, 0, 0, 0, 0, 0, 0, 0, 0\n0, 0, 0, 0, 0, 0, 0, 0, 0, 0, 0, 0, 0, 0\n0, 0, 0, 0, 0, 0, 0, 0, 0, 0, 0, 0, 0, 0\n0, 0, 0, 0, 0, 0, 0, 0, 0]"] ;
64 -> 164 ;
165 [label="gini = 0.0\nsamples = 4\nvalue = [0, 0, 0, 0, 0, 0, 0, 0, 0, 0, 0, 0, 0, 0\n0, 0, 0, 0, 0, 0, 0, 0, 0, 0, 0, 0, 0, 0\n0, 0, 0, 0, 0, 0, 0, 0, 0, 0, 0, 0, 0, 0\n0, 0, 0, 0, 0, 0, 0, 0, 0, 0, 0, 0, 0, 0\n0, 0, 0, 0, 4, 0, 0, 0, 0, 0, 0, 0, 0, 0\n0, 0, 0, 0, 0, 0, 0, 0, 0, 0, 0, 0, 0, 0\n0, 0, 0, 0, 0, 0, 0, 0, 0, 0, 0, 0, 0, 0\n0, 0, 0, 0, 0, 0, 0, 0, 0, 0, 0, 0, 0, 0\n0, 0, 0, 0, 0, 0, 0, 0, 0, 0, 0, 0, 0, 0\n0, 0, 0, 0, 0, 0, 0, 0, 0, 0, 0, 0, 0, 0\n0, 0, 0, 0, 0, 0, 0, 0, 0]"] ;
63 -> 165 ;
166 [label="gini = 0.0\nsamples = 4\nvalue = [0, 0, 0, 0, 0, 0, 0, 0, 0, 0, 0, 0, 0, 0\n0, 0, 0, 0, 0, 0, 0, 0, 0, 0, 0, 0, 4, 0\n0, 0, 0, 0, 0, 0, 0, 0, 0, 0, 0, 0, 0, 0\n0, 0, 0, 0, 0, 0, 0, 0, 0, 0, 0, 0, 0, 0\n0, 0, 0, 0, 0, 0, 0, 0, 0, 0, 0, 0, 0, 0\n0, 0, 0, 0, 0, 0, 0, 0, 0, 0, 0, 0, 0, 0\n0, 0, 0, 0, 0, 0, 0, 0, 0, 0, 0, 0, 0, 0\n0, 0, 0, 0, 0, 0, 0, 0, 0, 0, 0, 0, 0, 0\n0, 0, 0, 0, 0, 0, 0, 0, 0, 0, 0, 0, 0, 0\n0, 0, 0, 0, 0, 0, 0, 0, 0, 0, 0, 0, 0, 0\n0, 0, 0, 0, 0, 0, 0, 0, 0]"] ;
62 -> 166 ;
167 [label="gini = 0.0\nsamples = 4\nvalue = [0, 0, 0, 0, 0, 0, 0, 0, 0, 0, 0, 0, 0, 0\n0, 0, 0, 0, 0, 0, 0, 0, 0, 0, 0, 0, 0, 0\n0, 0, 0, 0, 0, 0, 0, 0, 0, 0, 0, 0, 0, 0\n0, 0, 0, 0, 0, 0, 0, 0, 0, 0, 0, 0, 0, 0\n0, 0, 0, 0, 0, 0, 0, 4, 0, 0, 0, 0, 0, 0\n0, 0, 0, 0, 0, 0, 0, 0, 0, 0, 0, 0, 0, 0\n0, 0, 0, 0, 0, 0, 0, 0, 0, 0, 0, 0, 0, 0\n0, 0, 0, 0, 0, 0, 0, 0, 0, 0, 0, 0, 0, 0\n0, 0, 0, 0, 0, 0, 0, 0, 0, 0, 0, 0, 0, 0\n0, 0, 0, 0, 0, 0, 0, 0, 0, 0, 0, 0, 0, 0\n0, 0, 0, 0, 0, 0, 0, 0, 0]"] ;
61 -> 167 ;
168 [label="gini = 0.0\nsamples = 4\nvalue = [0, 0, 0, 0, 0, 0, 0, 0, 4, 0, 0, 0, 0, 0\n0, 0, 0, 0, 0, 0, 0, 0, 0, 0, 0, 0, 0, 0\n0, 0, 0, 0, 0, 0, 0, 0, 0, 0, 0, 0, 0, 0\n0, 0, 0, 0, 0, 0, 0, 0, 0, 0, 0, 0, 0, 0\n0, 0, 0, 0, 0, 0, 0, 0, 0, 0, 0, 0, 0, 0\n0, 0, 0, 0, 0, 0, 0, 0, 0, 0, 0, 0, 0, 0\n0, 0, 0, 0, 0, 0, 0, 0, 0, 0, 0, 0, 0, 0\n0, 0, 0, 0, 0, 0, 0, 0, 0, 0, 0, 0, 0, 0\n0, 0, 0, 0, 0, 0, 0, 0, 0, 0, 0, 0, 0, 0\n0, 0, 0, 0, 0, 0, 0, 0, 0, 0, 0, 0, 0, 0\n0, 0, 0, 0, 0, 0, 0, 0, 0]"] ;
60 -> 168 ;
169 [label="gini = 0.0\nsamples = 4\nvalue = [0, 0, 0, 0, 0, 0, 0, 0, 0, 4, 0, 0, 0, 0\n0, 0, 0, 0, 0, 0, 0, 0, 0, 0, 0, 0, 0, 0\n0, 0, 0, 0, 0, 0, 0, 0, 0, 0, 0, 0, 0, 0\n0, 0, 0, 0, 0, 0, 0, 0, 0, 0, 0, 0, 0, 0\n0, 0, 0, 0, 0, 0, 0, 0, 0, 0, 0, 0, 0, 0\n0, 0, 0, 0, 0, 0, 0, 0, 0, 0, 0, 0, 0, 0\n0, 0, 0, 0, 0, 0, 0, 0, 0, 0, 0, 0, 0, 0\n0, 0, 0, 0, 0, 0, 0, 0, 0, 0, 0, 0, 0, 0\n0, 0, 0, 0, 0, 0, 0, 0, 0, 0, 0, 0, 0, 0\n0, 0, 0, 0, 0, 0, 0, 0, 0, 0, 0, 0, 0, 0\n0, 0, 0, 0, 0, 0, 0, 0, 0]"] ;
59 -> 169 ;
170 [label="gini = 0.0\nsamples = 4\nvalue = [0, 0, 0, 0, 0, 0, 0, 4, 0, 0, 0, 0, 0, 0\n0, 0, 0, 0, 0, 0, 0, 0, 0, 0, 0, 0, 0, 0\n0, 0, 0, 0, 0, 0, 0, 0, 0, 0, 0, 0, 0, 0\n0, 0, 0, 0, 0, 0, 0, 0, 0, 0, 0, 0, 0, 0\n0, 0, 0, 0, 0, 0, 0, 0, 0, 0, 0, 0, 0, 0\n0, 0, 0, 0, 0, 0, 0, 0, 0, 0, 0, 0, 0, 0\n0, 0, 0, 0, 0, 0, 0, 0, 0, 0, 0, 0, 0, 0\n0, 0, 0, 0, 0, 0, 0, 0, 0, 0, 0, 0, 0, 0\n0, 0, 0, 0, 0, 0, 0, 0, 0, 0, 0, 0, 0, 0\n0, 0, 0, 0, 0, 0, 0, 0, 0, 0, 0, 0, 0, 0\n0, 0, 0, 0, 0, 0, 0, 0, 0]"] ;
58 -> 170 ;
171 [label="gini = 0.0\nsamples = 4\nvalue = [0, 0, 0, 0, 0, 0, 0, 0, 0, 0, 0, 0, 0, 0\n0, 0, 0, 0, 0, 0, 0, 0, 4, 0, 0, 0, 0, 0\n0, 0, 0, 0, 0, 0, 0, 0, 0, 0, 0, 0, 0, 0\n0, 0, 0, 0, 0, 0, 0, 0, 0, 0, 0, 0, 0, 0\n0, 0, 0, 0, 0, 0, 0, 0, 0, 0, 0, 0, 0, 0\n0, 0, 0, 0, 0, 0, 0, 0, 0, 0, 0, 0, 0, 0\n0, 0, 0, 0, 0, 0, 0, 0, 0, 0, 0, 0, 0, 0\n0, 0, 0, 0, 0, 0, 0, 0, 0, 0, 0, 0, 0, 0\n0, 0, 0, 0, 0, 0, 0, 0, 0, 0, 0, 0, 0, 0\n0, 0, 0, 0, 0, 0, 0, 0, 0, 0, 0, 0, 0, 0\n0, 0, 0, 0, 0, 0, 0, 0, 0]"] ;
57 -> 171 ;
172 [label="gini = 0.0\nsamples = 4\nvalue = [0, 0, 0, 0, 0, 0, 0, 0, 0, 0, 0, 0, 0, 0\n0, 0, 0, 0, 0, 0, 0, 0, 0, 0, 0, 0, 0, 0\n0, 0, 0, 0, 0, 0, 0, 0, 0, 0, 0, 0, 0, 0\n0, 0, 0, 0, 0, 0, 0, 0, 0, 0, 0, 0, 0, 0\n0, 0, 0, 0, 0, 0, 0, 0, 0, 0, 0, 0, 0, 0\n0, 0, 0, 0, 0, 0, 0, 0, 0, 0, 0, 0, 0, 0\n0, 0, 0, 0, 0, 0, 4, 0, 0, 0, 0, 0, 0, 0\n0, 0, 0, 0, 0, 0, 0, 0, 0, 0, 0, 0, 0, 0\n0, 0, 0, 0, 0, 0, 0, 0, 0, 0, 0, 0, 0, 0\n0, 0, 0, 0, 0, 0, 0, 0, 0, 0, 0, 0, 0, 0\n0, 0, 0, 0, 0, 0, 0, 0, 0]"] ;
56 -> 172 ;
173 [label="gini = 0.0\nsamples = 4\nvalue = [0, 0, 0, 0, 0, 0, 0, 0, 0, 0, 0, 0, 0, 0\n0, 0, 0, 0, 0, 0, 0, 0, 0, 0, 0, 0, 0, 0\n0, 0, 0, 0, 0, 0, 0, 0, 0, 0, 0, 0, 0, 0\n0, 0, 0, 0, 0, 0, 0, 0, 0, 0, 0, 0, 0, 0\n0, 0, 4, 0, 0, 0, 0, 0, 0, 0, 0, 0, 0, 0\n0, 0, 0, 0, 0, 0, 0, 0, 0, 0, 0, 0, 0, 0\n0, 0, 0, 0, 0, 0, 0, 0, 0, 0, 0, 0, 0, 0\n0, 0, 0, 0, 0, 0, 0, 0, 0, 0, 0, 0, 0, 0\n0, 0, 0, 0, 0, 0, 0, 0, 0, 0, 0, 0, 0, 0\n0, 0, 0, 0, 0, 0, 0, 0, 0, 0, 0, 0, 0, 0\n0, 0, 0, 0, 0, 0, 0, 0, 0]"] ;
55 -> 173 ;
174 [label="gini = 0.0\nsamples = 4\nvalue = [0, 0, 4, 0, 0, 0, 0, 0, 0, 0, 0, 0, 0, 0\n0, 0, 0, 0, 0, 0, 0, 0, 0, 0, 0, 0, 0, 0\n0, 0, 0, 0, 0, 0, 0, 0, 0, 0, 0, 0, 0, 0\n0, 0, 0, 0, 0, 0, 0, 0, 0, 0, 0, 0, 0, 0\n0, 0, 0, 0, 0, 0, 0, 0, 0, 0, 0, 0, 0, 0\n0, 0, 0, 0, 0, 0, 0, 0, 0, 0, 0, 0, 0, 0\n0, 0, 0, 0, 0, 0, 0, 0, 0, 0, 0, 0, 0, 0\n0, 0, 0, 0, 0, 0, 0, 0, 0, 0, 0, 0, 0, 0\n0, 0, 0, 0, 0, 0, 0, 0, 0, 0, 0, 0, 0, 0\n0, 0, 0, 0, 0, 0, 0, 0, 0, 0, 0, 0, 0, 0\n0, 0, 0, 0, 0, 0, 0, 0, 0]"] ;
54 -> 174 ;
175 [label="gini = 0.0\nsamples = 4\nvalue = [0, 0, 0, 0, 0, 0, 0, 0, 0, 0, 0, 0, 0, 0\n0, 0, 4, 0, 0, 0, 0, 0, 0, 0, 0, 0, 0, 0\n0, 0, 0, 0, 0, 0, 0, 0, 0, 0, 0, 0, 0, 0\n0, 0, 0, 0, 0, 0, 0, 0, 0, 0, 0, 0, 0, 0\n0, 0, 0, 0, 0, 0, 0, 0, 0, 0, 0, 0, 0, 0\n0, 0, 0, 0, 0, 0, 0, 0, 0, 0, 0, 0, 0, 0\n0, 0, 0, 0, 0, 0, 0, 0, 0, 0, 0, 0, 0, 0\n0, 0, 0, 0, 0, 0, 0, 0, 0, 0, 0, 0, 0, 0\n0, 0, 0, 0, 0, 0, 0, 0, 0, 0, 0, 0, 0, 0\n0, 0, 0, 0, 0, 0, 0, 0, 0, 0, 0, 0, 0, 0\n0, 0, 0, 0, 0, 0, 0, 0, 0]"] ;
53 -> 175 ;
176 [label="gini = 0.0\nsamples = 4\nvalue = [0, 0, 0, 0, 0, 0, 0, 0, 0, 0, 0, 0, 0, 0\n0, 0, 0, 0, 0, 0, 4, 0, 0, 0, 0, 0, 0, 0\n0, 0, 0, 0, 0, 0, 0, 0, 0, 0, 0, 0, 0, 0\n0, 0, 0, 0, 0, 0, 0, 0, 0, 0, 0, 0, 0, 0\n0, 0, 0, 0, 0, 0, 0, 0, 0, 0, 0, 0, 0, 0\n0, 0, 0, 0, 0, 0, 0, 0, 0, 0, 0, 0, 0, 0\n0, 0, 0, 0, 0, 0, 0, 0, 0, 0, 0, 0, 0, 0\n0, 0, 0, 0, 0, 0, 0, 0, 0, 0, 0, 0, 0, 0\n0, 0, 0, 0, 0, 0, 0, 0, 0, 0, 0, 0, 0, 0\n0, 0, 0, 0, 0, 0, 0, 0, 0, 0, 0, 0, 0, 0\n0, 0, 0, 0, 0, 0, 0, 0, 0]"] ;
52 -> 176 ;
177 [label="gini = 0.0\nsamples = 4\nvalue = [0, 0, 0, 0, 0, 0, 0, 0, 0, 0, 0, 0, 0, 0\n0, 0, 0, 0, 0, 0, 0, 0, 0, 0, 0, 0, 0, 0\n0, 0, 0, 0, 0, 0, 0, 0, 0, 0, 0, 4, 0, 0\n0, 0, 0, 0, 0, 0, 0, 0, 0, 0, 0, 0, 0, 0\n0, 0, 0, 0, 0, 0, 0, 0, 0, 0, 0, 0, 0, 0\n0, 0, 0, 0, 0, 0, 0, 0, 0, 0, 0, 0, 0, 0\n0, 0, 0, 0, 0, 0, 0, 0, 0, 0, 0, 0, 0, 0\n0, 0, 0, 0, 0, 0, 0, 0, 0, 0, 0, 0, 0, 0\n0, 0, 0, 0, 0, 0, 0, 0, 0, 0, 0, 0, 0, 0\n0, 0, 0, 0, 0, 0, 0, 0, 0, 0, 0, 0, 0, 0\n0, 0, 0, 0, 0, 0, 0, 0, 0]"] ;
51 -> 177 ;
178 [label="gini = 0.0\nsamples = 4\nvalue = [0, 0, 0, 0, 0, 0, 0, 0, 0, 0, 0, 0, 0, 0\n0, 0, 0, 0, 0, 0, 0, 0, 0, 0, 0, 0, 0, 0\n0, 0, 0, 0, 0, 0, 0, 0, 0, 0, 0, 0, 0, 0\n0, 0, 0, 0, 0, 0, 4, 0, 0, 0, 0, 0, 0, 0\n0, 0, 0, 0, 0, 0, 0, 0, 0, 0, 0, 0, 0, 0\n0, 0, 0, 0, 0, 0, 0, 0, 0, 0, 0, 0, 0, 0\n0, 0, 0, 0, 0, 0, 0, 0, 0, 0, 0, 0, 0, 0\n0, 0, 0, 0, 0, 0, 0, 0, 0, 0, 0, 0, 0, 0\n0, 0, 0, 0, 0, 0, 0, 0, 0, 0, 0, 0, 0, 0\n0, 0, 0, 0, 0, 0, 0, 0, 0, 0, 0, 0, 0, 0\n0, 0, 0, 0, 0, 0, 0, 0, 0]"] ;
50 -> 178 ;
179 [label="gini = 0.0\nsamples = 4\nvalue = [0, 0, 0, 0, 0, 0, 0, 0, 0, 0, 0, 0, 0, 0\n0, 0, 0, 0, 0, 0, 0, 0, 0, 0, 0, 0, 0, 0\n0, 0, 0, 0, 0, 0, 0, 0, 0, 0, 0, 0, 0, 0\n0, 0, 0, 0, 0, 0, 0, 0, 0, 0, 0, 0, 0, 0\n0, 0, 0, 0, 0, 0, 0, 0, 0, 0, 0, 0, 0, 0\n0, 0, 0, 0, 0, 0, 0, 0, 0, 0, 0, 0, 0, 0\n0, 0, 0, 0, 0, 0, 0, 0, 0, 0, 0, 0, 0, 0\n0, 0, 4, 0, 0, 0, 0, 0, 0, 0, 0, 0, 0, 0\n0, 0, 0, 0, 0, 0, 0, 0, 0, 0, 0, 0, 0, 0\n0, 0, 0, 0, 0, 0, 0, 0, 0, 0, 0, 0, 0, 0\n0, 0, 0, 0, 0, 0, 0, 0, 0]"] ;
49 -> 179 ;
180 [label="gini = 0.0\nsamples = 4\nvalue = [0, 0, 0, 0, 0, 0, 0, 0, 0, 0, 0, 0, 0, 0\n0, 0, 0, 0, 0, 0, 0, 0, 0, 0, 0, 0, 0, 0\n0, 0, 0, 0, 0, 0, 0, 0, 0, 0, 0, 0, 0, 0\n0, 0, 0, 0, 0, 0, 0, 0, 0, 0, 0, 0, 0, 0\n0, 0, 0, 0, 0, 0, 0, 0, 0, 0, 0, 0, 0, 0\n0, 0, 0, 0, 0, 0, 0, 0, 0, 0, 0, 0, 0, 0\n0, 0, 0, 0, 0, 0, 0, 0, 0, 0, 0, 0, 0, 0\n0, 0, 0, 0, 0, 0, 0, 0, 0, 0, 0, 0, 4, 0\n0, 0, 0, 0, 0, 0, 0, 0, 0, 0, 0, 0, 0, 0\n0, 0, 0, 0, 0, 0, 0, 0, 0, 0, 0, 0, 0, 0\n0, 0, 0, 0, 0, 0, 0, 0, 0]"] ;
48 -> 180 ;
181 [label="phonophobia <= 0.5\ngini = 0.747\nsamples = 17\nvalue = [0, 4, 0, 0, 4, 0, 0, 0, 0, 0, 0, 0, 0, 0\n0, 0, 0, 0, 0, 0, 0, 0, 0, 0, 0, 0, 0, 0\n0, 0, 0, 0, 0, 0, 0, 0, 0, 0, 0, 0, 0, 0\n0, 0, 0, 0, 0, 0, 0, 0, 0, 0, 0, 0, 0, 0\n0, 0, 0, 0, 0, 4, 0, 0, 0, 0, 0, 0, 0, 0\n0, 0, 0, 0, 5, 0, 0, 0, 0, 0, 0, 0, 0, 0\n0, 0, 0, 0, 0, 0, 0, 0, 0, 0, 0, 0, 0, 0\n0, 0, 0, 0, 0, 0, 0, 0, 0, 0, 0, 0, 0, 0\n0, 0, 0, 0, 0, 0, 0, 0, 0, 0, 0, 0, 0, 0\n0, 0, 0, 0, 0, 0, 0, 0, 0, 0, 0, 0, 0, 0\n0, 0, 0, 0, 0, 0, 0, 0, 0]"] ;
47 -> 181 ;
182 [label="hepatosplenomegaly <= 0.5\ngini = 0.667\nsamples = 12\nvalue = [0, 4, 0, 0, 4, 0, 0, 0, 0, 0, 0, 0, 0, 0\n0, 0, 0, 0, 0, 0, 0, 0, 0, 0, 0, 0, 0, 0\n0, 0, 0, 0, 0, 0, 0, 0, 0, 0, 0, 0, 0, 0\n0, 0, 0, 0, 0, 0, 0, 0, 0, 0, 0, 0, 0, 0\n0, 0, 0, 0, 0, 4, 0, 0, 0, 0, 0, 0, 0, 0\n0, 0, 0, 0, 0, 0, 0, 0, 0, 0, 0, 0, 0, 0\n0, 0, 0, 0, 0, 0, 0, 0, 0, 0, 0, 0, 0, 0\n0, 0, 0, 0, 0, 0, 0, 0, 0, 0, 0, 0, 0, 0\n0, 0, 0, 0, 0, 0, 0, 0, 0, 0, 0, 0, 0, 0\n0, 0, 0, 0, 0, 0, 0, 0, 0, 0, 0, 0, 0, 0\n0, 0, 0, 0, 0, 0, 0, 0, 0]"] ;
181 -> 182 ;
183 [label="gini = 0.0\nsamples = 4\nvalue = [0, 0, 0, 0, 0, 0, 0, 0, 0, 0, 0, 0, 0, 0\n0, 0, 0, 0, 0, 0, 0, 0, 0, 0, 0, 0, 0, 0\n0, 0, 0, 0, 0, 0, 0, 0, 0, 0, 0, 0, 0, 0\n0, 0, 0, 0, 0, 0, 0, 0, 0, 0, 0, 0, 0, 0\n0, 0, 0, 0, 0, 4, 0, 0, 0, 0, 0, 0, 0, 0\n0, 0, 0, 0, 0, 0, 0, 0, 0, 0, 0, 0, 0, 0\n0, 0, 0, 0, 0, 0, 0, 0, 0, 0, 0, 0, 0, 0\n0, 0, 0, 0, 0, 0, 0, 0, 0, 0, 0, 0, 0, 0\n0, 0, 0, 0, 0, 0, 0, 0, 0, 0, 0, 0, 0, 0\n0, 0, 0, 0, 0, 0, 0, 0, 0, 0, 0, 0, 0, 0\n0, 0, 0, 0, 0, 0, 0, 0, 0]"] ;
182 -> 183 ;
184 [label="tachypnea <= 0.5\ngini = 0.5\nsamples = 8\nvalue = [0, 4, 0, 0, 4, 0, 0, 0, 0, 0, 0, 0, 0, 0\n0, 0, 0, 0, 0, 0, 0, 0, 0, 0, 0, 0, 0, 0\n0, 0, 0, 0, 0, 0, 0, 0, 0, 0, 0, 0, 0, 0\n0, 0, 0, 0, 0, 0, 0, 0, 0, 0, 0, 0, 0, 0\n0, 0, 0, 0, 0, 0, 0, 0, 0, 0, 0, 0, 0, 0\n0, 0, 0, 0, 0, 0, 0, 0, 0, 0, 0, 0, 0, 0\n0, 0, 0, 0, 0, 0, 0, 0, 0, 0, 0, 0, 0, 0\n0, 0, 0, 0, 0, 0, 0, 0, 0, 0, 0, 0, 0, 0\n0, 0, 0, 0, 0, 0, 0, 0, 0, 0, 0, 0, 0, 0\n0, 0, 0, 0, 0, 0, 0, 0, 0, 0, 0, 0, 0, 0\n0, 0, 0, 0, 0, 0, 0, 0, 0]"] ;
182 -> 184 ;
185 [label="gini = 0.0\nsamples = 4\nvalue = [0, 4, 0, 0, 0, 0, 0, 0, 0, 0, 0, 0, 0, 0\n0, 0, 0, 0, 0, 0, 0, 0, 0, 0, 0, 0, 0, 0\n0, 0, 0, 0, 0, 0, 0, 0, 0, 0, 0, 0, 0, 0\n0, 0, 0, 0, 0, 0, 0, 0, 0, 0, 0, 0, 0, 0\n0, 0, 0, 0, 0, 0, 0, 0, 0, 0, 0, 0, 0, 0\n0, 0, 0, 0, 0, 0, 0, 0, 0, 0, 0, 0, 0, 0\n0, 0, 0, 0, 0, 0, 0, 0, 0, 0, 0, 0, 0, 0\n0, 0, 0, 0, 0, 0, 0, 0, 0, 0, 0, 0, 0, 0\n0, 0, 0, 0, 0, 0, 0, 0, 0, 0, 0, 0, 0, 0\n0, 0, 0, 0, 0, 0, 0, 0, 0, 0, 0, 0, 0, 0\n0, 0, 0, 0, 0, 0, 0, 0, 0]"] ;
184 -> 185 ;
186 [label="gini = 0.0\nsamples = 4\nvalue = [0, 0, 0, 0, 4, 0, 0, 0, 0, 0, 0, 0, 0, 0\n0, 0, 0, 0, 0, 0, 0, 0, 0, 0, 0, 0, 0, 0\n0, 0, 0, 0, 0, 0, 0, 0, 0, 0, 0, 0, 0, 0\n0, 0, 0, 0, 0, 0, 0, 0, 0, 0, 0, 0, 0, 0\n0, 0, 0, 0, 0, 0, 0, 0, 0, 0, 0, 0, 0, 0\n0, 0, 0, 0, 0, 0, 0, 0, 0, 0, 0, 0, 0, 0\n0, 0, 0, 0, 0, 0, 0, 0, 0, 0, 0, 0, 0, 0\n0, 0, 0, 0, 0, 0, 0, 0, 0, 0, 0, 0, 0, 0\n0, 0, 0, 0, 0, 0, 0, 0, 0, 0, 0, 0, 0, 0\n0, 0, 0, 0, 0, 0, 0, 0, 0, 0, 0, 0, 0, 0\n0, 0, 0, 0, 0, 0, 0, 0, 0]"] ;
184 -> 186 ;
187 [label="gini = 0.0\nsamples = 5\nvalue = [0, 0, 0, 0, 0, 0, 0, 0, 0, 0, 0, 0, 0, 0\n0, 0, 0, 0, 0, 0, 0, 0, 0, 0, 0, 0, 0, 0\n0, 0, 0, 0, 0, 0, 0, 0, 0, 0, 0, 0, 0, 0\n0, 0, 0, 0, 0, 0, 0, 0, 0, 0, 0, 0, 0, 0\n0, 0, 0, 0, 0, 0, 0, 0, 0, 0, 0, 0, 0, 0\n0, 0, 0, 0, 5, 0, 0, 0, 0, 0, 0, 0, 0, 0\n0, 0, 0, 0, 0, 0, 0, 0, 0, 0, 0, 0, 0, 0\n0, 0, 0, 0, 0, 0, 0, 0, 0, 0, 0, 0, 0, 0\n0, 0, 0, 0, 0, 0, 0, 0, 0, 0, 0, 0, 0, 0\n0, 0, 0, 0, 0, 0, 0, 0, 0, 0, 0, 0, 0, 0\n0, 0, 0, 0, 0, 0, 0, 0, 0]"] ;
181 -> 187 ;
188 [label="muscle twitch <= 0.5\ngini = 0.494\nsamples = 9\nvalue = [0, 0, 0, 0, 0, 0, 0, 0, 0, 0, 0, 0, 0, 0\n0, 0, 0, 4, 0, 0, 0, 0, 0, 0, 0, 0, 0, 0\n0, 0, 0, 0, 0, 0, 0, 0, 0, 0, 0, 0, 0, 0\n0, 0, 0, 0, 0, 0, 0, 0, 0, 0, 0, 0, 0, 0\n0, 0, 0, 0, 0, 0, 0, 0, 0, 0, 0, 0, 0, 0\n0, 0, 0, 0, 0, 0, 0, 0, 0, 0, 0, 0, 0, 0\n0, 0, 0, 0, 0, 0, 0, 0, 0, 0, 0, 0, 0, 0\n0, 0, 0, 0, 0, 0, 0, 0, 0, 0, 0, 0, 0, 0\n0, 0, 0, 0, 0, 0, 0, 0, 0, 0, 5, 0, 0, 0\n0, 0, 0, 0, 0, 0, 0, 0, 0, 0, 0, 0, 0, 0\n0, 0, 0, 0, 0, 0, 0, 0, 0]"] ;
46 -> 188 ;
